1024 128
AAAAA 0.3668572 -0.77792776 -0.07417784 -0.4907372 0.062436014 0.12625664 0.16235822 0.99481755 -0.026043702 -0.32611406 -0.22872221 0.3252909 0.08404853 -0.12530431 0.9343624 0.4320064 0.55223644 -0.0059664934 0.7468445 -0.2843642 -0.4901503 -0.19032894 0.38918078 1.1352051 0.14015375 0.35883555 0.121022694 -0.88139284 -0.22976248 1.0961019 0.23567556 -0.35387343 -0.21878695 0.67744523 0.21588194 0.5228889 0.4271515 -0.36461025 0.1806097 -0.47643864 -0.21181387 -0.09883785 0.05688955 -0.33538562 0.56893134 0.04508639 0.0024567586 0.033040274 0.029328214 -0.007375216 -0.47302508 -0.7162016 -0.16262335 -1.0619487 -0.14398348 -0.09546636 -0.160165 1.1262593 -0.28192455 -0.07339915 0.036848843 -0.12884699 0.46653026 -0.46625373 -1.0876614 0.429865 -0.47146305 0.7619097 -0.19110763 -0.35400718 0.19086263 -0.31511706 -0.17679791 -0.40021512 0.38894442 -0.15887804 0.96199423 -0.55647755 0.5358895 0.12713963 0.25877705 -0.28754976 0.94589424 -0.04550765 -0.35311246 0.25472754 -0.61084163 0.78135484 -0.021307552 -0.48574758 0.16266176 -0.7030314 0.23116775 -0.09234417 0.6277111 -0.021608217 0.34195176 -0.124973685 -0.36026672 0.24260888 0.092437096 0.25776476 -0.26861957 0.58099645 0.18804947 -0.41140223 -0.310814 0.74997675 0.04709285 0.765573 0.25071108 -0.8218789 0.16339757 0.32072312 -0.5900311 -0.41802338 -0.74669313 0.14622663 -0.08707578 -0.3573098 0.5122698 0.18432881 -0.26793253 -0.51217794 0.2961794 0.40395513 -0.24896394 0.2941398
TTTTT -0.12388013 0.71702474 0.4948311 -0.14102553 0.7509851 -0.5698858 -0.0792538 0.051976006 -0.9428781 -0.9500263 -0.077546425 0.5389753 -0.6035073 -0.37319186 0.66701674 1.0311412 0.41991544 -0.18308906 -0.31409904 -0.54337096 -0.88472664 0.44771504 0.111786224 0.7139319 -0.51457316 0.04999362 0.19240685 -0.67212206 -0.06299064 0.44038305 0.07507662 -0.20662844 -0.549594 0.355638 0.7158069 0.003530092 -0.10556573 0.70318395 -0.7392634 0.33406958 0.3533232 0.20638932 0.57177144 0.36549023 0.43336734 -0.5581659 -0.06280586 -0.08963838 1.011314 -0.35379067 -0.054415148 -0.18623571 -0.3485041 -1.0715376 -0.13556075 -0.7704044 -0.4838461 -0.22246099 -0.5960794 -0.019249264 -0.09248037 0.099765055 -0.24056777 -0.03257143 -0.23380949 0.17680919 -0.17584006 -0.20318349 0.3930898 0.4705214 0.2739855 0.27747953 -0.0068593505 0.28828365 0.0064154644 -0.4362557 0.3930005 0.72425807 -0.09913052 0.10113059 0.20234327 0.5062086 0.39180562 0.4107358 0.44922075 -0.4645805 0.55826986 -0.7391719 0.14429425 0.030806607 -0.41885534 0.00609685 0.296508 -0.47740826 0.5079332 0.6026195 -0.5557035 -0.43800798 -0.292896 0.04426146 -0.14304182 0.5403097 0.2435485 1.4772874 -0.78942406 -0.01870157 0.078168906 -0.20013696 -0.16719963 0.41651607 0.54587626 0.2411469 -0.033436358 -0.26733944 0.01494562 0.18415596 0.31075865 0.055282775 -0.51026875 0.22044972 -0.14743699 -0.055091605 -0.5928846 -0.38009268 -0.13394852 0.030961037 0.11810838 0.27673572
CCAGG -0.2588358 -0.20419973 0.07090542 0.26264334 -0.14570488 -1.1506774 -0.42589715 -0.5054101 -0.36692497 0.16029583 -0.8559523 0.75032806 0.4461843 -0.56949896 0.5958989 -0.32181954 0.026131887 -0.63414633 -0.48531318 -0.71725696 0.24487722 -0.56583875 -0.41299552 -0.0037955863 0.25349393 0.77692914 -0.2493717 0.5276435 -0.30283925 -0.18723261 0.58941567 0.2339387 0.4898981 0.35454857 0.7796865 0.6291268 0.37978858 -0.31368256 0.24710661 -1.1689038 0.80430937 0.1995126 0.31388888 0.5482589 -0.23650192 -0.32818326 -0.9337551 -0.70720154 0.005883677 -0.542537 0.48312253 -1.215282 -0.0573646 0.9083319 -0.33435857 -0.8473699 0.60265106 0.11781513 0.12512684 -0.75454944 -0.22967075 -0.9996198 -0.20494787 -0.21071371 -0.31758127 0.54079956 -0.44151112 -0.7947018 0.11622714 -1.0100592 -0.21457744 -0.2274317 -0.4481415 0.49117732 0.87415725 -0.09399048 0.9614555 0.42310396 -0.83821803 -0.16546287 0.46901092 0.64977217 0.163547 0.41906324 -0.045548704 0.117232814 -0.4709779 -0.68103695 -0.5766685 -0.46897924 0.08149123 -1.0043751 0.3413675 -0.024484497 -0.43397748 0.16280472 -0.6146849 0.12986493 -0.029371869 0.11580211 0.58673006 0.30121875 0.5359379 -0.2701253 -0.13171053 0.54141134 -0.0913251 0.26620513 -0.4522382 -0.2544448 0.44772884 -0.08736702 0.19035672 0.56754684 -0.3781496 0.44696045 -0.54128546 -0.42775252 0.36554694 0.37006027 0.11535939 0.17987053 -0.06857217 -0.34420922 0.5739663 -0.27389833 -0.13908699 0.71831363
CCTGG -0.23403285 0.40418285 0.42291725 -0.32498968 -0.5217958 -1.2081007 -0.2586943 -0.5696825 -0.9088818 -0.1389896 -0.91497594 0.0008113194 0.8404899 -0.38376924 0.33458158 -0.18421592 -0.69180924 -0.86168253 0.07561749 0.48098934 -0.17007789 -0.82728755 0.76691264 -0.49675703 0.39965588 0.9517944 -0.6485168 0.21991006 -0.40680382 -0.036918644 0.61287826 -0.018403756 -0.7773781 0.051991027 0.01894191 0.7531669 0.20440753 -0.20811017 0.6398908 -1.4049568 0.40476155 -1.1052628 -0.09513676 0.26185203 -0.9118428 -0.6263625 0.0024609466 0.46436495 0.05623532 -1.1598758 0.22160277 0.29388368 -0.47514758 -0.2519948 -1.3113134 -1.3718652 0.7665112 -0.5461993 0.2804309 0.0507066 -0.7428488 -0.54632205 -0.6018539 -1.0125576 -0.7420201 -0.09992614 0.2022837 0.20053585 0.5216281 -0.77454436 0.4613268 -0.2769876 -1.0362598 -0.20205957 -0.15329765 -0.7085188 -0.20234059 0.14032169 -0.97937024 -0.49631715 0.32882592 0.7086278 0.13810278 -0.12347633 0.1517621 -0.6102576 0.6461699 -0.18536389 -0.2233797 0.057535995 -0.70050853 -0.78510916 0.27399993 -0.24535637 -0.08122003 0.07607334 0.47904456 -0.15844718 -0.47264677 0.76589555 -0.33843878 -0.0003801594 -0.88621134 0.6188592 -0.47158188 0.52637136 -0.74835694 -0.27349278 0.29414228 -0.045580357 0.04291239 -0.009129237 -0.6511555 -0.3215395 -0.0021406442 -0.37285298 -0.119368985 -0.46319744 0.12992124 -0.13165191 0.093780085 -0.39110255 -0.13032128 0.39794573 -0.66362154 -0.4653207 -0.22655843 0.51700854
CAGCA 0.024362553 -0.6418648 -0.17109372 -1.1682514 0.5194332 -0.41723332 -0.36519676 -0.34316677 0.5251875 -0.10418169 -0.3946258 -0.22393848 -0.10667405 -0.2157749 0.6071174 -0.05842311 -0.31155902 -0.47447067 0.010507769 -0.20189245 0.018534698 -0.11324585 0.24501117 0.029513191 0.4649363 0.65591013 -0.010132728 0.010908731 -0.45661953 0.56797004 0.7010441 -0.6953596 -0.06521455 -0.042207226 0.2626695 0.7171602 0.5268159 0.72273606 0.4018099 0.36872664 -0.12225733 0.309627 -0.260186 -0.8158078 0.39257178 0.0858566 0.6655849 -0.81180096 0.17535856 0.18769687 -0.080869146 -0.9749066 -0.052369796 0.26344016 0.23851947 -0.350834 0.09172621 1.0023875 0.16613622 -0.028142566 0.13267422 0.019677551 -0.22238399 0.095665514 -0.2993678 -0.9203486 0.24572201 -0.44082692 -0.032723736 -0.4456313 0.4639358 0.029552605 -0.44535992 0.37276652 0.42128253 -0.11415925 0.23947987 0.28944686 0.6036264 -0.05947176 0.40348566 0.18953824 -0.29454646 0.16478589 -1.2978742 0.002127568 -0.116697825 0.51840466 -0.42317346 0.21310127 -0.6071589 -0.4668603 0.25510526 0.3184012 -0.15985762 -0.7228867 -0.62977195 -0.13815013 0.89408314 0.1682525 -0.335259 0.34781235 0.9828437 0.56482947 -0.117284395 0.35477757 -0.79141223 -0.19720791 -0.2468779 0.1421545 0.10427342 -1.1940131 0.42109632 0.33665302 0.6923691 -0.14810933 -0.48702294 -0.28128967 -0.31152254 1.0150818 0.3771939 0.32653278 -0.3495164 -0.4127169 0.40618384 0.48366633 0.5176256 -0.14816368
TGCTG 0.8103336 0.21987782 0.48560628 -0.41559502 -0.21082164 -0.53437763 -0.33701068 -0.7605693 -0.48565754 -0.76806164 -1.347393 0.48963535 -0.028600482 0.11139037 -0.18870117 0.12850326 -0.026728353 0.25175136 0.36101982 -0.2871529 0.2915716 0.15839222 -0.28804827 -0.44966048 0.3233464 -0.19242837 0.4337821 0.16140091 -1.2133261 0.47407743 0.13012864 0.61076236 -0.17382163 -0.29664806 -0.33329105 0.45521143 0.40224522 0.9063237 -0.03824113 0.23413415 0.25841296 0.3428642 0.35607517 -0.1888963 -0.39643076 0.12443951 -0.6303183 -0.89404917 0.44337934 -0.3531057 -0.06611983 0.7655868 -0.071640566 -0.40055966 -0.32974657 -0.59435564 0.11750709 -0.13423118 -1.2383919 -0.5624564 0.037021905 0.21145 -0.31915745 -0.8609899 -0.2625099 -0.63454527 -0.32275018 0.6424263 -0.07925238 -0.1518554 0.34170264 -0.057619352 -0.8659377 -0.020392708 0.28882974 0.23940393 0.88502014 -0.05673377 -0.6088521 -0.39046675 -1.3125274 -0.7499224 0.37302345 -0.6983897 0.7553544 -0.963113 0.5828699 0.29242826 0.07891881 0.021579958 -1.1495575 0.5725678 0.27226642 0.12017304 0.51417816 -0.10677676 0.23163292 -0.1200391 0.16195753 -0.045236498 -0.2933849 0.35030192 0.46658722 -0.14633667 -0.11256942 -0.37581167 -0.8209471 0.33513588 -0.02338498 0.776897 0.6113349 0.534585 0.12740761 -0.5753436 -0.46076953 -0.32372904 -0.21725753 0.23843543 0.19990087 0.20508093 0.622047 -0.24405253 -0.05903775 0.37939116 -0.31008968 -0.67728823 0.10430412 0.29025206
CCAGC -0.18229501 0.12017586 -0.70831186 -0.42349496 -0.30982307 -0.3549991 -0.5070284 -0.39028764 0.15169263 -0.14334019 -0.41316006 -0.5208092 0.0014138771 -0.17805839 0.78492004 -0.54346156 -0.33948734 -0.4446835 -0.8089287 -0.20745419 -0.5745587 -0.47175637 -0.13645655 -0.06964358 -0.1188321 0.3632047 0.06966585 -0.37621218 -0.32407314 -0.057799943 -0.48577297 -0.344936 0.3600348 0.01670513 0.3831113 1.5821068 -0.37265486 0.6213954 0.8939623 -0.6670069 -0.6889558 0.21171466 -0.3271176 -0.65793073 -0.6690972 0.45417893 -0.38319975 -0.30039328 -0.6988346 -0.10566392 0.16136514 -0.6986523 -0.5574424 0.21409254 -0.73431885 -0.4736191 0.7558352 0.796583 -0.615372 -0.07357833 0.23329018 -0.18199645 -0.7534116 -0.19839656 -0.5980206 -0.42969567 -0.7323798 -0.9126961 0.22982745 -0.8788459 -0.51000893 -0.24927029 -0.09351046 0.3979764 -0.29103872 -0.049690995 0.08283013 0.48378608 -0.43406138 -0.021301705 0.83791554 0.47054216 -0.2727346 -0.469818 -0.16428061 -0.30511004 -0.6921145 -0.8721709 -0.5652911 0.3461281 -0.69768226 -1.0133497 0.11128133 0.02503824 0.03196442 -0.19677201 -0.43604136 -0.36901218 1.0435476 0.25126275 -0.16250096 0.32305196 0.23050568 0.184976 0.40712932 -0.837626 -0.2701339 0.072832495 0.1708489 -0.10713408 1.2056631 -0.3371864 -0.27882388 1.1253655 0.5029704 -0.4126349 -0.443761 -0.5648869 -0.025017932 0.62428594 0.17188102 0.12329623 0.24484561 0.064547986 0.640237 0.49140242 0.42548287 0.5194854
GCTGG 0.32826003 -0.2193248 0.96235937 0.39971247 -0.3647685 -1.5333551 0.3864529 -0.04531606 -0.6090608 -0.2702606 -0.9126269 -0.39257276 -0.14731506 0.19703363 -0.120198 0.33115438 0.534216 0.46155268 0.7345223 0.04426993 0.26728982 0.1600004 -0.050341595 -0.38939175 -0.27520812 0.53926915 0.5224708 0.5807665 -1.0297432 0.5970622 0.33940715 -0.41253918 0.48062214 0.13629092 0.061497647 0.32687673 0.5662997 -0.47021827 -0.30478397 -0.083502196 -0.040192153 -0.05000245 -0.4524831 0.032834727 -0.13877673 0.26719502 -0.38362554 0.24705023 -0.23304948 -0.56498206 0.9133932 0.33136776 1.0507562 0.12219148 -0.44990095 -0.7315084 0.52208185 0.21457542 -0.98664516 0.079691425 -0.5801257 -0.51230514 -0.6332275 -0.29014102 -0.8478239 0.03673738 -0.19569272 0.63218224 -0.36851642 -0.325083 -0.17779838 -0.58870965 -0.6292247 0.2122939 -0.32724103 0.038509946 -0.038062893 -0.21497487 -0.6088087 -1.0342927 -0.30026206 -0.648348 -0.34126022 -1.1845237 0.050268136 -1.0810335 -0.106594965 0.3750864 -0.20940219 -0.22474727 -0.38001907 -0.959654 -0.6999837 0.14286283 -0.22229277 0.045174 0.4425383 0.027155004 0.29952866 0.5349042 -0.040419172 0.3809805 -0.47633833 0.15727216 -0.9431112 0.12999353 -1.1914214 0.11735054 -0.0889845 0.16946973 0.5635316 0.44768956 0.115217894 -0.8364724 -0.44408587 0.10162296 0.28617647 -0.29648992 -0.4384086 -0.16054545 0.16214614 -0.031654596 -0.25440568 0.22069015 0.4343603 0.32716957 -0.4368033 1.035976
GCTGC 0.47157517 -0.34409714 -0.45497313 0.35236704 0.4047185 -0.14060305 0.62633604 -0.38734773 0.44807142 -0.63825655 -0.5225284 0.29723874 0.21521822 0.08680439 0.028191708 -0.34383065 -0.18153226 -0.64761823 -0.36728668 -0.27559388 0.029749189 0.07217046 -0.24894728 -0.46964496 0.43829823 0.32816187 0.3392086 -0.22954217 -0.16292873 -0.23776405 0.552578 0.9567851 0.43640512 0.19468197 0.20414458 0.1398922 -0.08095267 -0.017133173 -0.2823817 -0.20960167 -0.032349292 0.56278276 -0.5029062 -0.44714445 -0.20510182 -0.41241556 -0.43864864 0.34024146 0.4251001 -0.27148622 0.1454153 -0.11125635 0.73289216 -0.2754109 -0.28094977 -0.08424021 0.06940079 0.36644852 -0.5687568 0.07139244 -0.13133012 0.23670179 -0.65533495 0.5793339 -0.592674 -0.046939842 -0.366893 0.25855908 -0.63601667 -0.18126193 0.42645684 0.05159111 -0.769903 0.07341951 -0.8814992 0.11843933 0.09042637 -0.124587424 0.12435489 -0.9062059 -0.4899692 -0.33384138 -0.5501544 -0.23858128 0.29803935 -0.4085636 0.4161727 0.029409407 -0.11960019 -0.11399906 -0.934575 -0.34642246 -0.6992593 0.112769686 -0.0880411 -0.38735434 -0.4069478 0.34579033 0.008662714 -0.18662722 -0.043371983 0.54238325 0.48264018 0.7616231 -0.98125494 -0.3279263 -0.18149503 0.23081051 0.09748675 0.6737056 0.44004083 0.024450257 -0.52002907 -1.1413233 0.58915216 -0.539234 -0.37595677 -0.5581214 -0.19153555 0.47411287 0.25994104 0.44241926 -0.20969361 0.08276275 0.97258663 0.25609916 -0.27547625 0.93844473
GCAGC -0.08465485 0.4233121 -0.11209825 -0.30898324 0.67358327 -0.36965185 0.5305129 0.15511133 -0.11553211 -0.20049348 -0.30709502 0.14801876 0.14059445 0.45996872 -0.079333015 -0.32654408 -0.59414625 -0.6768914 -0.058568016 -0.119327106 -0.51261556 -0.32192394 -0.43060255 -0.1638356 -0.31290302 -0.0004758783 0.33089402 -0.55755806 -0.24023528 -0.8490933 0.7626806 -0.4124974 0.05310394 -0.28062716 0.060763232 0.17751954 -0.70312846 0.30914664 0.17902575 0.1600486 -0.7847469 0.83479226 -0.66234684 -0.69706583 0.15678808 -0.619734 -0.28013134 -0.15818867 -0.175699 0.19847204 -0.39500275 -0.10212795 -0.21627012 0.3692071 0.33050644 -0.7511999 0.68963975 0.6054443 -0.1460733 -0.20426403 -0.02852233 0.009106506 -1.6608807 0.3803415 -0.2528397 -0.14804037 -0.60683435 0.36774966 -0.42174643 -0.49922365 0.0705361 -0.3961916 -0.5459947 0.31247288 0.016266657 -0.2592516 0.2559852 0.3650454 0.48189032 -0.11083654 -0.27283204 0.011166242 -0.19010969 -0.21059409 0.065675005 -0.07891558 -0.2909767 -0.45654687 -0.15718287 0.22263747 0.08403718 -0.52909553 -0.24061172 0.2310315 0.15632981 -0.2986626 -0.3052516 0.077218615 0.23661654 -0.19951987 0.0054180394 0.5609345 0.18038467 0.58706945 -0.1334896 -0.17470187 -1.0548673 0.66761243 -0.3568363 0.5907004 0.48454 0.13914376 -0.00046203771 -0.25284958 0.6962722 -0.5186724 -0.2202677 -0.8082593 0.06514186 -0.20811373 -0.56637955 0.6447326 -0.38841483 0.27503416 0.39911637 0.44275624 -0.39617938 0.4648726
AGCAG -0.27852023 -0.39998397 0.23013407 0.01770122 0.47094485 -0.47760594 0.46284208 -0.58802515 0.21103483 0.3037517 -0.15855643 0.5139528 -0.067274116 0.8136629 -0.17103578 0.0664497 -0.25189584 -0.47543305 0.4136884 -0.965527 0.14500354 -0.32247052 0.4798921 -0.7274296 -0.6708136 0.38485408 0.48756632 0.40284252 -0.6347944 0.322063 0.06857972 -0.24970748 0.2904089 0.43450132 0.20962894 0.6526821 0.19534396 0.5962583 0.030515365 0.38989708 -0.094864555 1.0186744 -0.24394628 0.37063032 0.4830153 -0.22766733 -0.38254914 -0.19078147 -0.4106598 -0.01334628 0.2450999 -1.0490793 0.83864504 0.35825709 0.5238674 -1.4590203 -0.30667564 0.19009277 0.370778 -0.7622831 0.58718276 -0.5032806 -0.17317052 -0.598467 -0.16039334 0.71545947 0.50561243 -0.2456278 0.041173473 0.38172093 0.26229367 -0.55035275 -0.60815924 -0.055426553 0.116243064 -0.32128012 -0.10065428 -0.2135626 0.55828255 -0.12806815 0.077833496 -0.29187804 0.67667496 0.24119528 -0.66514474 -0.31728184 -0.50815296 0.15498915 -0.47094417 0.24897891 -0.58977395 -0.5762397 -0.8114317 0.36984447 -0.4828379 -0.19397639 -0.19727695 -0.2798 0.3002883 -0.3857614 -0.18513039 -0.5485814 -0.5101204 0.3835838 -0.2647488 -0.21041895 -0.99284524 0.42394528 -0.93195367 -0.091959104 0.5978569 -0.19090107 0.64301103 0.7113478 -0.20400523 -0.41197094 0.096927345 -0.055656377 -0.28597197 0.18195195 -0.12310274 1.6251454 0.10791241 -0.6148095 -0.13791011 0.031058706 -0.40544227 0.86655545
CTGCT 0.102475435 0.49514866 0.2197647 0.08598848 -0.18360366 -0.6825238 -0.8639548 -0.24041362 -0.65875745 -1.1352904 -0.21042752 -0.049955893 -0.5450891 0.15182595 0.6760049 0.096469074 0.32168418 -0.3043674 -0.39695704 -0.4171207 0.80006945 0.26889828 0.868304 -0.30502656 0.84447414 0.5279166 -0.13718003 -0.5878727 -0.4699984 0.77614117 0.20412852 0.32347926 -0.2621651 -0.5521239 -0.38499618 0.8792197 -0.4628878 0.040511202 0.13278979 -0.37015432 -0.42355782 -0.5067471 -0.2577917 -0.74655694 0.9527321 -0.34749374 -0.9036897 -0.29075828 1.0820473 0.011453701 0.09875056 0.08998604 -0.002682404 0.055628248 -0.03849957 -0.4517375 -0.26306084 0.19833288 0.20549831 -0.20120917 0.19122688 -0.092137225 -0.8129606 -0.22993164 -0.6972014 -0.06184162 0.066870645 0.055248495 -0.35014796 0.03758924 -0.3311854 -0.5846469 -0.9385092 0.04168459 -0.18411334 -0.17534079 -0.29869276 -0.03673136 -0.029705353 -0.119047455 0.1626497 -0.40800714 -1.1549344 -0.2186735 0.4189235 -0.2804485 0.7850072 -0.5840038 0.31119922 0.22714442 -0.14749837 -0.27518147 0.7119429 -0.10450821 -0.09120966 0.18691096 -0.3775771 0.007344436 0.50029933 -0.13326824 -0.2969892 0.21224634 0.15490098 0.27040976 -0.37459674 -0.31702113 0.07150687 -0.923215 -0.42536438 0.17701118 0.6786381 0.3383902 -0.7552434 -0.17710635 0.5304204 -1.0384005 -0.6077132 0.5356288 0.29563037 -0.3244942 0.87352175 0.33801234 -0.5136752 0.25356114 0.47413778 -0.013884336 0.9620093 0.29877186
TCCAG -0.6461012 -1.1405648 0.50588965 0.24204011 -0.08412173 0.31107685 -0.12564176 -0.069781974 0.1899879 -0.27498686 -0.99553734 -0.27581248 -0.02206238 0.20492299 0.5672734 -0.06446038 0.37595773 -0.52942055 -0.22052236 0.21906827 0.34318456 -0.32618982 0.19879617 -0.3576821 -0.059196588 -0.036114227 0.12986517 0.46788132 -0.40647212 0.09860623 -0.06415764 -1.5306269 -0.46605283 -0.39245328 0.45820698 0.27422124 -0.33423737 -0.1697435 0.042663664 0.2619684 0.13281512 -0.11853329 -0.029675191 0.37345555 -1.1358511 0.3044571 -0.33697003 -0.38025993 0.41427466 -0.795698 0.20306553 -0.6908316 -0.4552533 0.13370205 -0.33699995 -0.030388722 0.7644348 0.34137478 -0.24669535 0.13260588 0.7167949 0.541456 -0.40576446 -0.47618818 -0.83743274 -0.17803296 -0.33380473 0.12767953 -0.38023233 -0.87324244 -0.28577027 0.20635656 -0.92425644 -0.43663272 0.94907945 -0.4572068 0.26468632 -0.4610954 -0.36285162 0.3804781 0.5321495 0.5631204 0.3474582 0.52378076 -0.32655314 -1.0662603 0.9507032 -0.62030923 -0.98909724 -0.019935675 0.47467634 -0.92369264 -0.054693554 0.46470892 0.0062062726 0.32419047 -1.0391438 -0.16642824 -0.56755334 -0.24382776 0.88248533 -0.086604446 -0.07654215 0.74307626 0.36565802 -0.33903122 0.140931 -0.52989864 -0.9353733 0.4501863 -0.54951596 -0.95380163 0.11334187 -0.030274523 -0.17280859 0.56297797 -0.09247519 -0.9800352 -0.41705823 0.45551157 0.2698983 -0.16150206 0.9029203 0.051056314 0.12731357 -0.4323825 -0.51736253 0.56094515
CTGGG 0.4812722 0.18581167 -0.6469009 0.5375282 -0.57033724 -1.7732368 -0.106360964 -0.15276448 -0.72027546 -0.27569205 -0.42105052 -0.3423579 0.65900445 -0.5029645 -0.15372565 0.13752547 -0.33889428 -0.66965747 0.24409035 0.020509563 0.3439277 -0.7910784 0.16205998 0.06472844 -0.063588694 0.742734 -0.43857893 0.098114 -0.49062616 0.253201 -0.032302387 0.45706388 -0.4375834 -1.4150945 0.99061537 0.58709294 0.19265732 -0.11167039 0.31990024 -0.5650165 0.1435347 -0.16276354 0.09227663 -0.6442264 -0.22167973 -0.77682465 0.37535867 0.2654016 0.101991884 -0.6401414 0.90713954 -0.06466853 -0.1653004 -1.3456721 -0.62252045 -1.0102292 0.54485434 0.54537934 0.5116608 0.67298853 0.92017746 -0.42686313 -0.8955778 -0.349021 -0.54865474 -0.35121286 0.13404796 0.05167465 0.10497911 -1.0975411 -0.20240232 0.23735784 -0.67432564 -0.27551425 0.34391883 0.699652 -0.058317706 0.5990182 -1.1595943 -0.635824 -0.39457864 -0.12769295 0.14611034 -0.3563615 -0.16313772 0.26815018 -0.059884008 -0.40449414 -0.4467231 -0.24583554 -0.6333402 -0.6608367 0.24788108 -0.46880212 -0.13358033 0.62803495 -0.076749586 -0.23745865 -0.50985 -0.0005500587 -0.059880026 0.08318859 0.050163295 0.06600797 0.12744007 0.46637407 -0.47484547 -0.49957284 -0.20479305 0.6411329 -0.09176273 0.19160418 -0.14136212 -0.611043 -0.086935885 -0.14437225 0.3008514 -0.05230049 -0.07788344 -0.22447206 -0.017960625 -0.20386966 -0.066034034 0.51964706 0.1256132 -0.98510736 -0.17723352 0.13267416
CCCAG -0.22797717 -1.0367706 0.013660549 0.28401673 0.59462315 0.32458568 0.583695 -0.42631057 -0.9504278 -0.12453239 -0.6949981 0.75334716 -0.2422885 -0.35097563 0.20792302 -0.70279175 -0.63976157 -0.83873713 0.48758525 -0.29156289 0.025318177 -0.7512866 -0.27448228 0.13583027 -0.09785492 0.21253873 -0.37215212 0.8731706 -0.3803751 0.21957661 0.21382998 -0.2169324 0.35254082 -0.3556693 1.7938671 0.5508427 -0.29033872 -0.019622345 0.20747447 -0.41977566 -0.083690815 0.58300555 -0.49189892 0.38543412 -0.26362887 -0.029862385 -0.5040831 0.23143083 -0.55788124 -0.6353329 0.15044244 -0.71008486 -0.5648052 0.050291277 -0.7521316 -0.13062984 0.9619911 -0.10580484 -0.16477665 -0.24684063 0.5631422 -0.37925103 0.21405926 0.35021988 -0.07284173 -0.4644946 0.1305506 -0.29091778 0.4832544 -0.6224241 -0.51960075 0.27475858 -1.4837167 0.098522894 0.98632705 -0.021426857 0.81234884 0.0012737918 -1.0673846 0.086381726 0.6766865 0.19722478 0.72021943 0.2072164 -0.304554 -0.18968831 0.098106995 -0.9893715 -0.91856647 -0.47163585 -0.05031293 -0.47306743 0.069300905 0.13048074 -0.9433375 0.33045116 -0.7012754 0.20039581 -0.10269578 0.7843957 0.3725016 0.38193238 -0.4938053 0.32292816 -0.30328923 -0.20660599 -0.18397272 -0.4152045 -0.5691577 -0.56283873 -0.26253656 -1.2506216 -0.6362664 0.7059713 -0.08685957 0.12006474 0.12616615 -0.91427577 0.2262698 0.25155884 1.0524688 0.19880594 -0.1706352 -0.46977916 0.2885143 0.2850506 -0.22369996 0.7032689
CTGGA 0.80392313 -0.022028197 0.115624145 -0.39416048 0.05176459 -0.84823596 0.12395212 -0.32096198 -0.87703115 -0.101835825 -0.49420235 -0.7089394 -0.020169474 -0.5523944 -0.27990344 0.22289638 -0.11446937 -0.34012082 -0.5923661 0.37362838 -0.48689303 0.5899555 0.59627324 0.5097396 -0.119805016 0.48401168 -0.015657328 0.00085024425 -0.26620564 0.39372185 0.115610056 0.9492434 0.08534603 -0.9623315 0.73951226 0.13461877 -0.16524115 -0.13645126 -0.65159386 -0.1030003 -0.25896823 0.7309175 -0.93106014 -0.23867793 0.03899261 0.36978537 -0.8356486 0.09170946 -0.1627087 -0.24572529 0.16567352 -0.07431225 0.04646157 -0.90771437 -1.4938576 -0.62432206 0.93589926 -0.34202978 0.23934123 -0.588766 0.048198085 -0.4918646 -0.7810984 -0.646137 -0.33177748 0.019721348 1.4234107 0.34256086 -0.2665794 0.12117024 -0.2172282 0.30407247 -0.78681946 0.40075263 1.0515517 -0.33803508 0.3974758 0.889433 -0.65489846 -0.17981489 0.1682466 0.22894357 -0.12445459 -0.09820737 -0.050829012 -0.08516512 -0.30748695 1.0311477 -0.875582 -0.47171786 -0.3317357 -0.74648577 0.57289416 -0.5257772 0.4826327 0.3344925 -0.080211274 -0.26404586 0.3271961 0.31310666 0.17130119 0.8196738 -0.8110794 -0.10661085 0.51079667 0.60477334 0.06766614 -0.5406409 0.22752853 0.119952425 0.08823952 -0.7780836 -0.11019153 -0.53295696 0.56490576 0.0103931585 1.3421761 0.28437385 0.20719033 -0.106169954 0.31872582 -0.48629308 0.25158697 0.1637394 0.34392872 -1.1632887 0.00053343835 0.26346812
AGCTG -0.12783726 -0.14987056 0.6917179 1.0414188 -0.36826876 -1.346625 0.2955082 -0.9395939 0.36968562 -0.3909993 -0.57302326 0.2342869 0.56655985 0.5959322 0.7459931 0.42541835 0.62774575 -0.61113405 0.58360493 0.21423994 -0.04310454 0.39049208 -0.03665457 -0.64150804 0.02851725 -0.16284317 -0.21121491 0.14554432 -0.9663235 0.6450279 -0.0021818925 -0.035296887 0.89353645 0.1916375 0.3271313 0.62671417 0.10825237 0.40138695 -0.32847208 0.36722505 -0.24202527 0.44030085 -0.4766229 -0.32681173 0.8623727 -0.4653726 -0.05543435 0.3380798 0.6248703 -0.015599108 0.37616587 0.084497266 -0.27238902 0.8431004 0.102012105 -0.89678127 0.33888644 -0.28175223 -0.6738224 -0.44321457 0.58946294 -0.45724696 0.5112232 0.21649654 -0.20709538 0.5628578 -0.21248329 -0.14519887 -0.8519466 -0.21208642 0.3729365 -1.1821611 -0.48850983 -0.26404 -0.5383942 0.12362327 0.3036653 -0.008932829 0.60327774 0.06834979 -0.56771654 0.07098242 0.6756919 -0.5268167 -0.04500432 -0.10423779 -0.13545047 0.66944224 -1.0225703 0.20140757 -0.9934876 -0.15007737 -0.3454399 0.22336505 -0.32847428 0.3505893 0.5594732 -0.3513331 -0.021015033 -0.39975935 -0.2876391 0.11902946 -0.38635898 -0.19406629 -0.58307326 -0.14514604 0.20826323 0.030186784 -0.26575422 -0.12186727 0.6702906 -0.12489547 -1.4443892 0.5479318 -0.1278775 -0.40005088 0.13362272 -0.38106346 -0.5503319 0.60972506 -0.6350235 1.0616912 0.24510312 0.5720421 0.1525037 -0.38537368 -0.022938956 0.8339423
CAGCT 0.63312393 0.7775477 0.121745795 -0.46804148 -0.28945938 -0.48596007 -0.75280726 -0.26721746 0.23754 -1.3508886 -0.67444134 0.15796204 0.21489409 -0.088710524 0.111112505 -0.32622522 0.7248136 0.37376568 0.18904364 0.43420008 -0.14820346 -0.1834961 -0.3221989 -1.0904142 -0.07324506 0.32319212 0.13393205 -0.23195839 -0.22260647 0.9105025 0.29375026 -0.10228616 0.38553044 -0.3660598 -0.58875155 0.36154315 -0.22935894 -0.15128157 -0.18407027 -0.2981924 -0.6154941 0.50153685 -0.14114673 -0.4579342 0.86266744 -0.74589396 -0.21038562 -0.046823353 0.38757542 0.061264105 -0.2183787 -0.33061147 -0.02363727 0.63019043 0.31539625 -0.39590123 0.008883977 0.24722159 0.2055258 0.61831605 0.49553013 -0.55418754 -0.7853835 -0.66788155 -0.7629785 -0.5619729 -0.5071188 -0.25651878 -0.090713926 0.51899976 -0.3264996 -0.85320145 -1.1530308 -0.44620386 -0.121224366 0.07463432 0.110089116 0.4635305 0.24366055 0.5068065 0.755545 0.40495858 -0.53448445 0.131601 0.026736286 0.52534276 -1.5208206 -0.70111185 -0.6198126 0.27282876 0.049083114 -1.1834784 0.14718065 0.42388865 0.37461874 -0.5764327 -0.31784657 -0.9257546 0.0017801273 0.61800474 -0.07350967 0.21544187 0.22893001 0.78928155 -0.66423213 -0.38163877 0.34297785 0.30052236 0.21310309 -0.45665422 0.2124104 0.17547028 -0.072754316 0.7578832 0.9307808 -0.8742295 -0.14198127 0.05381591 0.33061048 0.32324907 0.11339769 1.2025094 -0.13334307 0.9249314 -0.19382389 -0.31591228 0.36749175 0.4647192
CCTCC 0.69440675 0.25457588 -0.6196889 -0.3588533 -0.2063566 0.2634458 0.29004303 -0.80318683 0.12113337 -0.5974765 -0.670548 0.670481 -0.32212475 -0.53853804 0.43549302 0.47489598 -0.19911775 -0.7055491 -0.6725914 0.36522457 0.034492016 -0.9219402 -0.30643994 0.06616981 0.60951626 -0.15152228 0.50582534 -1.5346105 -0.7261684 0.46413076 0.16919672 -0.28882754 -0.8391529 -0.2713829 0.17242908 1.4099287 -0.70558363 0.45445964 0.307347 -0.31748983 0.06498466 0.27739146 -0.5823808 -0.22309656 -0.5651674 0.17353757 -0.057666484 -0.1889638 -0.17326126 -0.5831678 0.20653273 -0.9832997 -0.34048834 0.6520493 0.14702187 -0.13246913 0.06345878 -0.40136027 -0.31471568 -0.1580529 -0.36047593 0.21032049 -0.08743058 -0.6451626 -0.43522686 0.2364231 -0.06839077 0.01743485 0.050676357 -0.9471484 -0.72231066 0.14228532 -0.035255075 -0.1505551 -0.84051675 -0.6021608 0.003099332 0.32175002 -0.43369886 -0.9184268 0.20244746 0.09614657 -0.94859135 0.015420598 0.21022582 0.21556808 0.22992969 -0.6705415 -0.6610941 0.0931775 -0.51910883 -0.3103729 -0.022912724 0.3148268 0.82951444 0.21302754 0.060676783 0.26022822 0.284206 -0.38983262 0.24842672 -0.028078083 -0.37438893 0.90011567 -0.3174342 -0.24589665 0.75505906 -0.7788782 0.006675382 -0.40871313 0.78254575 -0.8407305 -0.39947227 0.52259684 -0.49544638 0.13939054 -0.49543726 0.35499504 0.2078922 -0.23920539 0.45443997 0.027884347 -0.08916032 0.13172641 -0.23695819 0.12596087 -0.30177692 1.117442
GGAGG 0.3640874 -0.04149184 1.0540489 0.11682133 0.1402669 -1.0568479 0.22472072 -0.6825177 -0.5530855 0.16796708 0.18403268 0.41683173 0.60109466 0.034612097 0.6102027 0.7322444 0.7260429 0.19626784 0.42748225 -0.52465844 -0.7055446 -0.80721796 -0.39665645 -0.0105469385 0.5587423 0.63483113 0.1609495 0.27404404 -0.29708847 0.36706546 0.39400926 0.15490067 -0.322861 0.01825772 0.30852532 -0.13275841 0.4090515 0.14571814 -0.12486888 -0.1780327 -0.43562052 0.59608203 0.3226949 0.08166661 -0.64861846 -0.16503334 -0.39022234 -0.28313747 -0.7096026 -0.47069862 0.5478205 -0.009085615 1.4358345 -0.49424344 0.36991903 -0.74030226 0.27719626 0.11458759 -0.09550561 0.11225255 0.047664016 0.41368786 -0.4733793 -0.4215444 -0.75774205 0.5539292 0.8709194 0.288145 -0.7883139 -0.107830584 -0.38297424 0.094353944 -0.6718968 0.15897045 0.7592949 -0.35936373 -0.8664068 -0.3796487 -0.16482785 0.23385935 -0.2039839 -0.5123445 -0.17010531 -1.2188342 0.035080444 -0.5666503 -0.4954403 -0.26829842 -0.88585436 0.27087644 -0.45192736 -0.66251606 0.29244986 -0.11076892 0.014874864 -0.8388765 1.0674429 0.5365807 -0.3645092 -0.6216737 -0.039760247 0.29031935 0.10385275 0.5653648 0.15333688 0.54251194 -1.0916758 0.91220766 0.34604767 0.0116751185 -0.23676853 0.016044106 0.3978784 -0.2195697 -0.12481063 0.62329555 0.19398211 -0.023343002 0.5128557 0.16660163 0.2318566 1.030164 0.09988374 -0.17635529 0.63174474 0.049583346 -0.120997034 0.40106064
AGAAG 0.38160658 -0.13961437 0.021903124 0.6373469 0.7043403 -0.2270716 0.05640493 0.2885923 -0.31912178 0.45174727 -0.13313003 0.16324393 -0.12521388 0.69749355 0.90059847 -0.70692796 0.589292 -0.61352015 0.04563494 -0.86328626 -1.1458666 -0.51815844 0.40940744 -0.26487368 0.41191936 0.6886033 -0.06672592 0.010792419 -0.3707507 0.62346655 1.0341828 0.20937859 -0.027963389 0.3050722 0.38050082 0.8099373 0.07742966 0.047027722 -0.29866463 -0.32169506 -0.509075 0.60746837 0.032584652 -0.007308468 0.6295976 0.48607686 0.1859214 -0.42314723 0.11354343 -1.0967118 0.3019187 -0.5442603 0.57028633 -0.15772158 0.3497809 -0.05193283 -0.030169606 0.15767972 0.681111 -0.40051234 0.44427672 -0.4385184 0.20402974 -0.545071 0.091000624 1.0799488 -0.42502075 0.2140369 -0.6876195 0.7277952 0.04409212 -0.4236235 -0.7243869 -0.042051606 0.05057662 -0.5758222 -0.10044431 -1.2975996 -0.30978045 0.51538444 -0.064175844 0.059463877 0.32089475 -0.34768543 -0.3324563 -0.48369953 -0.23515928 0.64722306 -0.37694097 0.32646897 -0.20870827 -0.32750815 -0.33235577 0.07168176 -0.42054445 -0.2797159 -0.090782024 -0.056604866 -0.30935523 -0.40804887 -0.114441775 -0.4332267 -0.10149706 0.08803311 0.77677596 -0.0018358701 -0.7780032 0.5039012 -0.22192253 0.2943988 0.17307451 -0.188591 0.043911044 0.2472219 -0.43931705 -0.6284143 -0.0426794 0.3379616 0.22932364 -0.029010821 -0.24933276 1.2567149 -0.32422593 -0.28061265 0.32926258 -0.13647814 -0.26548693 0.33247545
GAAGA 0.21814038 -0.4238199 0.7574445 0.0009077474 0.5400352 -0.4319634 0.5623121 0.5087919 -0.7131405 0.5977782 0.17571387 -0.01736619 0.5180908 -0.5958453 0.7180344 -0.28574264 0.8542347 -0.6231038 0.24851449 -0.41204396 -0.9644166 0.061027907 -0.8197855 0.7526253 -0.16385773 0.53720033 -0.2023136 0.026568277 -0.60693634 0.5879221 -0.065707624 -0.061838888 -0.70485306 -0.43492693 0.4298742 0.38030958 0.349088 -0.18181542 0.08005038 -0.4631719 -0.18824711 0.7193946 0.035128 0.02292218 -0.45373344 0.97901386 0.01207733 0.19279563 0.38319248 0.073778935 0.5021791 -0.6829006 0.295649 -0.4112177 0.08259872 -0.7401497 -0.026540527 0.6082817 -0.10037481 -1.1408986 0.5964925 -0.11291637 0.48821613 -0.23965995 -0.36990058 0.82693875 -0.3745196 0.73594064 0.23980385 0.23346949 -0.71718466 0.19347909 -0.1124372 -0.07969216 -0.85561806 -0.31006393 0.34197432 -0.28171003 0.122352965 0.5920534 -0.1827442 -0.27563807 0.5825937 -1.3006121 0.24583726 -0.10126683 -0.62449145 0.16270052 0.28876942 0.33228716 0.5177339 -0.10918349 -0.021425422 0.20772523 0.9056517 -0.62198395 1.0316079 -0.27467495 -0.099563874 -0.055750106 -0.22344755 -0.16443197 -0.21122089 0.17991768 -0.19187415 -0.061329577 -0.35694128 -0.4195314 0.5042994 0.616288 0.1926055 -0.26151133 0.41497135 -0.37964958 -0.29182747 -0.28411624 0.34581235 0.28542736 0.25297567 -0.043576725 0.5252119 0.45375425 -0.44835773 -0.3258139 -0.57084644 0.1606207 -0.47034618 0.64872754
CTTCT 0.83210963 0.6662302 0.29476553 -0.028746018 -0.0530422 -0.7558853 -0.7745365 -0.80236465 -0.01686922 -0.8483941 -0.14434256 -0.31036067 -0.20675336 -0.43335006 1.0822078 0.8634289 -0.2039366 -1.1898124 -0.5892088 -0.53221756 0.45119047 0.27394447 0.57879263 0.17962892 -0.29031736 -0.079524174 -0.056937326 -0.5178951 0.3030812 0.58441436 0.42111233 -0.2971904 -0.7848078 -0.041181713 -0.021503003 0.6530231 0.18062332 0.3106006 -0.13263279 -0.034005284 0.25868496 0.27929568 -0.158019 -0.12879239 1.0225308 -0.2491028 -0.042800605 -0.07369371 0.4884979 -0.5258603 0.018607393 -0.04157969 -0.07323572 0.061292447 -0.11684117 -0.16845779 -0.31067264 -0.4517857 -0.01884879 -0.10267937 -0.8298932 0.060655184 -0.06576816 -0.37418666 -0.18349645 0.08210945 -0.3853892 -0.12848513 -0.4472434 0.1615522 0.14120598 -0.72550225 -0.8235499 -0.41114315 -0.5578635 -0.35478196 -0.075097255 0.33212486 -0.7372108 -0.18563844 -0.039508015 -0.7632691 -0.75097764 -0.15325448 0.47329798 0.12501244 0.59055007 -0.84653866 0.3069627 -0.39816937 0.05682737 -0.3095391 0.2168433 0.14130136 0.81690437 0.8162281 -0.2626755 -0.86361384 0.42779407 -0.25962666 0.7358311 0.19483896 0.18514702 0.94552517 0.21379988 0.31374943 0.21295731 -0.967376 0.08268759 0.40227523 0.6752119 0.49034733 -0.46976328 0.41082537 -0.2672123 0.18160748 0.31786785 0.40183675 0.37492254 -0.18995348 0.086156435 1.1648502 -0.41487822 0.29465997 -0.07588454 0.060327034 -0.24529126 -0.37226847
TCTTC -0.09565872 0.09353006 -0.078682445 -0.65354383 1.3239069 -0.14318061 -0.23041058 -0.20029804 -0.15616211 -0.90341234 -0.74743056 0.48976013 -0.42780966 -0.6330005 -0.10195792 0.967418 -0.22538331 -0.31989896 -0.7187832 -0.3187747 0.060138226 -1.3401738 0.66788787 0.13115562 0.30882773 -0.6759854 0.22077194 -0.3182575 0.33353028 1.1483122 -0.39839 -0.43068433 0.05179082 0.48561975 0.72490394 1.0950584 0.33062232 0.01687513 -0.83654004 -0.28534052 -0.13783747 0.26146907 0.30833152 -0.49814814 0.1856149 0.0026654243 0.11450303 -0.46629733 0.31777403 -0.19268619 0.92142016 -0.0623903 0.29705656 -0.7966839 0.0064751576 0.07119539 -0.4973876 -0.14420165 -0.10409475 0.42811093 -0.95338917 -0.2839706 -1.0695814 0.25392497 0.30271372 -0.34789392 -0.56833714 0.58812606 -0.14167948 0.05699527 -0.38589063 -0.0023028718 -0.1805255 0.56906813 -0.44749802 -0.122157946 -0.37413356 0.46277463 -0.09182963 -0.03863097 -0.36311477 0.54414016 0.36708578 -0.32647175 0.08814843 -0.12152755 0.51217663 -0.23007582 -0.15250932 -0.5388891 -0.038854513 -0.030317156 0.6003011 -0.43722188 0.6640029 0.42594334 -0.24321625 -0.3694637 -0.37800574 -0.32788372 0.18939394 -0.57819724 0.73061216 1.1250875 -0.65674204 -0.0076983706 0.6829047 -0.4576807 -0.3360695 0.09180258 0.41084513 -0.32157427 -0.43217975 0.67439353 -0.208219 0.25968954 -0.35343313 -0.6531927 -0.16099915 -0.16072826 -0.46661532 0.38345322 -0.09979287 0.105026625 0.02013819 0.22926919 0.6114398 0.32500497
AGGAG -0.16924766 -0.4828292 1.1563781 0.1956436 0.36400175 -0.8594748 0.60345167 -0.85672355 0.14745735 0.2988208 0.5795948 0.13890356 0.17854276 0.032382607 1.163964 0.32227513 0.70818913 -0.2676815 -0.38820258 -0.5579636 -1.119485 -0.8446272 -0.49508342 -0.20814441 0.16969305 0.79211044 -0.050746795 0.5288932 -0.2338133 -0.22952573 0.3253228 0.45791614 0.23212732 0.32222602 0.1307852 -0.07984892 0.5692339 0.35998768 0.19995354 -0.1932123 -0.67344534 1.422121 0.45290837 -0.15831318 0.26691824 0.37549058 0.4070681 -0.36615753 -0.32585445 -0.51778454 -0.3328647 -0.8271074 -0.009914143 -0.082583696 0.30953556 -1.0602281 0.060335815 0.32015812 -0.11452353 -0.18383811 -0.089333564 -0.4301085 0.109099664 -0.084799945 -0.46533343 0.9780415 0.07794647 0.02394218 -0.835763 -0.023903316 0.8067056 -0.7523297 -0.54816645 -0.025168063 0.16219781 -0.28355688 -0.08240019 -0.32797825 0.09058014 0.269405 -0.024941696 0.26779485 0.52850777 -0.81571305 -0.5207438 -0.24265364 -0.12555403 0.01908652 -0.7869237 0.08845423 0.0326365 -0.94670814 -0.25424817 0.615761 -0.46933618 -0.4720063 0.2539213 0.5122967 0.15870503 -0.10384017 -0.29842812 -0.33620617 -0.43680155 0.54511493 -0.34036493 -0.5146866 0.21734922 0.10351208 -0.55814934 0.123170786 -0.19918656 -0.32253388 -0.219131 0.32953024 0.36627036 -0.02615887 -0.26688078 0.33135518 -0.19432257 -0.5500583 -0.55458134 0.6861339 0.18767437 -0.5720145 0.3568684 -0.3171466 -0.7690396 0.28559694
CTCCT 0.38251293 -0.24073587 -0.034371763 -0.29439384 0.17840426 -0.6371014 0.1308309 -0.5655237 -0.051017262 -0.6387685 -0.096785225 0.16418093 0.020383244 -0.45634985 0.4112377 1.172525 0.2467117 -0.46949178 -0.64407945 0.37260604 0.25250053 -0.4749321 -0.06733206 0.6490757 0.10531872 0.38627952 0.051189795 -1.0870459 0.20339166 -0.14490591 -0.33445105 -0.34935918 -0.36069623 0.2001435 -0.16579206 0.5499406 -0.06345655 -0.10693092 -0.02533902 -0.40953937 0.15371217 0.43266866 0.26093152 -0.8216291 0.573636 -0.60769916 -0.16518721 0.24443226 0.57873493 -0.6460463 0.2726988 -0.053716466 -0.5679657 -0.5209809 -0.16090769 -0.67166895 0.32379037 -0.36128676 -0.53229386 -0.22871627 -0.880273 0.15422133 -0.49605918 -0.3698522 -0.508776 -0.278396 -0.3515665 0.22284949 -0.36526453 0.17846516 -0.30514127 -0.84612966 -0.4797799 -0.2827834 -0.42521095 -0.5001613 -0.73972124 -0.3461377 -0.19928633 -0.3124672 0.36774284 -0.08485944 -0.85681516 0.62716305 0.406178 -0.03197108 -0.14277256 -0.6653415 -0.6318953 0.80456895 0.016409725 0.16382563 0.10726223 0.1636085 0.68268245 0.42300066 -0.5051042 -0.8952192 -0.10347221 -0.41570166 -0.017176611 0.89100856 0.09176074 0.45693877 0.00050791237 0.2549184 0.18408619 -0.2511338 -0.10529193 -0.7900581 0.8110875 0.42882785 -0.7195154 0.7651404 -0.516127 -0.0649216 0.03338127 -0.030574435 0.25622654 -0.7541722 0.008313468 0.052227687 -0.228696 0.6769602 -0.5381634 0.0725789 -0.007805455 0.56810164
TTCTT 0.45720917 0.41505414 0.8336688 -0.674944 0.71605533 -0.3535935 0.24655485 0.09763997 -0.5111347 -0.60681975 -0.6069689 0.03589096 -0.52039915 -0.27676272 0.3044888 0.6833124 -0.4852433 0.06398775 -0.5362079 -0.74780685 -0.0670599 -0.1345314 0.42271578 0.5692545 -1.1585178 -0.15829422 -0.29658282 -0.34464496 0.19258857 0.6033165 0.1630656 -0.4538987 0.45161152 0.11064036 0.56573963 0.1922636 -0.09894508 0.5110651 -0.23941599 0.07020702 0.089502074 0.77665436 0.12348982 0.1558614 0.61953235 0.0016334644 0.023551779 0.041576993 0.7239306 -0.78670967 -0.29690674 0.5700987 -0.49802962 -0.60242385 0.06980355 -0.12443661 -0.53609693 -0.33749315 0.1918563 0.20051475 -0.5548241 -0.6222463 -0.85073686 0.118932426 -0.98571396 0.2767862 -0.49067587 -0.39076564 0.59307957 0.1253276 0.36213967 -0.10055132 -0.36258852 0.0013662139 -0.55150396 -0.7756884 -0.020508865 0.20795423 -0.7487963 0.13356014 -0.0697298 0.29523644 -0.31967613 0.22650129 0.63086456 -0.48273823 0.90614736 -0.18933202 0.12829483 0.07391472 -0.19682264 0.10509033 -0.3353901 -0.8250523 0.56854206 0.57587326 -0.14825223 -0.76621026 -0.78794706 -0.65459365 0.023337755 0.27866787 0.9654014 0.8672041 -0.6997808 -0.091060676 0.32806712 -0.456133 0.2079606 0.20048687 0.62428 0.58744305 0.15983097 0.6455583 -0.017549671 0.45780963 0.19426998 0.50641894 -0.28624532 0.34812346 0.26810157 0.31655797 -0.09798041 -0.431402 0.9155296 0.6908631 0.52320313 0.4696745
AAGAA -0.50344574 -0.44357502 0.38687512 -0.5252685 0.55507624 -0.051241636 -0.17244706 0.36319068 0.58964187 -0.5635627 0.34363273 0.69504994 0.18592198 0.16447917 0.5445836 -0.3518777 0.99780273 -0.59431946 0.37833446 -0.65827173 -0.55701065 -0.4369328 -0.42593077 1.3275654 0.5984336 0.9737642 -0.70288014 -0.51618004 -0.20056565 0.55024076 0.5301653 -0.44620067 -0.51386553 0.5151737 0.75873315 0.77821434 -0.003124613 -0.40875584 -0.07053437 -0.62581617 -0.52291167 0.63730365 0.027497472 -0.3460159 0.42280766 0.52370113 -4.8445894e-05 -0.23015988 0.20554541 0.16846368 -0.23247646 -0.5910786 0.21883935 -0.48201615 -0.45022672 0.060835257 -0.6119606 0.42545766 0.38470986 -0.592017 0.20700383 -0.7554039 -0.075330414 -0.568946 -0.2328247 0.71289694 -0.8337582 0.42118853 -0.004579773 -0.44841683 0.7315396 -0.47515208 -0.17392606 0.04362009 -0.28935373 0.18744993 0.6810812 -0.46069825 -0.35751948 0.4528264 -0.11335079 -0.26756713 0.2601175 -0.4171316 -0.44453055 -0.4446627 -0.70103914 1.1635845 0.38493198 0.3304053 0.21244043 -0.28029183 -0.054053623 0.23457481 0.2645392 -0.59842557 -0.013457599 -0.5803826 0.12556171 -0.07526317 0.39546955 -0.19676223 -0.43117765 -0.35425743 0.592367 -0.7640672 -1.0905731 0.43491814 -0.027982838 1.0078079 0.21498507 -0.39057273 -0.23347294 0.3853579 -0.3164793 -0.039632488 -0.0024880485 -0.11167933 -0.14667639 -0.7661667 0.02170262 -0.17422432 0.16474041 -0.5026937 0.517518 -0.3516061 -0.33780873 -0.15277322
TTTCT 0.62051183 0.76936513 0.06867848 -0.4095775 0.2880535 -0.15298039 -0.23925477 -0.0007203741 0.09576296 -0.9814232 -0.74712616 0.42349282 -0.26806146 0.15709978 1.0130444 1.2102548 0.06258526 -0.13218929 -0.6210608 -0.6743578 0.49893448 -0.06875452 -0.036618877 0.251334 -1.075507 0.12525299 0.008108551 -0.30428502 0.22818883 1.0994362 -0.07820559 -0.26297322 -0.08580965 0.4588413 0.12638372 0.50616103 0.42610732 0.77003515 -0.22329718 0.22796527 0.31226313 0.15310788 0.111992076 -0.13899054 0.36764035 -0.1289326 -0.14453499 0.12797287 0.4377408 0.12648158 -0.06868702 0.33938968 -0.31381768 -1.3870028 -0.5457564 -0.6204401 -0.4999673 -0.12618351 -0.51392376 -0.56946874 -0.48948827 -0.30153894 -0.5427138 -0.30616277 0.23524645 -0.16638698 -0.23323749 0.29351982 1.0384587 0.3092073 0.9208027 -0.19171357 -0.09682065 -0.24715184 -0.023243295 -0.24010712 0.036372945 -0.29655242 -0.40568763 -0.03157949 -0.6887113 -0.47632843 0.2658575 -0.32682982 1.0370826 -0.5531431 1.1138033 -1.2765467 0.18883939 0.5625563 -0.56955343 -0.4812418 0.5748435 -0.11758041 0.14410573 0.46742225 -0.70559156 -0.7043331 0.04532136 -0.25642037 0.36686715 0.7146103 0.33393097 0.9165109 -0.035436787 0.0054500448 0.06762952 -0.41311938 0.7534223 0.67469585 0.86910325 0.24559663 -0.040807594 0.2373635 -0.3328462 0.28157532 0.48525196 0.64036316 -0.14715259 0.7070442 0.062459607 -0.06469788 -0.023824591 -0.17000304 -0.011864759 0.2698559 -0.19212294 0.13254033
AGAAA 0.4030693 -0.5253198 0.2231904 0.014265671 0.365352 -0.13563238 0.06211766 1.1143996 0.15665299 0.00077253993 -0.38397896 0.75580025 -0.18691744 0.17479828 0.8359169 -0.2442963 0.9362804 0.44965124 0.53513974 -0.35449606 -0.55639625 0.17326345 -0.03234537 0.41209334 0.1566035 0.35207075 -0.86415976 -0.6177423 -0.32878953 0.7877293 0.91956437 -0.4225494 -0.14381042 0.6800871 0.40083408 0.57208234 0.4263209 0.55569905 0.17504993 -0.20772028 -0.058676656 0.028002407 -0.1541531 -1.0414876 0.0046511902 0.531212 0.47431806 -0.58010757 0.19517963 -0.122744404 -0.793719 0.095796704 0.1725164 -0.20806104 0.16090374 -0.77465737 -0.6019914 0.4263336 0.39220878 -0.56341803 0.4998322 -0.6377482 0.281012 -0.017628592 -0.15119159 0.7743572 -0.88041884 0.2709214 -0.2809239 -0.21963453 -0.45062572 -0.4183932 -0.14486618 -0.42683497 0.25417235 -0.28593925 0.18149912 -0.7964391 -0.2271235 0.19879559 0.2571393 0.108120345 0.8075093 -0.13056754 -0.4618062 -0.25147083 -0.13805793 1.1003795 -0.42446077 -0.3401037 0.10681773 -1.0335292 0.53895795 0.16274019 0.3354149 -0.13713855 -0.2664146 -0.023246674 0.2989084 0.23027603 0.13775066 0.27227867 -0.44510564 0.7079063 0.75326127 -0.3645466 -1.1768788 0.32805014 0.44368696 0.92721593 0.24335988 -0.45668304 0.05648975 0.25320804 -0.30857456 -0.62547106 -0.1826903 0.26457024 0.4987689 -0.42827475 0.23200329 0.46325043 -0.25154772 -0.41530454 0.13687083 0.7538807 -0.043679044 -0.2738692
CAGCC 0.039752327 0.16267459 0.31799418 -0.38934353 0.4370268 -0.20725334 0.3313567 -0.5455864 0.365455 -0.40074024 -0.09711086 0.43675107 -0.18611263 -0.6360284 -0.23633505 0.30247337 -0.037458815 -0.13895188 -0.00040998886 0.42661858 -0.46432543 -0.6976462 -0.67642874 0.28393656 0.71410316 -0.296618 0.010718741 -0.9296709 -0.41322023 0.42275175 -0.008372909 -0.5693334 -0.08437293 -0.4229057 0.1528322 1.2754955 -0.29065546 0.6758954 0.5935454 -0.2553406 -0.55127597 -0.32977986 -0.3035252 -0.3929109 0.011134211 -0.074701 0.44023186 0.07228698 -0.34773803 -0.5705501 0.27062562 -0.6308094 -0.5432113 1.0127647 -0.26109293 -0.9478247 -0.0479441 0.2136093 -0.3043784 0.030216638 -0.14437854 -0.4566873 -1.2094631 -0.08940108 -0.40878272 -0.38242427 -0.6168054 -0.24265979 -0.40842572 -0.45759663 -0.60389316 -0.6173564 0.3595222 -0.7079906 0.393073 -0.5443061 -0.033879705 0.47189376 0.5566821 -0.54038477 0.45202103 0.08265341 -0.5356083 0.25800243 -0.18426268 0.9133167 -0.9406132 0.026295768 -0.2921784 -0.31004488 -0.55282646 -0.8447639 -0.49953422 0.54639477 0.23405558 -0.41834852 0.15325293 -0.2711026 0.5079982 -0.26084366 -0.047042727 0.5669678 0.9849863 0.89153814 0.12752248 -0.5123781 -0.77557474 0.22903983 0.24288632 0.4118795 0.5518466 -0.73793876 0.029270543 0.33615062 0.29254746 -0.4177442 -0.06810661 -0.9897562 -0.35568246 0.2489284 0.36796108 0.4683172 0.6313508 0.29573753 -0.31831715 -0.052296773 0.32614774 -0.32730326
GGCTG -0.09830626 0.0109808855 0.37103677 -0.08538182 -0.16306238 -0.6990112 -0.6916937 -0.7141193 -0.13481155 -0.7856081 -0.43150002 0.14158626 0.31442082 0.5028457 0.57518303 -0.2064371 0.15744674 -0.13067298 0.14465444 0.66374385 0.043413464 0.26288205 -1.3188053 -0.7357297 0.30739963 0.17617041 -0.06341845 -0.15810035 -0.07881769 0.8679187 -0.30778375 0.08720223 0.2736935 0.08413738 0.029351193 -0.5366635 0.60348415 0.15602751 -0.060941998 -0.44407633 0.36009708 0.8800805 0.11255458 0.050782084 -0.7109484 -0.09319814 -0.86696595 -0.41315156 0.63797426 -0.359633 0.5421664 0.33570993 0.29188353 -0.1314341 -0.32458547 -1.0533503 0.3820235 0.07618834 -0.7475377 0.083275944 -0.46845302 0.52064985 0.5623386 -0.2983552 -0.2432778 -0.23744561 0.7964926 0.124830775 -0.41997364 0.3222337 -0.5221001 -0.48440287 -1.0588989 0.53709733 -0.19853689 0.23200713 -0.21484494 0.050947346 -0.18026058 -0.5991934 -0.91773176 -0.60065395 -0.043046534 -0.7961165 0.26458323 -0.88187706 0.2708065 -0.3911263 -1.0617137 -0.77683187 -0.50852025 -0.5197086 -0.34294462 0.06896158 -0.4331483 -0.6032552 1.3869663 -0.3532189 0.2230719 -0.007742351 -0.6937741 0.55231476 0.18382934 -0.006416709 -0.39110458 -0.34162733 -0.64428186 0.58005357 0.356396 1.0243534 0.37316063 -0.19567508 -0.83310467 -0.05257094 0.37596452 -0.0058793263 -0.2648698 0.39564562 0.09898728 -0.46860343 -0.19559734 0.45486435 -0.25299403 -0.36345276 0.6320939 -0.20785908 0.0006326203 0.8204344
CAGGA 0.34584942 -1.0682573 0.012078012 0.1336268 0.081848025 -0.76084864 0.24565 -0.40191826 -0.98211956 0.2629782 -0.5857758 0.7903845 0.38593218 -0.22569974 0.2826901 0.40631604 0.28991908 -0.20968948 -0.5785083 0.39221972 -0.44571084 -0.1173251 -0.31865054 -0.22168481 -0.26209238 1.2910275 -0.17182428 0.047011804 0.1409397 0.26962608 0.5676397 -0.47400242 0.12923095 -0.2857252 0.25104845 0.3173398 0.44146365 0.2592438 0.8656161 -1.1482949 0.28729692 0.78683865 0.16612603 0.060736623 0.63246673 0.21874432 0.6104415 -1.4424108 0.39308402 -0.02761612 -0.32386693 -0.22588605 -0.069773875 -0.65195525 -0.21479169 -0.5532481 0.49807587 0.39033082 -0.24600416 -0.19207145 -0.5634027 -0.5815442 -0.22295706 -0.14487301 -0.15600517 -0.2702475 -0.12471061 -0.15335234 -0.23557018 0.1046269 0.0899976 0.88198924 -0.42260644 -0.022059498 1.2562435 -0.8649902 0.15747899 0.5480547 -0.7042282 -0.048497945 -0.30570337 0.34020397 -0.1575679 -0.019733405 -1.3874232 0.7375155 -0.5764856 0.84415376 -0.7453791 0.48777393 -0.020690225 -1.4513135 0.43338928 0.02153518 -0.630913 0.2071886 -0.76210403 0.4792646 0.66680163 0.74712646 -0.029565373 -0.5522644 -0.018554974 -0.05354015 0.59071004 -0.096333005 -0.78370345 -0.31992263 0.27808097 0.33507836 -0.066284336 -0.341095 -0.0025245543 -0.34815416 0.074381985 0.8127348 0.14743337 -0.05340048 -0.3536789 0.50437856 -0.2573954 -0.17322803 -0.09738017 0.5960134 -0.35617116 -0.20501721 -0.60321075 0.34262893
TCCTG -0.062250916 -0.4454341 0.39756423 0.22790992 -0.06791984 0.15514871 -0.7833943 -0.65876794 -0.6225728 0.015792992 -0.81331915 0.7142743 0.5213512 0.117333606 0.6681458 0.5387897 0.04791181 -0.21753478 -0.60666203 0.10451469 -0.04761737 -0.17949046 -0.26370314 0.17715387 -0.02915972 0.77098536 -0.57552963 0.024960812 0.08930174 -0.46363977 0.013202805 0.10989121 -0.2020223 0.8458575 -0.20116758 0.96306425 0.78852946 -0.033781145 0.16773084 0.053391367 0.8672651 0.33100533 -0.45576012 -0.16030152 -0.69686246 -0.64701694 -0.54180264 0.35482502 1.0618869 -0.19245727 0.90151936 0.4348133 -0.5848625 -0.0629444 -0.45312843 -0.55229324 1.0459583 -0.22137393 -0.60101223 0.9482595 0.027914409 0.1058087 -0.74202573 -0.6620199 -0.39848608 0.3008868 0.041284367 0.2757242 0.22492921 -0.38111272 0.07502385 -0.5760045 -0.49490517 -0.9106655 -0.012909033 -0.23849306 0.41578004 0.75914043 -0.96592385 -0.03439756 -0.20082302 -0.07282031 0.16492164 0.6334939 0.61971 -0.31663188 0.47387695 0.5117732 -0.3875314 -0.08397781 -0.7213695 0.20575745 -0.1027969 0.55130726 -0.19312233 0.21979612 -0.026829809 -0.29570836 -0.43537095 0.28396097 0.9885207 0.90382284 0.78842795 0.792901 0.52108 -0.36570516 0.18708341 -0.36496603 -0.62753594 0.367843 0.1073533 -0.55141664 0.57459897 0.70265645 -0.033465672 -0.63832927 0.35846248 0.3737694 0.43325523 -0.54877895 -0.098520964 -0.7994272 0.49219614 0.42291152 -0.06502838 -0.63911426 -0.018044002 0.73471576
CTCCA 1.1223888 -0.8022964 -0.46750143 -0.35433716 -0.07367364 -0.3028916 0.41310003 -0.5318893 -0.1444305 -0.40017298 -0.41007343 -0.33177537 -0.24034622 -0.4660905 0.6643404 0.61348623 0.06283422 -0.34163335 -0.90431213 0.5271618 -0.38303545 -0.9826914 0.0022271567 0.33214307 -0.026323793 -0.13537022 0.081927545 -0.6934989 -0.20122008 0.53436625 1.0717528 -0.26563632 0.551907 -0.19520119 1.031859 -0.21775478 -0.63707477 0.09652311 -0.4432224 0.42220598 0.77382606 0.88428575 -0.38351887 0.11496077 0.01928404 0.5649355 0.093507305 -0.84467876 -0.4955857 -0.5335575 -0.24938783 -0.71333367 0.4983767 -0.32054895 -0.7636107 0.4905822 0.37228364 -0.07761231 0.17074715 0.057007585 0.15778296 0.92337877 -0.5464721 0.3133806 -0.32869282 -0.052808184 0.4616132 0.26652324 0.0011082174 -1.4845103 -0.44855502 0.72367465 -0.47222742 0.14408615 -0.042330198 0.10427669 -0.37382638 0.2940381 0.6845598 -0.30488017 0.009254686 0.29603076 -0.3319806 0.27536213 -0.28855184 -0.028527671 0.197251 0.11533435 -1.1099138 -0.23910572 -0.6793047 -0.09371104 0.06928722 -0.050391387 0.4077379 -0.16382103 -0.4814615 -0.32030138 0.6587548 -0.7532995 0.027142165 -0.054018315 -0.14430456 0.34546238 -0.31381604 0.45638075 -0.007908902 -0.33482113 -0.62862796 0.17280853 -0.25207776 -0.8331877 -0.012843542 0.5886027 -0.31998542 -0.24456953 -0.2574959 -0.47607592 -0.38918447 -0.26163962 0.3927155 -0.9686834 -0.09385445 -0.24980678 -0.4451853 0.2939692 -0.38286602 0.8101495
TGGAG 0.15467693 -0.6892337 0.42962962 -0.098898895 -0.57692975 -0.5680066 0.56706667 0.060735602 -0.4769749 0.36746335 -0.1823344 -0.7377041 0.028057681 0.36659646 0.5442005 0.10969244 0.14725521 -0.60268074 -0.02751155 -0.5050674 -0.4647899 -0.11357901 -0.20034012 -0.21962866 0.030250575 -0.07751338 0.31686497 -0.35193154 -0.49879855 -0.29671285 0.012485549 -0.27048883 -0.689555 -0.41794655 -0.46614102 -0.29036513 -0.110697314 0.463121 0.24623056 0.23715119 -0.007809433 0.42889994 0.97714394 0.39523235 -0.77945185 0.36889797 -0.28180352 -0.24444224 0.13396347 -0.3021518 0.32850915 0.026162814 0.3878112 -1.2079418 0.02134034 -0.22301885 0.3631653 -0.2475582 -0.10767502 0.83032006 0.74873066 -0.074947685 -1.3441623 -0.5837399 -0.7172032 -0.07472203 0.44652602 0.7756031 -1.0785434 -0.65471286 0.28973988 0.05751483 -0.5235478 0.067244984 0.35108668 -0.7069367 -0.17905788 0.20343216 0.0062787714 0.6536248 -0.4131002 0.04865428 -0.091450036 -0.74414074 -0.038172793 -0.79551 -0.2670447 0.020846877 -0.063240804 -0.24395554 -0.09366064 -0.07280088 0.05129978 0.11360859 0.8811655 -1.2734979 0.42997333 0.42826304 -0.9904682 -0.4999676 -0.087106206 0.777825 -0.024202386 0.4180791 0.4286443 0.14243372 -0.18456057 -0.18395594 0.15342231 0.9254017 0.39290842 -0.13653332 0.19803047 -0.120077476 0.6142842 0.39037177 0.9521067 -0.19943075 0.3157067 -0.18420345 0.58565754 -0.030369882 -0.36645558 0.58333415 0.48935097 -0.44601682 -0.94009465 0.011215868
CTGCA 0.2929269 -0.7701797 -0.5056331 -0.5717691 0.073600985 -0.34783387 0.018072383 -0.76696986 -0.9819348 -0.4075193 -1.1165162 -0.6991443 -0.36754802 -0.5076283 0.16266568 0.20956264 0.46024477 -0.13734588 0.19525816 -0.4264669 -0.24302939 -0.34464726 0.44488862 0.053885024 0.10794409 0.2385248 -0.15688895 -0.5061736 0.3567299 -0.20234694 1.020897 0.64943564 -0.32877514 -0.036121715 0.7405843 0.9327861 -0.82368445 0.025160085 0.4369033 -0.3930661 0.605446 0.6007304 -0.7072873 0.37082365 0.15013495 0.6216335 -0.22034343 -0.25610647 -0.048266392 0.023414448 0.5118659 -1.1568878 -0.04682731 -0.3193896 -0.109567225 -0.0016468328 0.2336597 0.5769187 0.449017 0.14379823 0.34727752 1.1697911 -0.64168364 0.6469246 -0.018092157 -0.23923835 1.1434026 0.084697746 -0.20932597 -0.71789706 0.292537 0.25724223 -0.22264999 0.11469815 0.13560575 0.46992594 -0.116378285 0.64156824 0.47794005 -0.03380992 -0.42016447 -1.1111709 -0.47979808 -0.23023857 0.51617384 -0.024379538 0.16351672 0.74610716 0.010924685 -0.51862454 -0.3660399 -0.911612 0.4285715 -0.33490297 0.042393565 -0.49196765 -0.7149821 -0.21729143 0.74807745 -0.34923184 -0.67879814 0.66997534 0.8508147 0.15838704 -0.7728092 -0.11588822 -0.14171655 -0.53685653 -1.0596179 0.36405745 -0.2149544 -0.7137262 -0.16220911 0.052043967 0.23336582 -0.5091146 0.23852697 -0.55665725 -0.37173784 0.414457 -0.083584964 -0.75772035 -0.6180045 0.3059008 -0.10190222 0.10063326 0.27464876 0.48501155
TGCAG -0.4635107 -0.7293391 0.309741 -0.8454221 0.3518056 -0.3688657 -0.3416209 0.19481549 -1.1389616 0.231266 -1.0105959 0.38660225 -0.3243356 0.68023443 -0.11629329 -0.10889931 -0.4713754 -0.07955789 0.7228461 -0.25378364 -0.3286414 0.14467686 0.043343194 -0.80606705 -0.30465907 -0.8670914 0.3695128 0.16000816 -0.694382 -0.894778 0.12909092 -0.18838139 -0.5762499 0.30498073 0.17841974 0.6168857 -0.6171296 0.03800782 0.85853744 -0.2766383 -0.046368923 0.2562328 0.6504555 0.6535375 -0.030351408 0.12851427 -0.51111215 -0.6034965 0.26388237 -0.2356858 -0.029085778 -0.5403676 0.05635038 -0.19857167 0.56683064 -0.0060678204 0.44380662 0.064497806 -0.5947583 -0.18006113 0.67119884 0.08327467 -0.88295406 -0.029120361 -1.3582726 -0.13177334 0.7507663 0.11248389 -0.49643737 -0.6176619 -0.06841588 0.8062517 -1.3270267 -0.31805065 0.59081095 -0.3077119 0.62261385 -0.18556678 0.14104505 -0.27636507 -0.53881073 -0.89542454 -0.011182557 -0.6684442 0.018096523 -0.7553563 0.46978763 -0.29219672 0.042871892 -0.5692608 -0.15953274 0.4422297 0.17338085 -0.38960502 0.5411964 -0.3281354 -0.2552491 0.26095405 0.11631401 -0.46789765 0.079962365 0.55319554 0.1420283 0.31321037 0.21006487 0.17519332 -0.7259206 -0.16639324 0.40921625 0.45655772 0.71493036 -0.26037917 0.7199759 0.29825616 0.12179038 -0.3165052 0.6894057 -0.93154293 0.20172763 0.09276046 0.9751079 -0.2576432 -0.5349221 1.4626269 0.037799906 0.27248657 -0.87636924 0.46675977
TCCTC -0.7960511 0.26474336 -0.5259733 -0.083872646 1.0675944 -0.24544172 -0.2708239 -0.16205388 0.14933634 -0.7264354 -0.734246 0.22233996 0.037296012 -0.12028626 -0.038924217 0.84674984 0.48872992 -0.40705 -0.8479573 -0.6685226 0.5251907 -0.71472585 -0.16209245 -0.025153015 0.0027708008 0.3034061 0.28839177 -0.5534477 -0.5108057 0.6442677 0.30359134 -0.4775574 0.20536287 0.40646443 0.18166706 0.91314775 0.12603912 0.53776306 -0.44443023 -0.40596575 0.57232654 0.54588044 0.07485126 -1.221439 -0.68817896 -0.12810239 0.3392557 -0.68498087 0.10628947 -0.16627263 0.9284324 -0.29285195 0.28182232 -0.3078116 -0.39143738 0.3232599 0.14758256 -0.44251588 -0.21354197 0.77246016 -0.5445417 -0.25803617 -0.40892476 -0.35931608 -0.84779286 0.16173443 0.29036874 0.10705729 0.2843664 -0.12914342 -0.5190725 -0.09005357 0.12578955 -0.3185412 -0.06889977 -0.3739204 -0.42155665 -0.24024253 -0.4698438 -0.6575816 -0.53200436 0.09899758 0.15256827 0.0133976415 0.47289032 -0.12213428 0.5933715 -0.06645849 0.27492702 0.4792488 -0.091313444 -0.38301444 0.27069253 -0.56777996 0.29564038 0.06902263 -0.844783 -0.67425406 0.044663765 0.09442531 1.3668394 -0.07214614 -0.06916288 1.0126338 -0.65403855 -0.22728619 0.64722526 -0.9254156 0.10013274 0.11761385 0.07092981 -0.34279498 -0.15094024 0.41529885 -0.11776924 -0.06955406 -0.1415081 -0.073738 0.1113151 -0.67984354 -0.35182413 -0.23466608 -0.40078813 0.4093624 -0.20031215 0.71724015 -0.20145261 0.13003327
GAGGA 0.5303534 -0.78222185 0.65727514 0.33172175 0.2961832 -0.22189192 0.3700181 -0.10184273 -0.34903857 0.32082582 -0.20530972 0.21547532 0.7191628 0.40824988 0.51848614 0.38440615 0.9271289 -0.29071656 -0.26213256 0.12431359 -0.60752815 -0.54939866 -0.2280485 0.13264968 -0.024050273 0.5299023 -1.0414886 0.040359344 -0.51250714 0.0586576 0.06880329 -0.18419205 -0.5062478 -0.6785127 0.455589 0.5556428 0.22024202 -0.4078897 0.15955105 -0.61748755 0.28953284 0.45294556 0.33724904 -0.52682674 -0.43931824 -0.17872253 0.17457598 -0.18971522 0.095560364 0.009127117 -0.30483952 0.07101479 0.8322029 -0.47909033 -0.020328384 -0.26757118 -0.33282784 -0.03956388 0.05207185 -0.9972803 0.3299433 -0.4736389 -0.32621104 0.029563382 -0.10282153 1.0374626 -0.049575616 0.65619594 -0.54492754 0.3807021 -0.29556167 -0.5394657 -0.2917134 0.21606794 0.15372194 -0.33828437 -0.11501919 0.057263367 -0.57328504 0.29128116 0.2496143 -0.23078004 0.56312555 -1.2697501 -0.32074472 -0.3493766 -0.5971129 0.12610736 -0.5071931 0.2257599 0.18232842 -0.42441732 0.8075508 -0.53017694 0.7270546 -0.6866891 0.7785393 0.75016975 0.50602955 -0.2883515 -0.2580293 0.1203615 -0.35872662 0.9042455 0.6534178 -0.5028479 -0.38958102 0.04091759 -0.16555753 -0.47388133 0.25736964 -0.27368602 0.6600571 0.1607531 -0.15978295 0.32780373 0.5961546 -0.2928938 0.03217606 0.25120965 0.2675959 -0.06098572 -0.57617396 -0.6828732 -0.1589371 0.5068325 -0.118952885 0.47198066
CAGAG 0.19803198 0.25914064 -0.25793242 0.31001893 0.44600216 -0.40886107 0.75827885 -0.99457055 -0.29706895 0.35681424 -0.04808936 0.9940633 -0.11931661 0.08654311 0.6287848 -0.46855497 0.32274342 -0.4217331 -0.45927382 -0.58522713 -0.30476782 -0.1210633 0.41653284 -0.33747575 0.06487773 1.1055819 -0.66987 0.61330223 -0.27880126 0.5033533 0.7211555 0.113342755 0.09829634 -0.56341845 1.3856682 0.53290784 -0.043089982 0.3276293 0.50668097 -1.4436388 -0.42252782 0.6610154 0.31543317 0.1475729 0.2806402 0.60619813 0.54802376 -0.8196664 0.16890457 -0.19401932 -0.40003592 -0.62550133 0.372824 0.2833692 -0.7862009 -0.59779775 -0.35666636 0.16235705 -0.14054616 0.103417076 0.34675062 -0.54466164 0.14717194 0.11971202 -0.40684927 -0.32344657 0.0537641 0.6376974 -0.43715686 -0.11493584 0.32855645 -0.3708872 -0.42723256 -0.45003965 0.48693484 -0.13078302 0.33351728 0.4103712 -0.19412722 -0.055206362 0.32840738 0.52886206 -0.032815307 0.11772163 -0.4853272 0.2590973 -0.36105177 -0.6810915 -0.628031 -0.5432913 0.13388199 -0.88087946 -0.1777959 -0.104481235 -0.44175163 -0.044547487 -0.16259871 -0.5356954 -0.71154916 0.50055736 -0.3695045 0.28566414 0.5587137 -0.43851906 0.14855884 -0.03490766 -0.72780967 0.21756929 -0.19583073 0.17504793 0.35951424 -0.77829784 0.51178294 -0.015756885 -0.38283402 -0.41615805 -0.35661486 -0.5971762 0.019867003 0.65434915 -0.554285 0.2752714 0.40065047 0.69153607 0.0033109996 -0.016712645 -0.8467672 0.26664588
CTCTG 0.28999358 0.01887419 0.49069476 0.047269534 0.30957985 -0.36859152 -0.45179057 -1.2817686 -0.717649 -0.6240867 -0.009813237 0.13323483 0.36616993 0.29722837 0.5927753 0.27081096 -0.8562281 -0.69790703 -0.10604316 0.094937794 0.82034194 -0.33758864 0.69287837 0.8685319 0.29207078 0.6658118 -0.21572286 -0.24889778 -0.4195604 -0.012662057 -0.07101859 -0.15894717 0.030488024 -0.1703884 0.6904448 0.48747796 0.7983248 -0.655714 0.4681624 -0.6698021 1.1050305 -0.07271019 -0.26066044 -0.4887444 0.042239077 -0.105758585 -0.30872494 0.31521764 0.73893505 -0.42705455 0.715968 0.057960644 -1.0295773 0.22358444 0.5214189 -0.3887691 0.4627893 -0.1395878 -0.20519067 -0.10440615 0.69990295 -0.07052897 -0.6671996 -0.547485 -0.30128437 0.09601996 0.32343832 0.4092689 0.19226778 0.1878612 0.35297692 -0.61753 -1.6798093 -0.2234569 -0.17771807 0.55899686 0.24960795 0.41109997 -0.9908845 -0.8594875 -0.6186239 0.3891377 0.1828347 0.10655157 0.47708437 -1.0803155 0.59474885 -0.65522254 -0.30937904 -0.3545233 -0.3467138 -0.55019134 -0.11015827 -0.76173455 0.35980085 0.08202856 -0.4087809 -0.404377 -0.74705356 0.3625784 0.38494113 0.52553946 0.13208179 0.2617957 0.06369414 0.3731586 -0.059276223 -0.0702956 0.2070799 0.44548017 0.1481121 0.4094645 -0.43143314 0.006031321 0.16651411 -0.31594703 0.4311082 0.206908 0.32557267 -0.84396863 0.52853507 0.020867525 0.12412547 0.73396146 -1.0413046 -0.06039668 -0.36170766 0.16661637
GGCAG -0.4355273 -0.43142658 0.69326866 -0.04938958 0.22519056 -0.225579 0.36668715 -0.3833098 -0.72092664 -0.012925705 0.12253239 0.16993022 0.12561207 -0.109296195 0.035053 -0.56627876 -0.29874238 -0.28480846 0.40340945 -0.77676725 -0.30610245 -0.7600049 -0.7191945 -0.24979064 -0.99613774 0.55802125 0.5458192 0.70394605 -0.18098436 -0.052561365 -0.15810001 -1.082304 -0.2815546 -0.2846545 0.2386857 0.35561627 0.25772768 0.8837724 0.13631678 -0.8909928 -1.1221229 0.66345716 -0.22969462 0.5401213 -0.101798065 -0.50873005 -0.5236426 0.32307157 0.060534425 0.08522294 0.27497563 -0.62228024 0.6046238 -0.45351613 0.4592802 -0.46297964 0.6022789 0.5326471 0.1114391 -0.03951889 0.003010006 0.27082488 -0.74483615 0.05810822 -0.4760907 1.219409 0.82783824 -0.17828391 -0.17713295 -0.45495814 -1.0000982 -0.0894329 -0.92253226 -0.08220464 0.11528977 -0.8966629 0.03960454 -0.20983152 -0.12481806 -0.062319957 0.060171925 -0.7015798 0.1399026 -0.5710327 -0.5544721 -0.66410136 0.23349564 -0.69504905 -0.5852687 -0.3737725 -0.6344552 -0.6382302 -0.96465015 -0.05592537 0.044985995 -0.47717106 0.636025 0.3023367 0.3381078 -0.17106822 -1.4282566e-05 0.8636173 -0.41707632 0.20577082 -0.14523761 0.33732626 -1.5370154 0.2783226 -0.027377153 0.23462941 0.64001113 0.07582328 0.5491421 0.2272489 0.36618167 -0.33995622 0.054219924 -0.41271454 0.21746117 0.14885163 -1.1420645 0.4876524 -0.4542396 -0.6319565 0.88551295 0.4291515 -0.17255998 0.9994557
CTGCC 0.12977935 -0.13047707 -0.9848915 0.23148982 -0.28219786 -0.26283774 0.4571427 -0.41303256 0.001998986 -0.25388682 -0.2607618 0.37129912 -0.2492685 -0.35001415 -0.84243774 0.7323716 0.1932436 -0.26955324 -0.6834553 0.2873116 -0.24713835 -0.7265074 0.5773903 -0.110031836 0.45555896 0.45009607 -0.5365278 -0.15075085 0.04647631 0.5428642 0.17832673 0.30295974 -0.39532396 0.029050635 0.5949481 0.87549764 0.009159986 0.014557125 0.7325496 -0.004379764 0.2864128 -0.054611694 -0.32762462 -0.38521296 -0.24048269 -0.27586526 -0.42707157 0.2633707 0.074288346 -1.4910938 0.86822164 -0.8079901 -0.6174351 0.037944168 0.032602336 -0.44933638 -0.26486808 0.6598291 0.08484661 -0.36163318 -0.10118889 0.8594382 -0.8971663 -0.16290663 -1.2837721 0.14716099 0.0028807474 -0.108416125 -0.4245751 -0.40376356 -0.31647497 0.03144033 -0.645962 0.021605795 -0.26076153 0.31600857 -0.35235238 0.5293602 0.27543637 -0.43430918 -0.30151275 -0.86344564 -1.0155 -0.7088899 1.0800116 0.22830479 0.041503564 -0.82230365 0.3035913 -0.62187994 -0.8634737 -0.7725287 -0.17984287 0.31981036 0.12453146 0.13910668 -0.42263183 0.5571311 0.87134147 -0.18055743 -0.065424286 -0.35746187 -0.0560487 0.23533118 -0.36016658 -0.9168733 0.2182277 -1.0010923 0.051744394 0.40934962 0.66180724 -0.13537636 -0.69084036 -0.56171256 -0.4069261 -0.46997362 -0.27798733 -0.4027448 -0.02293298 0.050207574 0.577297 -0.0160792 0.06418245 0.17581731 0.4660342 -0.1256428 0.6507459 0.22814356
CAGAA 0.0016960596 -0.47242808 -0.07059336 -0.5703593 0.65385973 0.26793316 1.040158 0.057721477 -1.0812732 -0.13122971 -1.2663958 0.811102 -0.59736836 -0.0636369 0.5564772 -0.08753481 0.45158377 -0.040027037 -0.53455436 0.07673254 0.28314498 0.12991443 -0.1391087 0.009430566 -0.03394766 1.3604375 -1.6647544 -0.7624056 0.099349946 0.47434047 1.2077996 -0.37924865 0.18782231 -0.43087822 1.3419873 0.23036312 0.34482342 1.0147202 0.36528337 -0.38766664 -0.282394 0.13900515 -0.034034934 -0.21808442 0.897957 0.13792178 0.8005925 -1.0896757 0.10866018 -0.21060832 -0.20956117 -0.88082606 -0.36016026 0.2712131 -0.7543017 0.019201204 -0.45171395 0.8155591 -0.115112275 0.15994544 0.024821736 -0.83880186 0.10381916 -0.8457597 -0.34561607 -0.49519095 -0.33457702 -0.2954268 -0.3826452 0.036899354 0.53332984 0.4559906 -0.3599501 -0.11810953 0.21419118 -1.0688491 0.21705332 0.12474815 -0.18818505 0.5433964 -0.07919969 0.15165997 -0.45966232 -0.16634455 -1.4849459 -0.48100254 -0.3764997 1.0148191 -0.37535626 0.35627732 -0.2712151 -0.593409 0.30705172 0.51776546 -0.072173476 -0.056126058 -0.15140156 -0.51598465 0.79235727 0.45045662 -0.35566252 -0.3189402 -0.008525743 -0.53071505 1.1391397 -0.30413866 -1.6140667 0.1971042 -0.054943748 0.62536323 -0.44692355 -1.4902896 -0.14823371 -0.30934438 0.19920816 0.1608715 -0.83168936 -0.29354832 0.27183235 0.11565579 -0.35139638 -0.050680682 -0.34093136 0.36726737 -0.24399118 0.41117266 0.2503005 0.40508306
TTCTG 0.68945605 -0.15967146 1.1001434 -0.3091181 0.4472903 0.37369362 -0.5522114 -0.7268413 -0.9787365 -0.49396172 -1.2042476 0.6294091 -0.07506683 0.14281042 0.6806221 0.3381994 -0.4228241 -0.21247466 -0.17625162 -0.41575873 0.2162507 -0.3877663 0.34710538 0.051722113 -0.38922012 0.059464466 0.23676504 0.5637598 -0.41889003 0.083628476 0.24179703 -0.4281723 0.099912465 -0.06972964 0.24824806 0.22572163 1.4602171 0.13739468 -0.38037854 0.3238886 0.26518485 -0.19264324 -0.31875682 -0.24932413 -0.93348217 -0.15508917 0.0903553 0.14825203 0.3711331 -0.5949095 0.55776924 0.81295407 -1.1386237 -0.16232541 0.74617887 -0.08498905 0.15922359 0.048965856 -0.519785 0.17366709 0.42296022 -0.23767436 -0.4138555 -0.34533355 -0.07726496 -0.2885008 -0.11451152 0.46362546 -0.16458653 -0.07388021 0.573742 -0.47135857 -1.330413 -1.5718799 0.45792982 0.3153789 0.5418735 0.62340075 -1.0943104 0.044312026 -1.1165076 -0.166802 -0.15849221 0.21149088 0.36679292 -0.9326211 0.933795 0.29938668 0.01480538 0.38390812 -1.1019242 -0.31878024 -0.6511604 0.114680864 0.8019512 0.09247128 -0.14092854 -0.91670454 -0.52955014 -0.21622191 0.32609892 0.347046 0.8549904 0.58842903 0.021465663 -0.9061325 0.32055536 -0.03364538 -0.2270192 1.1340432 0.6565334 0.63279545 0.23681106 0.008778852 -0.1547682 -0.13086347 1.3165246 0.35296813 0.774217 -0.34641647 0.41216522 -0.6455572 -0.2080402 0.040340092 0.23754326 -0.7224361 -0.5466904 0.58924186
GCAGG -0.14302707 -0.12717573 -0.080330625 0.2631136 0.26102152 -1.1831926 -0.054284237 -0.34072462 -0.52240413 -0.5081649 -0.9476889 0.47633773 -0.28270352 0.6899549 0.04166658 0.6176518 -0.42797405 0.4248411 1.395135 -0.73141813 0.20801549 -0.11909641 -0.60991454 -0.14500025 -0.06573067 0.59373194 0.42692026 0.6152893 -0.48965085 -0.030506542 0.43924516 -0.70612985 -0.3693589 0.09373228 0.4914173 -0.16493767 -0.23159033 -0.42390803 0.5605798 -0.107683435 -0.3940289 0.9000753 0.15761143 0.17430131 0.08923182 -0.5150202 -0.650406 -0.77103436 -0.77523386 -0.47583467 0.68684316 -0.5013374 1.1311771 0.30206633 0.71118367 -1.0471361 0.4990661 0.18555662 -0.41962898 -0.720715 -0.7037676 -0.64992684 -0.9994438 0.0046536606 -0.28067303 0.7815578 -0.093542814 0.42819053 -0.17123552 -0.4354873 -0.40223733 -0.32165858 -1.0789502 0.5128089 0.61812437 -0.4730733 -0.042939663 -0.32401705 -0.2787742 -0.83252746 -0.31831095 -0.2905205 -0.2736847 -0.50319695 -0.2527974 -0.12722062 -0.72337836 -0.3980445 -0.54742867 -0.19885099 -0.22767846 -0.8939177 -0.18117955 0.039017685 0.098803945 -0.43779555 0.24912857 -0.3176636 0.102426015 -0.30796704 0.60730076 0.2998815 0.5515035 -0.31709948 -0.17080286 0.8412156 -1.0099435 0.5716472 0.10834811 -0.17389278 0.5476292 -0.16796456 0.8201833 -0.77196217 -0.6744754 -0.1203232 0.24778737 -0.13035318 -0.11285748 -0.018232435 -0.1223741 -0.21009554 -0.32933208 -0.06202525 0.43149716 0.290542 -0.47271374 0.27719635
CCTGC 0.1759225 0.1825755 -0.26886833 0.297942 -0.2369658 0.05034731 -0.29386374 -0.5649755 0.13879052 -1.0285035 -0.25123686 -0.78705055 -0.35732672 0.3221898 0.97922856 0.03184427 -0.0056726667 -1.0804757 -0.2739847 -0.39618415 -0.13920864 -0.5971064 0.22223419 -0.010190247 0.657201 0.36668888 -0.36358297 -0.48617595 -0.58168393 -0.24593154 -0.07214421 0.32118902 0.175638 0.12338734 0.5442719 0.90454453 -0.50447357 0.6145705 1.0177097 -0.5657828 -0.20055495 0.0822179 -0.32924327 -0.28689995 -1.0992628 0.07298741 -0.052378077 0.47339183 -0.10438757 -0.9702984 0.28809702 -0.7683252 -0.47579443 -0.030456824 -0.54739857 -0.070693605 0.34119517 0.51480854 -0.09592833 0.16848327 0.03740798 0.75630754 -0.63632876 -0.39624256 -0.69907415 0.33584327 0.032478124 -0.43687698 0.2001038 -0.5431148 0.19756138 -0.16866717 -0.6832967 -0.32646355 -0.74514294 -0.8873266 -0.11837906 0.15986152 -0.23344971 -0.90720785 -0.1737786 -0.39510572 -0.8658115 -0.07285936 0.28800344 0.02953057 0.59715664 -0.13464105 -0.12330824 -0.017315643 -1.6707344 -0.82235223 0.580689 -0.22832218 -0.26375276 -0.77425 0.003818471 0.14228734 0.622403 0.29272515 -0.20871696 0.35367116 0.24837713 0.28866145 -0.3940479 -0.14585103 0.58413434 -0.55498135 0.57135355 0.16644919 0.66425747 -0.8881628 -0.59825563 0.18480563 0.40722167 -0.87314516 -0.5275516 0.35608363 0.20617953 0.21993919 0.49486288 -0.26485455 -0.27951708 0.42337453 -0.034540687 0.48517233 0.46771565 0.07692212
GGAAG -0.118254624 -0.016392233 0.19385602 -0.20628838 -0.15130281 -0.53961253 0.17584124 -0.13078158 -0.90279573 0.39989826 -0.10046135 -0.20889959 0.21598071 -0.027390927 0.6986788 0.037575174 0.10699109 -0.77244425 0.24124756 -0.84032804 -1.2057309 0.18172544 -0.058330253 0.15683162 0.6130199 0.6646048 0.311864 0.15953305 -0.49961567 0.78675103 0.18785954 0.11561289 -0.49408928 0.47864974 -0.044136263 0.123966895 0.46448338 0.35985577 0.02249275 -0.34674907 -1.1294969 0.8202985 -0.051316414 -0.024582196 -0.42379117 0.35352364 -0.3399571 -0.06025253 -0.019857239 -0.5956246 0.5348459 -0.52851033 1.1125553 -0.6260543 0.2871157 0.38626394 0.64703876 0.5141784 -0.12597975 -0.3587544 0.119044766 -0.40715984 -0.5575621 -0.31919843 -0.629116 1.5395362 0.1551637 0.032518342 -1.0742929 0.29013932 -0.74147874 0.21914285 -1.0454783 0.25632435 0.1824109 -0.1317714 -0.4254051 -0.484643 -0.24238808 0.41589794 -0.3592695 -0.11532711 0.2756616 -0.5930346 -0.11944485 -0.40655214 -0.06831332 -0.5887128 0.25328735 0.9728449 -0.63285744 -0.62077785 -0.34252268 0.28999662 1.0677476 -0.48160818 0.49441928 0.40980157 -0.318071 -0.17340963 -0.4480368 0.23826972 -0.06268484 -0.8957048 0.014042857 0.17875485 -1.1234703 0.7759764 0.049720656 0.20262527 -0.31724083 -0.53466886 0.059579086 0.1121168 0.33235097 0.58155376 0.4515193 -0.20198785 0.3695069 0.3270988 -0.69104505 0.6847592 -0.2488185 -0.18022001 0.531658 -0.133207 -0.49300924 0.8940925
CTTCC 0.7499533 0.36387083 -0.5743775 -0.06389705 -0.001377866 -0.38756764 0.21164599 -0.35735482 0.26508385 -0.6866414 -0.61058533 0.10284353 -0.5516972 -0.62540734 -0.15032504 0.5218365 -0.21568576 -0.76225895 -0.4469708 0.23571356 -0.7521376 -0.5780981 0.2717814 0.26948515 0.28022325 -0.61729115 0.47394848 -0.3857696 0.050274126 0.5441962 0.7416245 -0.9084186 -1.2190884 0.042615436 0.061387494 0.6497558 -0.034595095 0.18404782 -0.22923423 0.08961163 0.11158488 0.59924895 -0.2078678 0.1235013 0.39921162 0.23582509 0.34736052 -0.29627687 0.35145515 -1.2286621 0.6645986 -0.72734773 -0.33813426 0.1357212 -0.6876849 -0.2625276 0.24276347 -0.06936443 -0.2462072 0.37495956 -0.5128674 0.98988223 -0.25585154 0.10504369 -0.73582554 -0.010274468 -0.7378171 0.0035827952 -0.052331947 -0.69712996 -0.21479394 0.29415447 -0.32368955 0.10492556 -1.2819973 -0.673401 -0.6011322 0.4897741 -0.57775164 -0.6607958 -0.15252335 -0.41435382 -0.53075594 -0.25992945 0.47762105 -0.015800104 -0.053981 -0.5627192 -0.10142228 -0.35710758 -0.42744565 -0.68828785 0.06622795 0.54112536 0.624352 0.72302616 -0.07115915 -0.2991453 0.40672484 -0.2602489 1.1959898 -0.7735538 0.3621163 0.06751108 -0.07579348 -0.20822346 0.47576827 -0.2777159 -0.16767201 -0.1816185 0.80013293 -0.4637543 -0.94863087 0.3621345 -0.73318064 0.046846975 -0.07808299 -0.36781594 0.8238153 -0.3731242 0.25816527 0.7900168 -0.16785136 -0.3240108 0.2681053 -0.6117494 0.46674034 0.1093746
CTTCA 0.22361864 -0.21056676 -0.4733425 -0.4704151 0.516308 -0.22983088 0.0060063135 -0.54214156 -0.58164173 -0.30947205 -1.1059473 -0.41567776 -0.7274772 -0.4803699 -0.07836342 -0.04552949 0.19032009 -0.5556424 0.61492425 -1.0582119 -0.14676315 -0.406402 -0.4931293 0.588842 -0.35673645 -0.31872973 0.040518943 -0.6845689 1.0902289 0.059223868 1.2724526 -0.33902198 -0.9244285 -0.22527929 0.4603661 0.79691863 0.34451133 0.2940984 -0.2855086 0.12275241 0.801884 0.40641755 -0.57367516 0.7536834 1.1881691 0.57048464 0.52180564 -0.15659054 0.11743234 0.022141317 0.7255943 -0.080644354 -0.09689267 -0.60274523 -1.2466992 0.04579914 0.24330726 -0.2150266 0.6997701 -0.008990273 -0.43782386 0.2705409 0.24333183 0.4331934 -0.3226506 -0.94821143 0.11199834 -0.18220659 -0.3254221 -0.85822546 -0.3747124 0.0009820639 0.17098786 0.12798528 -0.19060034 -0.514317 -0.42910787 0.09622899 0.3264113 -0.50527704 0.14369142 -0.10434055 -0.6068262 -0.6384252 -0.07417055 -0.065212645 0.07280088 0.20673041 -0.31161857 -0.32671672 -0.13913335 -0.4385368 -0.015663205 -0.030205388 0.62441325 0.06870383 -0.6081733 -0.33065197 0.055369716 -0.81946594 -0.049453903 -0.8222575 0.57346076 0.18008108 -0.44353506 -0.385573 0.23324879 -0.54188526 -1.245854 0.3575602 -0.88597775 -0.45588216 -0.6646525 0.9041899 0.2590873 0.22987339 0.0702497 -0.85632455 0.17021306 0.17440316 0.22522578 0.09067959 -1.3100647 0.22129633 0.46167487 0.17216277 0.61702144 0.38486624
TGAAG -0.4544889 0.2675185 0.62674004 0.10376352 0.21467102 -0.09763149 0.27970576 0.6627617 -1.2973887 0.6260464 -0.42471385 0.15499765 -0.5519482 -0.06731133 0.23468822 -0.20205233 0.16571452 -0.6359586 0.51568604 -0.13808471 -0.90601844 0.018903008 -0.22303717 -0.20554912 -0.09934348 -0.10900459 0.5926882 -0.17302546 -0.34586275 -0.089403495 -0.2205842 0.2605771 -1.160346 -0.029610606 -0.24987349 0.66623706 -0.21332875 -0.22535157 0.71192265 0.08912886 0.70462555 0.76574725 0.10445411 0.45167133 0.15408665 0.22474244 -0.5919092 -0.39752418 0.33209497 -0.8829612 0.6469587 -0.3536922 -0.1558116 -0.84665924 0.7356489 0.06995037 0.4732768 0.5049735 -0.17432262 -0.025741847 0.7727641 0.041359007 -0.65065575 -0.8157637 -0.6471463 0.2852036 -0.37982976 -0.091349415 -0.6999423 0.6883479 -0.057834234 0.08150199 -1.0470802 -0.038214974 -0.10845386 0.5149437 0.8222362 -0.18007955 -0.5858151 0.38787937 -0.3222385 -0.94111145 0.583156 -1.1073859 0.19306155 -0.38912484 0.7641728 0.3222569 0.6395888 -0.6778158 0.13667893 0.56568766 -0.09601875 0.14367026 1.0518175 -0.9391468 0.23904611 -0.4691735 -0.46690252 -0.36046794 -0.20923863 -0.29558972 -0.5021537 -0.3005274 0.012676821 -0.54629886 -0.34083903 0.31560946 -0.049323287 -0.44993857 0.091655046 -0.56381017 -0.31352767 0.06609223 0.55694556 0.7566054 0.5780286 -0.47623533 0.38095716 0.023550536 -0.061531287 -0.26746812 -0.6270486 0.12332963 0.3462558 0.28858116 -0.3532509 -0.07640733
TTCCT 0.45053035 0.4280423 0.10767341 -0.6481949 0.44223344 -0.15748405 0.32994345 -0.5117327 -0.053956173 -0.6942059 -0.5211678 0.48882088 0.34742507 0.020841395 0.21588081 1.228568 0.02972013 0.21749999 -0.7125679 -0.34254232 -0.058687903 -0.65486234 -0.4330997 0.20397966 -1.1017531 0.50495964 -0.05689355 -0.5878374 0.06617474 0.6099945 -0.35993376 -0.69601893 -0.11485833 0.3359021 0.14220613 0.65516555 -0.22679706 0.5226934 -0.13835374 -0.44723514 0.53488445 0.2552533 0.16424027 -0.6596239 0.13851266 -0.08931747 0.04188142 -0.0131221935 0.8278824 -0.30903873 0.308954 0.090939164 -0.88582104 -1.0447677 -0.5527017 -0.5573359 0.23686525 0.010495527 -0.6704574 0.4793975 -0.7570893 -0.18702878 -0.4961877 -0.11442621 -0.20963548 0.36689994 0.002201695 -0.22259389 0.48166734 0.66478854 0.2560007 -0.84599775 -0.33088604 -0.8788967 -0.23084693 -0.57356244 -0.7965849 -0.413916 -0.024638435 -0.15679424 -0.017504841 -0.46017134 0.013249222 0.67979157 0.69055575 -0.32272848 0.7128469 0.041708324 0.39488557 0.7285924 -0.26206312 -0.14445253 0.5911696 0.023002602 0.20327939 0.48302406 -0.18673767 -0.8838387 -0.36461985 -0.5148686 0.86696 0.7963503 0.23689952 -0.080860265 -0.96735793 -0.12220451 0.62885576 0.023975072 -0.149307 -0.058352575 1.0722741 -0.0012652717 0.19760819 0.55859923 -0.68418753 0.46059722 0.75165915 0.28635138 0.4714119 -0.046677545 -0.32929257 -0.11468021 -0.465964 0.3641693 1.076343 -0.22306482 0.4956464 0.08988387
AGGAA 0.28195718 -0.884258 0.4191608 -0.7920326 -0.033208515 -0.4517142 0.2540627 0.5045539 0.29014507 -0.25230163 0.49496785 1.1648337 0.49308228 0.3248218 0.41473278 0.3665502 0.87360966 0.29846206 0.37880036 -0.13360377 -0.80851364 -0.26235932 -0.46278793 0.5898166 0.30813113 0.90033937 -0.80387414 0.17654231 -0.024824405 0.31217673 -0.11095476 0.012687136 0.24363771 0.89786875 0.96965307 0.569601 0.3218886 -0.2785993 0.08938399 -0.70279264 -0.33084476 1.0042421 0.13729806 -0.76146674 -0.0201338 0.6988937 0.6853721 -0.3363488 0.28669947 -0.6171977 -0.7435192 -0.9632842 0.15090156 -0.6299999 0.74415857 -0.3999047 -0.13748091 0.26438636 0.24328768 -0.59941244 0.10948008 -1.1058384 -0.41753346 -0.021442236 -0.05237794 1.4527102 -0.16770552 0.23106855 -0.43322134 0.057166465 0.19074838 -0.28121167 -0.434547 -0.033902876 0.77946097 0.04324461 -0.35294086 -0.20709622 -0.534562 0.17832729 -0.0060541457 0.030520488 0.13041054 -0.59756947 -0.54350686 -0.0609227 -0.0097341575 0.749923 0.24225402 0.53486395 0.52034765 -0.96959186 -0.050290585 0.533573 0.18585019 -0.17418917 0.07053537 0.28307748 1.0021882 -0.14158568 0.10074624 0.034401115 -0.45871496 0.72400194 0.46196795 -0.9322873 -0.66137785 0.08717625 -0.30542603 0.61552066 -0.27714732 -0.16801974 -0.5245658 -0.0565796 0.14346339 0.39800173 -0.42864245 0.058691327 -0.110987835 0.01328487 0.45244375 -0.50448936 -0.014311026 -0.36917675 0.19244695 -0.004424862 0.049944572 -0.02385039
GCCAG -0.34601283 -0.4462225 0.19349137 0.49075282 0.8103383 -0.15734035 0.41763866 -0.4288517 -0.25153032 -0.3968214 -0.31070596 0.2981492 -0.26941693 0.29170984 -0.9143257 0.048743427 -0.31925392 -0.768516 0.6404232 -0.5944844 -0.37492374 -0.45883313 -0.36196226 -0.18545754 -0.3506812 0.593565 -0.21268359 0.96986866 -0.14684813 0.19809662 -0.48939648 -0.7629358 -0.021458162 -0.18600993 0.46002775 0.00962446 0.15464193 0.2301581 0.40301433 -0.20481378 -0.56702274 0.7276011 -0.5445477 -0.023599356 0.43604243 -0.19655052 -0.65698326 -0.002513762 -0.13661078 -0.71055114 0.26937184 -0.2854022 0.2282063 0.29157096 -0.10651858 0.015229031 0.70571965 0.019163283 -0.027477214 -0.40946284 -0.4474493 -0.32789236 -0.402057 -0.32110804 -0.06361433 0.18835194 -0.04357965 -0.6099204 0.42867357 -0.6410927 -0.53156835 0.23085696 -1.6082174 0.14407656 0.49846935 -0.3762393 -0.19182062 0.44779456 -0.39259633 -0.40778673 0.026689323 -0.19785848 0.14547178 -0.97821677 -0.41656992 0.10471597 -0.1212906 -0.9821066 -0.77816564 -0.2567399 -0.29471818 -0.058972374 -0.29890668 0.27241942 0.1548922 -0.18614106 0.20856495 0.16865146 -0.33487374 0.02026459 -0.5063748 0.63386214 -0.47172016 -0.13749383 -0.09873243 0.39443213 -0.6816008 -0.2134924 -0.33172908 0.1468727 0.40119296 -0.63293123 1.0306162 -0.10306532 -0.23610699 -0.3333127 0.009092921 -0.281662 0.21559483 0.31919116 0.24211423 -0.04923889 -0.03483908 -0.17371105 1.296324 0.8819781 -0.2678587 1.135504
CTGGC 0.2126242 0.076545715 -1.2690892 1.0951952 -0.12402017 -0.82157475 -0.20664987 -0.4530004 0.14749603 0.12936781 0.00066506263 -0.28923827 -0.04199948 -0.35006085 0.027217178 0.18380733 -0.16009198 -0.4415855 -0.13293919 -0.01009524 0.3445769 -1.0919219 0.09249922 0.23170646 0.2348765 0.2885024 -0.017605508 -0.107998826 -0.6754252 0.2528651 0.20532031 0.32776293 -0.09985192 0.28518054 0.59944445 0.6813187 -0.027427105 0.25711948 0.41206482 -0.19154973 -0.80963504 -0.31025544 0.35186794 -0.34783012 -0.3248971 -0.12119891 0.21625154 -0.13703665 0.1270157 -0.45923933 0.7967017 -0.29824644 -0.6380236 -0.46959665 -0.10840468 -0.6773388 0.76002747 0.77977264 0.42974207 -0.40343183 0.5655669 0.5525136 -1.1038563 -0.28311953 0.060265407 -0.59733206 0.194829 0.3578947 0.4761416 -0.82490736 0.087897934 0.08772213 -0.27918878 0.0087735895 -0.1295145 0.05514396 -0.26786357 0.20576182 -0.49440777 -0.08664034 -0.029937005 -0.6183736 -1.2586519 -0.94162613 -0.03143391 0.07159377 0.24345039 -0.26498172 -0.4823164 -0.7896701 -0.32156974 -0.7136805 -0.34412214 0.2029041 0.4795333 -0.12403369 -0.1597149 0.0957816 0.1541506 -0.16580392 0.20177111 -0.21440542 -0.036299173 0.7943622 -1.0127097 -0.1340881 0.38542235 -0.5058464 0.48461133 0.7471076 0.8823769 0.30931222 -0.4472312 -0.16547169 0.32340437 -0.7507838 -0.04628727 0.20690082 0.10491307 0.1263689 0.2852063 -0.3141245 -0.35090935 0.4767227 0.23771773 -0.41744745 0.41952026 0.20300601
TTTTC -0.39290068 0.9676386 -0.7400819 -0.56320465 0.9768597 -0.63664615 0.3702537 -0.00059915666 0.36898112 -0.6851137 -0.5780972 0.23415501 -0.081395045 0.33966923 0.64290756 1.3425883 -0.23274367 0.14062423 -0.29760775 -0.73658127 -0.70355916 -0.35306254 0.23818944 0.43179718 -0.63164973 -0.44770837 -0.18715844 0.051720396 -0.06864738 1.1506041 0.040643387 -0.15814963 -0.42083782 0.46344447 0.1124456 0.5270432 -0.054711916 0.014000592 -0.6807627 -0.20424044 0.40221843 0.039682932 -0.0573914 -0.1240879 0.27500218 -0.4022721 0.033394825 -0.2195729 0.7517568 0.22379522 1.08703 0.16945063 -0.50921965 -1.2710584 -0.009230749 -0.021466684 -0.66755366 -0.58056754 -0.9727044 0.12084829 -0.20224346 0.5226618 -0.78690994 -0.065319106 -0.14304668 0.20580892 -0.104322374 0.6351504 0.036013886 0.24896221 -0.21968375 0.085631646 0.3753882 0.09746874 0.23525319 -0.63380426 0.40155932 0.03704647 0.052728385 0.19138645 -0.22439167 0.5853861 0.56328464 0.08861122 0.0578127 0.21714866 0.59737456 -0.95729953 0.008669142 -0.328377 -0.44561926 -0.44094604 0.39899895 0.06312623 0.43256828 -0.33188775 -1.4030035 0.066233225 0.4560427 0.3843415 -0.0046634926 -0.6914525 0.50031507 1.3358347 -0.37630725 0.09197627 0.17703651 -0.17266831 0.0075229323 0.46994406 0.63645494 0.32663113 -0.7914113 -0.09174807 -0.14145541 -0.13753301 0.1504598 -0.40989232 0.20271282 0.19150062 -0.38198495 0.049794797 -0.6729154 -0.8738414 -0.17263953 0.35257962 -0.43739766 0.64544034
GAAAA 0.040007286 -0.70575607 0.21313834 0.42642733 0.23523858 0.17627679 0.27138272 0.6903478 -0.15512812 0.088760145 -0.89062715 0.17889382 0.3857369 -0.6448894 0.3102481 0.6459021 0.51460046 -0.6643596 0.58754414 0.5927987 -1.3212053 -0.064988114 0.11253574 0.4985889 -0.16780011 0.40911797 -0.39276314 -0.25140274 -0.402865 1.0794481 -0.044506866 0.65340304 -0.2841369 0.46142036 0.2908298 -0.1281506 0.6192381 0.2065757 0.3058754 -0.47339973 -0.9282748 0.14215797 0.24396221 -0.6203566 -0.2792174 0.5613146 0.0015800569 0.27217957 0.6231999 0.6559186 -0.48297945 -0.20344129 0.08207586 -0.37771717 0.055021334 -0.42707554 -0.33045074 0.63458616 -0.07309485 -1.2641711 0.02987934 0.1765828 0.5576723 -0.70636183 -1.0358875 1.0571327 -0.43532854 0.48510507 0.09565719 -0.38861936 -0.39278567 -0.19476429 -0.07803646 -0.06326325 -0.17278773 -0.053206917 0.34746537 -0.26244858 -0.42798734 -0.010285944 0.47678638 -0.48602787 0.88564634 -0.588072 0.057336874 -0.07666598 -0.45361105 0.7731348 0.35707283 -0.79547364 0.11712752 -0.85175145 0.2867207 -0.5749521 1.240631 0.23583248 0.49730232 0.27245906 -0.34155583 -0.31320572 -0.44884098 0.4978499 0.1755335 0.48789752 0.7372205 -0.39133495 -0.25557664 0.3818384 -0.33250836 -0.012710903 -0.037014116 -0.29816636 0.7383842 0.18801984 -0.23904225 -0.33397195 -0.14822164 0.3646141 -0.29885444 0.12119372 0.1542886 0.4070412 -0.93916595 -0.6049737 -0.2621899 0.89670503 -0.27186584 1.0494701
AAAAT -0.12719297 -0.88574004 -0.0880825 -0.67548835 0.06079701 0.39773205 0.23224589 1.183193 -0.36641392 -1.0848358 0.043345634 0.14087272 1.1026937 -0.009364881 0.7160747 -0.031534247 0.5333748 0.43089825 0.5250851 0.082796335 -0.10542312 -0.25200978 -0.075022936 0.51805234 -0.32282236 0.30199936 0.5483786 -0.9765164 0.1364444 1.020029 0.4924048 -0.4144423 -0.018263005 0.9542777 0.12354994 0.4970641 0.39690706 -0.68277955 0.13453138 -0.34877875 0.07097594 0.43596074 -0.19269702 -0.47921178 0.6264402 -0.501583 0.12983762 -0.19613677 -0.03449025 -0.19342871 0.3060823 0.16200465 0.028724303 -0.5265967 -0.38401857 -0.012305431 -0.19843161 0.8457614 -0.37299967 -0.2109278 0.8409942 -0.7152107 1.4812135 0.045883577 -1.0926688 0.38177556 -0.24905731 0.5115643 0.21540356 -0.3178934 0.49084434 0.12531808 -0.16261856 -0.38435644 0.13018522 0.047485616 0.52718526 0.25441784 0.8422746 0.47484866 0.947212 0.88369375 -0.37430882 -0.90049624 0.2831146 0.14358829 -0.33271298 0.33567798 -0.5921897 -0.6051995 -0.2759797 -0.5718654 0.96961755 0.45442826 0.55297714 -0.12186679 0.00837493 -0.50463545 -0.29691267 -0.37106547 -0.083016135 0.6104004 0.30665064 0.3296398 0.24525927 0.2527198 0.38242698 0.19196525 -0.36124372 0.40650758 0.7108174 0.29668686 -0.1451598 -0.32734898 -0.4993044 0.38597643 -0.4782337 1.0095632 0.23072119 -0.37828454 0.27677312 -0.048865605 -0.90071505 -0.41920617 0.22775637 -0.031759296 -0.48986912 -0.047797423
ATTTT -0.590137 0.24588268 0.8395059 -0.31162184 0.4918333 -0.3179773 0.9584967 0.5892676 0.11447062 -1.1371988 0.2358927 0.59808064 0.13101695 -0.44696596 0.613856 1.0235577 0.49139285 0.053723995 0.33614254 0.2374392 -0.4787401 0.17731959 0.023634136 0.22415696 -1.0539923 0.054108366 -0.17901973 -1.0277698 -1.2873554 0.30511564 0.3435623 -0.08575279 -0.2674943 0.51453495 0.03330296 0.0337867 -0.08938971 0.026572883 -0.5091682 0.48914334 0.22296233 0.1589913 0.7815833 0.32722053 0.46482614 -0.22772296 0.22389658 0.018464277 0.43152878 -0.7190347 0.5731488 -0.094129235 -0.25201845 -0.41293228 0.042952925 -0.16466706 0.44655415 0.2944608 -0.76187867 0.17096047 -0.34990424 -1.0168066 0.53694695 0.6978954 -0.5750297 0.46878448 -0.36425343 0.54876345 0.3681762 0.4978031 0.6872185 0.15258904 0.62898093 0.11535303 0.2738143 0.15228797 0.90405685 1.1878959 0.62361157 1.2584242 -0.40165198 0.2644872 0.44791767 0.43077078 0.17002639 -0.27811348 0.50541705 -0.66511977 -0.69834477 -0.18235478 -0.49042487 -0.020899728 0.16928402 -0.821275 0.43319628 0.5383452 -0.3752054 -0.9783659 -0.17651261 -0.84184766 -0.43111464 0.5104372 -0.21924978 0.8034773 -0.41018686 -0.21148169 -0.31734872 0.7299122 -0.24666566 0.52756417 0.7305704 -0.20148885 -0.07474 -0.03312239 -0.17362255 0.29997802 0.31054336 0.13372388 0.082588725 0.73863435 -0.08081085 0.40632212 -0.20256913 0.43712252 0.043677334 0.42636448 0.617359 0.5504922
CACAG -0.4247601 -1.0864822 -0.9003256 -0.044182714 0.0019248823 -0.5841894 -0.30678007 -0.61790556 -0.45164558 -0.12378567 -0.29974845 0.86490875 -0.69324124 0.14826232 1.1246957 -0.06639768 -0.15188488 -0.43307334 0.30484653 -0.4350685 0.5459638 -0.17607518 0.38296983 0.61995214 -0.7692011 0.3505336 0.3626219 0.008251552 -0.107424706 -0.44237658 1.0175304 -0.434306 0.0815845 -0.51240087 1.3049799 1.0443419 0.26714143 0.35233322 0.19731966 -0.48637867 0.15036185 0.49787366 -0.40783128 -0.15627171 -0.22989248 0.08933285 0.04060207 0.45369166 0.37849867 -0.24132575 -0.25347048 -1.4597919 -0.34620485 0.37967235 -0.4247932 -1.0613135 0.3114433 0.09459189 0.21708602 -0.222183 0.72381055 -0.47372976 -0.4519913 0.31408232 -0.33555898 0.030272534 -0.2641279 0.528797 -0.42894807 -0.09505338 0.42829576 0.028692799 -0.2333286 -0.038215075 0.6866214 0.30759984 0.3911398 0.56135744 -0.5235935 0.41389078 0.6421419 0.09254242 0.41008437 0.26439327 -1.0184083 0.41636965 0.38870516 -0.77033603 -0.58232844 -0.41846803 -0.5293865 -0.21694468 -0.4895648 -0.41311046 -0.7422267 -0.017862642 0.023598174 0.36923522 -0.4772492 0.77928126 0.08136943 -0.26325148 0.64479274 -0.26444677 -0.15306227 0.11672235 -0.12886739 0.23216033 -0.30019197 0.18744822 -0.3392829 -0.42990994 0.20930144 0.6736474 -0.35197258 -0.28445667 0.4474496 -0.46915185 0.20004241 0.58605045 0.16612548 0.36573347 0.096957155 0.5267051 0.28542748 -1.2353697 -0.7623908 0.96660924
CTGTG 0.2766067 -0.1769009 -0.09058327 0.23028293 -0.41145125 -0.46051857 -0.25652176 -0.15119083 -0.8233116 -0.12429951 0.13299644 -0.28549737 0.19167387 0.30930102 -0.042329066 0.25122425 0.0032346048 -0.44793698 -0.23160379 -0.42009053 -0.14493585 -0.4305266 0.07761747 -0.01746509 0.5365576 0.6934815 0.6514061 0.32238227 -0.059801914 0.016750624 0.2758556 0.21401812 -0.12639292 -0.6004509 0.95671785 0.8240608 -0.3611977 -0.24455884 0.028176146 -0.53198665 0.83522236 -0.0963115 -0.254252 -0.2223564 0.40048423 -0.25151068 -0.2653137 -0.031517036 0.7392501 -0.390609 0.3751442 0.43153852 0.0661176 -0.49482173 0.1522754 -1.2607846 0.31959718 0.09704362 -0.72288597 0.16783172 0.6032424 -0.47256678 -0.7414501 -0.42474982 -1.5832081 -1.0379368 0.47485244 0.18501762 0.7108091 -0.35080793 0.070292905 -0.9063663 -1.1836159 -0.23563778 -0.37733045 0.6914081 -0.2979901 1.3818913 -1.1390653 0.058846474 -0.1768379 0.15691826 0.23493062 0.09531441 0.105071925 -0.14733092 -0.14773111 -0.0118524125 0.33208305 -0.2992428 -0.80354124 -0.041723065 0.44801405 -0.9582544 -0.31904107 0.5517932 0.05943791 -0.14968266 -0.2910491 0.4466431 -0.25699657 0.7866691 0.2401649 0.14844973 0.39117694 0.49783382 -0.6175134 -0.41749018 0.74603164 0.27676517 -0.03005964 0.4122877 -0.4168711 -0.36273405 0.31770766 -0.6878999 0.035014596 -0.11704353 0.6315597 -0.46537542 -0.12419516 -0.25304672 -0.40673476 0.3407505 -0.31283176 -0.39599672 -0.1119967 0.29617855
CAGGG -0.53954774 -0.065613635 -0.013426602 0.6277209 0.98048264 -1.3763528 0.22420599 -0.11771392 -0.011962095 -0.29367775 -0.7014646 1.1025649 0.4224325 -0.081102885 0.72743535 0.16056609 -0.082554795 -0.7170503 -0.004685156 0.1830869 -0.3953149 -0.27952507 -0.9947388 -0.7150211 -0.361416 0.71755266 -0.03047447 0.38270938 -0.23659557 0.27760547 0.773573 0.7987528 0.106833175 0.40006635 0.49980462 0.4624418 -0.01558689 -0.42276147 1.1523145 -1.2799412 0.26609954 0.21805388 0.32563102 -0.06254956 -0.26155284 0.32994998 0.22296487 -0.93829983 -0.99313974 -0.79634774 -0.08940452 -0.4979616 0.4419672 0.009865479 -0.70374286 -0.9628611 0.44670492 0.49691772 0.76047856 0.19959348 -0.23504834 -0.3032504 -0.28845352 0.35862043 -0.63938975 0.10931046 0.00024261535 0.07064892 0.011590722 -0.3388271 0.05334039 0.017803539 -0.14627549 -0.5627605 1.1934226 -0.69139016 0.17756806 0.35813227 -0.7338952 -0.11680796 0.14725086 0.93032783 -0.46988782 0.05456234 -0.34266567 0.78665423 -0.3555227 -0.41618925 -0.39401984 -0.16824222 -0.56802565 -0.76838356 -0.09536231 0.41984507 -0.629025 1.0771087 0.0063165175 -0.42224514 -0.073010534 0.2791006 -0.02845795 -0.05206447 1.1186608 -0.87956166 -0.36419266 -0.22773637 -0.6752567 -0.41277957 0.012084104 0.19827126 0.14962904 -0.25869066 -0.08533334 0.08232522 0.03075763 0.081910096 -0.36434576 0.17807968 0.17887814 0.6564552 -0.26065594 -0.031754833 0.06342764 0.25533545 0.009389292 -0.51078385 -0.7247024 0.37087634
CCCTG 0.5462285 -0.09372517 0.24915352 0.3491362 0.06907001 0.091922946 -0.73630834 -0.66145474 -0.33916518 -0.49536863 -0.050183684 0.29361084 0.04631171 0.64349014 0.049623825 0.019926062 -0.5283822 -0.6150694 0.22515658 0.25117597 -0.46202394 -0.2574546 -0.2539839 0.33016622 0.05406642 0.32584882 -0.96494246 -0.17539735 -0.30651644 0.3064138 0.20998342 0.1763616 0.101018056 -0.56336606 0.09359649 0.40174758 0.82258636 -0.099264964 0.62048167 -0.8682439 1.1437272 -0.2890494 -0.20881423 -0.029470975 -0.24889205 -0.65529823 -0.41631505 0.5090884 0.33609295 -0.43128484 0.72132444 -0.4608709 -0.43791395 -0.21772957 -0.60747844 -0.81291956 1.6079751 -0.24982293 -0.31063056 0.04959954 -0.6839823 -0.15260442 -0.34107766 -0.5665379 -0.61072695 0.81863993 -0.31672806 -0.19556093 0.6377191 -0.12125265 0.37640223 -0.2780059 -1.1077604 -0.5116069 -0.15844151 0.2076291 0.4431833 0.23537408 -0.9897492 0.39250785 -0.49151337 0.18681028 -0.18041812 0.5487052 0.0711808 -0.13290924 0.24906835 0.13419756 -0.4092562 0.16768542 -0.4513247 -0.5514824 0.40219155 -0.17640094 -0.36681736 0.043430794 0.5823404 0.023615554 -0.58206135 0.9990476 0.07617037 1.5168318 0.42665914 0.6786235 -0.52035856 0.6204888 -0.34480488 -0.6403771 -0.48574713 -0.09154617 0.73544353 0.37751052 -0.75961226 1.0044768 0.4680283 -0.20537598 -0.068559155 -0.51698697 0.6010028 -0.060236882 0.5904031 0.54730034 0.24057555 0.5784149 -0.6540959 -0.431331 -0.5262391 0.10458941
GGAGA 0.025330715 -0.56786287 0.61280525 -0.29954302 0.27689487 -1.3187718 0.07382561 -0.5098548 -0.37315997 -0.03671903 0.010304094 -0.28166458 0.5469805 -0.4946034 -0.019138137 0.2753791 0.11614876 -0.5618009 -0.26043874 -0.2560794 -0.8155068 0.10910506 -0.59435743 0.923096 0.5148546 0.65154755 -0.77374125 0.03783153 -0.28304037 1.0511128 0.47898576 0.034674387 0.16486695 0.25057912 0.0148183135 -0.08581828 0.02826012 -0.3720534 -0.5849777 -0.83058643 -0.46136335 0.14640561 -0.06691032 -0.1968328 -0.9771659 0.3981735 -0.23802271 -0.25610912 0.8301198 0.47239587 -0.10302968 -0.26808435 0.8279683 -0.65122765 0.11365051 -0.5026032 0.16711213 -0.0833304 0.2292862 -0.6239729 0.62144953 0.31643516 -0.8517081 0.2414845 -0.42033622 0.7190411 1.2183913 0.6552081 -0.68469334 -0.40332362 -0.40981185 -0.11283784 0.16881979 -0.08832566 -0.25977278 -0.34166625 0.013190749 -0.26626283 0.25694507 0.27577338 0.21582317 0.66703004 0.71740687 -1.266615 -0.11529772 0.09713975 0.0064332923 0.2836323 0.27949172 0.56891495 0.36316767 -0.27423507 -0.038406838 0.41702127 0.6133583 -0.7386278 0.70096636 0.09339241 0.15293743 -0.651674 0.067101836 0.26518548 -0.060737338 0.35862356 0.4393681 0.041315038 -0.86097926 -0.5294626 -0.7246589 0.70024097 0.49619976 -1.1395415 0.61268365 -0.37284234 -0.066025324 0.06345847 0.22784159 0.16070734 1.0616623 0.6086524 0.44811487 0.82767975 -0.58038396 -0.34649965 -0.11928466 0.15086737 -0.8278651 0.18221962
TCTCC -0.4400365 -0.008230322 -0.22366746 -1.834889 0.925848 0.24874851 0.48616177 -0.371619 -0.51353985 -0.36440176 -0.7013737 0.26486823 -0.060168903 0.51134396 0.56298923 0.97852427 0.67669344 -0.12960514 -1.2156564 0.29904833 0.17564188 -1.1025332 0.023258746 0.41213995 0.13380748 -0.5787367 -0.0093742255 0.14738886 -0.31061146 1.0051671 0.08928943 -0.75490934 -0.051681098 0.2639269 0.2526802 1.285369 -0.49953815 0.849375 -0.68366206 -0.15824027 0.27111793 0.84848493 0.15338147 -0.5286849 -0.68855757 -0.20958963 -0.6715883 -0.19700597 -0.18163878 -0.21717033 0.2922858 -0.26905584 -0.3129871 -0.06321524 -0.05337942 0.3296765 -0.040349707 0.23111165 -0.58828694 0.55801487 -0.98745716 0.7237501 -0.9036352 -0.09546766 -0.37388358 -0.023872115 -0.59797275 1.2647072 -0.00773183 -0.7114362 -1.1954876 1.046816 -0.3382287 0.063900486 -0.39663786 -0.5751915 -0.6273562 0.64491355 -0.3411484 -0.5489559 -0.20633672 -0.04148546 -0.14379446 0.0018437608 0.5972667 0.00822733 0.49666855 -0.34368992 -0.07104989 -0.2724853 0.026922042 -0.010134436 0.51000625 -0.022110932 0.35164678 0.19739436 -0.5824471 -0.7463501 -0.7937896 -0.7147407 0.7578575 -0.377829 0.18879022 0.5840898 -0.08414356 0.8415169 0.5866999 0.27295732 0.36994177 -0.11663584 0.4297839 -0.15467843 -0.82702065 0.59777063 -0.27383205 0.18129161 -0.33672222 -0.4339825 -0.26994628 -0.117549695 0.45283976 0.7457485 0.23262838 -0.022910647 0.2277786 0.09067812 0.03330866 0.7366924
TCTTT -0.07940796 0.8462477 0.5071493 -0.6392143 0.088171504 -0.10108721 0.18438739 0.21094081 -1.0233651 -0.6637167 -0.6642297 -0.074448 -0.4723738 -0.5833895 0.3038131 0.41812664 0.29777563 -0.23600212 -1.177434 -0.516882 0.019860908 -0.47468683 0.29124895 0.8307652 0.35166392 0.50234485 -0.8494642 -0.79780656 -0.03920669 0.52409875 -0.45372733 -0.8200947 0.21653663 0.39104012 0.5976319 0.2742522 0.3263355 0.2592221 -0.28571182 0.09334692 0.15062995 0.7336945 0.36811176 0.394551 0.20988823 -0.020349745 0.35008758 -0.6467721 0.7687386 -0.6549673 0.36334732 0.021299513 0.006564241 -0.59654814 -0.53962433 -0.7147604 -1.0163386 -0.6187388 -0.22253723 0.046713423 0.09746216 -0.42964733 -0.6824377 -0.010016962 -0.63344234 -0.45299208 -0.22061206 0.09370471 -0.27925825 0.10490108 -0.36551428 -0.43594706 -0.68990606 0.5819069 -0.06901182 -0.10840673 0.26920715 0.8595085 -0.11161235 0.23217617 -0.104712754 0.8535099 0.051740922 0.6284642 0.42396832 0.20567359 0.3986291 -0.47273222 0.093138225 -0.5005471 -0.08106454 0.25239152 -0.22733854 -0.13633145 0.29559627 0.046443492 0.07392117 -1.1236631 -1.1802478 -0.097684175 0.2943266 0.3548544 0.15472028 0.5048823 -1.0602739 -0.37949583 -0.028791577 -0.21530785 -0.32761484 -0.2332396 0.86691517 0.8317859 0.029389575 0.04620226 -0.13816775 -0.20194738 0.24468774 0.37749293 -0.78753155 -0.354455 -0.1777025 -0.16578586 -0.74711156 0.14679463 0.20564453 -0.22668284 0.7917307 -0.4713265
AAAGA 0.0071439105 -0.5436457 -0.28536406 0.023805086 0.2274358 0.061238278 -0.28766668 0.019815223 -0.006943856 -0.028544832 0.44738668 0.45115986 -0.42717785 0.13805375 0.30051735 -0.19532418 0.71546954 -0.25465828 0.11285506 -1.2601438 -0.49336347 -0.24632615 0.044285223 1.2030141 0.09305946 0.30829948 0.43706882 0.36767176 -0.21202976 1.044745 0.084661014 -0.40403768 -0.1983032 0.60364914 0.30452335 0.44268107 -0.26553556 -0.57939196 0.29871994 -0.9021535 0.23582228 0.97629267 0.13312249 0.068998106 0.51064605 0.5352636 0.13569984 0.3232345 0.3293445 -0.61950713 0.01495915 -1.2118642 0.4072683 -0.9905134 0.025332259 -0.508332 -0.20208114 0.9084976 -0.059208013 -0.48846623 0.6771091 -0.42136702 0.5330204 0.286892 -0.77048635 0.15375842 -0.30313328 0.7236018 -0.2587657 -0.20858473 0.47972226 0.12492295 0.094275184 -0.27764717 -0.2981456 -0.031440698 0.7796345 -0.5831756 0.008719633 1.0591781 -0.28738648 -0.4127361 0.08379741 0.028219486 -0.008727059 -0.06509477 -0.6468757 0.5267361 -0.13760756 0.6049414 0.53832644 -0.54383564 0.1660388 -0.29083526 0.3049868 -1.2135593 1.2676631 -0.24873 -0.3740799 -0.35488197 -0.33630008 -0.1060078 -1.0583009 0.25680053 0.43907318 -0.41129053 -0.31766966 -0.033017725 0.7077405 0.87729114 0.5027437 -1.1601676 -0.32080144 -0.14720722 -0.062224843 0.31820104 -0.16883041 0.22692099 -0.5061402 -0.40316367 0.18125336 0.34954068 -0.17716639 -0.6301602 0.098707065 -0.234328 -0.5503768 0.0671161
TCTGG -0.3372571 0.28668177 1.2642481 -0.6681694 -0.23552433 -1.1538389 -0.74500877 -0.69332594 -1.3254339 0.6492424 -1.9812205 0.23610345 0.66273516 -0.4618278 0.010917024 0.35169464 0.5178942 0.18699895 -0.6514255 -0.35309246 -0.33417058 -0.5918847 1.0040838 -0.43289426 -0.17054449 0.33631077 0.26678073 0.24997833 -0.028391931 0.3509393 -0.03476742 0.09153073 -0.36975718 0.383815 0.036515307 1.2320817 1.4098816 -0.55424625 0.31952173 0.23715216 0.46116614 -0.069640815 -0.1440919 0.2377659 -0.86037254 0.05166323 -0.004270614 0.19158714 0.6513196 -0.49735343 0.47929916 0.42581925 0.3066205 -0.3140124 -0.3877065 -0.39703792 1.2350432 0.38389525 -0.55748314 0.00015170308 0.79027575 0.32299864 -0.7293231 -0.45410243 -0.4168722 -0.4501505 -0.4450558 0.44612095 -0.014550205 -0.8536145 0.17351994 -0.17446144 -0.3741554 -0.3628048 0.2507925 -0.46725848 0.5505216 0.876528 -0.39034846 0.14179951 -0.35909298 0.34145057 -0.59272057 0.42023548 0.39891568 -0.7178092 0.3586816 -0.510429 -0.104500785 -0.068804264 -0.12355375 -0.4359368 -0.56238496 -0.086618334 0.43416932 0.21249034 -0.5042286 -0.39099076 -0.64504546 -0.54814094 0.4525139 0.5577879 -0.14838025 -0.08239343 0.7219627 -0.016644623 -0.3495418 -0.72037154 0.32793745 0.73099786 0.59814215 0.59009176 0.2767634 -0.34590226 0.50479627 0.32838467 0.075702876 -0.1521802 0.48251885 -0.41210908 -0.28207076 -0.7688867 0.38344237 0.3337308 0.039103862 -0.47570503 0.040825833 0.36251512
