1024 128
CAGTG 0.16362104 -0.20156312 0.15846623 0.3402897 0.27018777 -0.13032885 0.050339915 -0.19052123 -0.26865768 -0.0027722325 0.18013564 0.0056785666 -0.2611403 0.0091041755 0.14070496 0.23183364 -0.23289724 -0.23758444 0.2706016 0.10326393 -0.1637142 0.67829686 -0.12899582 -0.18664919 0.10636956 0.15034916 -0.11468822 0.1530249 -0.40713257 -0.14476562 -0.29467264 0.26144257 0.37477738 -0.22966006 0.19184342 0.14697853 0.34548044 -0.13373972 0.05108087 0.070051365 -0.15853149 0.27688032 -0.5752613 -0.19870119 0.059909835 -0.08008141 -0.62332445 -0.061830275 0.04653423 -0.025720926 0.2312078 0.2322777 -0.111926734 0.38292968 0.09923876 0.2529257 0.13929339 -0.16064411 -0.60903513 0.24253775 -0.15178227 -0.064107 0.4008166 -0.27018157 0.19169712 -0.2993597 0.24672543 0.08850302 -0.17042367 -0.06578598 -0.28058666 -0.28958488 -0.315633 0.0854133 -0.17728733 0.30199462 -0.209142 -0.44487685 -0.11575294 0.006121107 -0.37234882 -0.15810955 0.010835498 0.52997726 0.29345673 0.27058628 0.19191575 -0.15523554 0.09115531 0.43994015 0.10236327 -0.21894512 0.20410866 0.13178276 0.24677813 0.35586387 -0.6955576 -0.7683777 0.042618994 -0.24959767 -0.4171384 -0.120358445 0.011569754 0.19425035 0.48273847 -0.35752937 0.3986673 0.12469098 0.49866864 -0.70376945 0.01467892 -0.3152932 0.4285691 0.16501425 -0.29511228 0.54789424 -0.17090073 0.22137913 -0.19005303 0.054515984 -0.1958638 -0.30149418 -0.13814211 -0.23383415 -0.5077655 0.03552931 0.0422627 0.5594242
GCACT -0.03956444 0.046475753 -0.06466738 0.07897559 0.12663132 -0.3035771 0.06531172 -0.38905635 0.45534414 0.2253104 0.120094866 -0.20421547 0.07412115 -0.33260268 -0.2943531 0.40227282 -0.17855208 -0.21694548 0.1629555 -0.07077898 0.0893996 0.08952181 -0.5955334 -0.65171754 -0.11354656 0.2718226 -0.5226339 0.26143828 0.064897306 0.3206465 0.018855246 0.058519866 -0.21676145 -0.35077977 0.046808608 0.4451332 0.0043265685 0.55545026 0.6727665 -0.08776242 0.05549611 0.1491814 0.09804243 -0.21949805 -0.139849 -0.2437436 -0.0009088448 0.026851647 -0.35629332 -0.35999674 0.8764795 -0.13968864 0.113951 -0.21709818 0.13463916 -0.32239208 0.515212 -0.05488082 -0.21197899 -0.12642395 -0.33347934 -0.004123321 0.32579336 3.059803e-05 0.5414342 -0.7798662 -0.19809414 -0.078347124 0.008884085 -0.35846835 -0.34108296 0.1417791 -0.7234899 0.017532356 -0.21199729 -0.28309357 0.09550068 0.0558061 -0.32437408 0.26964083 -0.37282717 0.08599786 0.020670107 0.15006152 0.040856656 0.12739961 -0.00997141 -0.35775316 0.41231877 0.43062794 -0.08823819 -0.579878 -0.17310862 0.12511085 0.16758408 -0.2071386 -0.17085548 -0.2987759 -0.11696996 -0.19731379 -0.36259228 -0.12450239 -0.065008834 -0.055474747 0.20342806 -0.18467195 -0.18011911 -0.46279535 0.08273711 -0.51101446 0.29761022 -0.02359941 0.32431284 -0.07151297 -0.075314134 0.077712566 0.3438278 0.25394472 0.110896446 -0.12351977 0.053417787 -0.5381527 -0.92040104 0.13044459 -0.40684485 -0.42216232 -0.2724192 -0.29156882
AGTGC 0.14625482 -0.3690409 -0.086415395 0.37641612 0.33401972 -0.12741417 -0.031122383 -0.19650327 0.144034 0.36356226 0.3349379 -0.10921812 -0.19631602 0.20963395 0.22523682 0.29265204 -0.13067405 -0.33951816 0.08463252 0.35672307 -0.0258363 0.5811283 -0.3351921 -0.41395575 -0.3001478 -0.2142267 -0.2439567 -0.008750704 -0.20768882 0.16392323 -0.23509905 0.088059425 0.052466128 -0.43069366 -0.1278 0.25224823 0.5865378 -0.23788568 0.21258649 0.093178116 -0.30802473 0.23713237 -0.008610222 -0.035899438 0.18813835 -0.18206866 -0.29471862 0.1490842 0.14852604 0.10667728 0.35484108 -0.08799853 0.06670535 0.37197822 0.5141578 -0.012114522 0.20983566 -0.3008924 -0.09967948 0.4184381 -0.05947013 0.2797159 0.07122493 -0.20598987 0.17640905 -0.61881113 0.097772576 0.42442313 -0.41924652 0.16220464 0.034339055 -0.15566982 -0.18688889 0.2657868 0.0944113 0.083935186 -0.37782443 -0.4208498 0.11546221 0.06853027 -0.028412018 -0.07124064 -0.4177475 0.72919124 0.04742628 0.52306724 0.19043402 -0.114231795 0.5659761 0.2332339 0.46461484 0.1409556 0.23271957 0.15181305 0.31840873 0.6440247 -0.7843961 -0.75729275 -0.27508473 -0.30357563 -0.29315618 0.10421733 0.020976093 -0.07065079 0.1470922 -0.30824858 0.16782355 -0.1628731 0.3778626 -0.6205797 -0.01315817 -0.11548967 0.13344716 -0.12707962 -0.118360385 0.27083832 -0.37767914 0.5194212 -0.44723856 -0.32667324 -0.20603977 -0.28185347 -0.2742933 -0.053017713 -0.42110017 0.19007851 0.15674634 0.66647595
CACTG -0.03697269 0.04221675 0.19187123 0.379668 0.07714028 -0.13659988 -0.050049316 -0.6231508 0.21751934 0.11275781 -0.05336866 -0.51850367 -0.11969061 -0.59758514 -0.027814189 0.041747652 -0.14202727 -0.2553326 -0.16752121 0.027694428 -0.08383424 0.25991285 -0.64892656 -0.22726262 -0.32279712 0.5076968 -0.8648413 0.062483117 -0.18956776 0.051772524 0.025502576 -0.014047941 -0.38495323 -0.2043635 0.023161208 0.26683828 -0.00069038215 -0.090526074 0.50467634 0.03714133 -0.026657918 0.033049464 -0.17581798 -0.20560652 -0.14284836 -0.24402976 0.08774345 -0.3948094 0.0064054085 -0.39445925 0.57211584 0.1445843 0.0882465 -0.2744315 -0.14441432 0.0867284 0.29394424 -0.07519843 -0.41364026 0.14061557 -0.15503058 -0.23205563 0.2411849 0.13637376 0.352146 -0.67052895 0.2666111 -0.062550865 0.19295652 -0.5783029 -0.4692671 -0.25500014 -0.7024965 -0.018638954 -0.14173272 -0.26694456 -0.28954688 -0.25293118 0.03573706 0.31112322 -0.024180582 0.036878232 0.25875574 0.28708 -0.1708759 0.31068322 0.09588052 -0.16913979 0.3147414 0.25732902 -0.093023285 -0.09703061 -0.3582211 0.34730127 0.37980422 -0.35103548 -0.071211405 -0.20431496 -0.18973142 -0.48027638 -0.38035396 -0.12746347 -0.10437368 0.061547756 -0.0025155183 0.12299812 0.08884506 -0.36879402 0.4398982 -0.51165086 0.5837875 -0.2265346 0.2397076 0.18645483 -0.1923004 0.11173481 0.14113422 0.21495849 0.26221076 -0.026845476 -0.038562916 -0.35644817 -0.44787425 0.1001966 -0.51765394 -0.42650926 -0.061390534 -0.35530657
CAGCA -0.30929443 -0.68717825 -0.012982371 0.1659695 0.2972943 -0.368125 0.18163496 -0.5878387 0.30262214 -0.098632224 0.43144122 0.16729082 -0.16490671 -0.05762799 0.041535158 0.28106156 -0.0031683354 -0.4925773 0.18836206 0.1285643 -0.23353831 0.3417178 -0.30175033 -0.64611304 0.063305795 0.27069303 -0.036179207 0.05587341 -0.05449382 -0.0351959 -0.2282122 -0.009695105 0.010250193 -0.060650542 0.27623895 0.46214393 0.27278757 0.18663114 0.3309062 -0.40171045 0.034505073 0.39780095 -0.35980794 0.32121196 0.46618286 -0.42451435 -0.42944962 -0.1769709 0.3477638 -0.111930355 1.0091002 -0.25150424 0.028710326 0.23028086 -0.107559904 0.01476244 0.33084208 -0.19944166 -0.082158186 0.4771783 -0.2869378 0.4231436 0.5933867 -0.34632587 -0.12883797 -0.44255945 -0.26091984 -0.29066464 0.16690847 -0.17611429 -0.10830508 -0.34015375 -0.40572813 0.040192205 0.13764003 0.25902995 0.010981865 -0.013772704 -0.62542605 -0.044446528 -0.72441053 -0.6428738 0.35736248 0.2644373 -0.14523639 -0.1941163 -0.04430468 -0.14210486 0.36552325 0.37778816 0.3760546 -0.4991679 -0.25825366 -0.2052298 0.064083874 0.2736475 -0.38264468 -0.28583476 -0.27423817 -0.2023363 -0.27770594 0.28425485 -0.23715617 0.30122143 0.4236426 -0.108667895 -0.19474626 0.09318285 0.543989 -0.5203363 0.25675493 -0.08048988 0.30860534 -0.19496603 -0.1292206 0.38039678 -0.40361404 0.27087146 0.01686029 0.20159994 -0.087200396 -0.103600994 -0.66849333 0.3536997 -0.54428995 -0.2707497 -0.39921004 -0.2857452
TGCAG 0.29228702 -0.4562458 0.22585973 0.20410694 0.26901937 0.093898036 -0.28121224 -0.39408013 -0.057735216 -0.078318775 0.22743803 -0.23448104 -0.31520364 -0.09408681 -0.13126515 0.25657138 -0.16643159 -0.112039305 0.27095655 0.078731656 -0.12533301 0.2125059 -0.17748931 -0.50319743 0.05480578 -0.044479366 -0.23711349 -0.20936589 -0.388976 0.2998218 -0.35213912 0.44889194 -0.00052129355 -0.25618592 0.023637187 0.20320398 0.35410953 0.25566176 0.14571407 -0.095929444 0.11518682 0.108144246 -0.20819485 -0.020568432 0.1714357 -0.0822646 -0.12382662 -0.07250112 -0.40842828 -0.27005246 0.6084117 -0.1371811 0.17805967 -0.14679037 0.23101369 0.095498785 0.35028538 -0.19061023 -0.17726967 0.14991762 0.022064086 0.027901301 0.31623685 -0.13480751 0.36215475 -0.86845297 0.19670977 0.2660088 -0.28811064 -0.14196356 -0.036308985 -0.06341671 -0.6571102 0.20527093 -0.32608986 0.01053821 -0.20422806 -0.06699323 -0.3662972 -0.10181904 -0.26028788 -0.15610722 -0.20151627 0.5287202 0.2271421 0.26396462 0.1315042 0.13046692 0.3487083 0.28699392 0.2334039 -0.058287717 0.2750209 0.064184085 0.26453263 0.4456634 -0.5244299 -0.79436713 -0.45069212 -0.121581316 -0.106049515 0.13349234 -0.27574906 0.16582005 0.58500755 -0.37283823 -0.06552557 -0.051745072 0.24245468 -0.6042622 -0.13515027 -0.049170297 0.3439507 -0.17862502 -0.0806564 0.16371131 -0.21607165 0.33981505 0.02293886 -0.043368824 0.16380814 -0.5278371 -0.4107276 0.224022 -0.11496752 0.14861487 -0.12580661 0.23734562
TGCTG 0.5271776 -0.27412665 -0.27665403 0.5096102 0.3305415 0.016459502 -0.21573967 0.0040111775 0.31606346 0.13310724 -0.019226734 -0.7269024 -0.32187244 -0.30422965 0.15609676 0.15122171 -0.4765784 0.1265549 0.1387768 0.7335183 0.17709267 0.13322546 -0.56864566 0.024060382 -0.3476244 0.11843408 -0.7347564 -0.39279297 -0.20189142 -0.12107805 0.06564784 0.04078183 -0.1251453 -0.37377736 -0.25081867 0.35679653 0.05645498 -0.0507482 0.70592827 -0.19756654 -0.26206774 0.17738545 -0.24888009 -0.24078414 0.34196895 0.049591627 0.10961041 0.18046477 -0.19802016 0.024757478 0.13698477 0.08109381 0.6210414 -0.09971534 0.23271614 0.011816238 0.08286706 0.004468591 -0.19425626 0.12206411 0.13522847 -0.09428838 -0.012447319 0.13125452 0.75959796 -0.6494047 -0.022744345 0.45780593 -0.4565948 -0.373812 -0.3819552 -0.2495539 -0.34146565 0.028885972 -0.07785433 -0.34487793 -0.26219672 -0.31636268 0.42532393 0.47350028 0.06825337 0.19833599 -0.27357107 0.43864086 0.13938645 0.42836177 0.087764956 -0.06401716 0.47463927 -0.22530489 0.055774186 -0.17122066 0.21565293 -0.0022755726 0.38361079 0.16553453 -0.41946492 -0.69363517 -0.5443713 -0.27807415 -0.5385753 -0.2643892 -0.100756496 -0.07523093 -0.076314814 0.13105486 -0.32618588 0.118306294 0.3556842 -0.7186723 -0.22157319 -0.37268135 0.07179694 -0.16550466 -0.033118017 0.20425773 -0.21426834 0.3737889 -0.25989848 -0.18457963 -0.3511423 -0.44305915 -0.37055686 -0.10164584 -0.3458809 0.22972122 0.18683204 0.89078194
CACAG -0.18892708 -0.23747124 0.20366971 0.16067733 0.32704675 -0.3947401 -0.08565223 -0.6431035 0.12975752 0.13504674 0.1316665 0.13664322 -0.005887105 -0.10723146 0.14525029 0.29263085 0.007852074 -0.2638386 -0.066597305 0.14450307 -0.39622357 0.49469164 -0.15599597 -0.4548553 -0.0020777385 0.5198952 -0.2285404 0.27110583 -0.16312285 -0.008203419 -0.75679934 0.140543 0.25543752 0.020126248 0.29251236 0.41959682 0.44857815 -0.102549754 0.15929231 0.114834934 -0.026407495 0.1727155 -0.14403147 -0.1243557 0.2164668 -0.22234213 -0.23338889 -0.3390434 0.2708053 -0.0897321 0.32434392 0.26740783 -0.17203456 0.32980722 -0.006859698 0.14749153 0.34590068 -0.08719154 -0.30596992 0.20561594 -0.39595488 0.097815074 0.59946465 -0.24242435 -0.1249938 0.040093858 0.5402482 -0.075861126 0.02531474 -0.3652974 -0.124718316 -0.6274777 -0.47038332 0.08956807 0.3279388 0.11245547 -0.40038994 -0.3718383 -0.44751096 -0.27889767 -0.5020034 -0.4159959 0.38964915 0.022991192 -0.15504639 0.0024701275 0.13470751 -0.2635486 0.41702378 0.71924365 0.11344065 -0.030060478 0.12168357 0.23031278 0.1263684 0.30373666 -0.15460107 -0.28835168 0.18719022 -0.38414657 -0.48702556 0.123703666 -0.15373655 0.27587727 0.44658363 -0.11184906 0.1750927 -0.2129984 0.47693422 -0.53154314 0.19510947 -0.16350105 0.1864097 0.1192852 -0.2035874 0.31045908 -0.16068232 -0.07970081 0.3505283 0.19224632 -0.16480939 -0.121630795 -0.3435058 0.114320464 -0.6603523 -0.16985042 -0.28046826 -0.17601734
CTGGG 0.42109716 -0.09998506 -0.4675837 -0.066266336 0.4122748 0.020625036 -0.41136497 0.18660341 0.20014986 0.25669336 -0.12770268 -0.830786 0.28069177 -0.1486046 0.030220049 0.11106382 -0.663901 -0.05497244 -0.28447917 0.5354448 0.20691858 -0.12290542 -0.44839722 -0.24804173 -0.4443403 0.17829111 -0.5696356 -0.043232445 -0.13501044 -0.23383798 -0.069664806 -0.3330004 0.19605356 0.18807645 -0.28593338 0.24410781 -0.23419331 -0.13009281 0.54736054 0.19250496 -0.4113812 -0.21978413 -0.28786352 -0.35724807 -0.4087824 0.015675021 -0.013269479 0.3762897 -0.4252271 -0.043226838 0.40985906 -0.041840117 0.14803733 -0.1923259 -0.5008892 0.050684985 0.0008834244 0.06277852 -0.1353183 -0.03758033 -0.43465924 -0.1856658 -0.13147804 0.32055405 0.61391234 -0.16353083 0.34259993 0.057842363 -0.39455357 -0.26068544 -0.5591271 0.10594206 -0.30349994 -0.16794778 -0.054710917 -0.31852624 -0.066852964 -0.02582127 -0.13447332 0.44962627 -0.5285052 -0.07594146 0.040102094 0.28477064 -0.086260155 0.30038264 0.161064 -0.20579508 0.25079292 -0.052545577 -0.69440156 -0.2986261 -0.044821985 0.19168177 0.3128223 -0.22897603 0.05840997 -0.29174984 -0.23968732 -0.056073293 -0.20838921 -0.3998664 -0.43000734 -0.084330596 -0.07385245 0.18706623 0.08931598 0.16997889 0.2997859 -0.49778542 -0.084784366 -0.10617404 -0.20259383 0.13715953 -0.3078587 0.11565824 -0.012110217 0.07497857 -0.055852998 0.042759087 0.052724518 -0.44722876 -0.7652767 0.07423523 -0.15219563 0.3041377 -0.055877313 0.36044323
CAGGG 0.091358684 -0.14788745 -0.06955021 -0.009988299 0.593451 -0.3193131 -0.22551239 -0.108400226 -0.29450047 -0.014954652 0.2729299 -0.011671714 0.22522245 0.48154706 0.15721649 0.34669212 -0.24363533 0.09449558 -0.099460214 0.32880488 0.13876924 0.2512665 -0.07856729 -0.24172941 0.009265909 0.17079696 -0.12927514 0.08101237 -0.410078 -0.069652535 -0.70529175 -0.041364666 0.49433082 0.3804139 0.0093945265 0.3595482 0.24209282 -0.013438424 0.1273921 0.08090064 -0.16624334 0.13469128 -0.25180852 -0.24885312 -0.42180175 -0.09590382 -0.23809756 0.17287055 -0.21632287 -0.18468264 0.81362414 -0.25388095 -0.24588363 0.18288046 -0.5794323 0.23268072 0.22411478 -0.17018601 -0.25177693 0.08722181 -0.60688925 0.104737796 0.2699376 -0.3955583 0.19809057 0.047305964 0.31418008 -0.12801172 -0.123139955 0.014413207 -0.09973671 -0.15417926 -0.49789023 0.09032914 0.08002349 0.15087616 0.059432764 0.06420943 -0.8247149 -0.10197681 -0.79565495 -0.5760157 0.095287584 0.066184774 -0.20877674 -0.10278773 0.12198154 -0.15587488 0.048331626 0.51994413 -0.32643622 -0.041274805 0.15314326 -0.14067703 0.4192702 0.24410251 -0.19341843 -0.5523553 0.06796135 0.14423977 -0.17657019 -0.09150586 -0.44532326 0.06222685 0.26607496 -0.13456695 0.2096447 0.2177055 0.14101766 -0.558953 -0.008514051 -0.122095585 -0.14810514 0.12700202 -0.13848998 0.15388243 -0.40951905 0.080471344 0.30685273 0.25009486 0.01153508 -0.20971303 -0.64054435 0.2789244 -0.121728465 0.10049269 -0.33054587 0.43220714
CTGTG 0.3208093 -0.02009049 -0.2213592 0.40371722 0.13865198 -0.0052906764 -0.16170658 -0.19071575 0.013100222 -0.044204548 -0.019003138 -0.3960435 0.025582049 -0.1754267 0.09577309 0.18418626 -0.39927027 -0.10354534 0.15954088 0.35306758 0.05697858 0.50769 -0.590542 -0.06652397 -0.35991293 0.19053257 -0.71300864 0.024628099 -0.252287 -0.15352003 0.18884802 0.011362326 -0.016484708 -0.38672048 0.09546223 0.10732822 -0.12674835 -0.18222082 0.29257092 0.22220947 -0.05914635 0.015716227 -0.4097478 -0.37684697 0.04943324 0.14628078 -0.21829537 -0.27721682 -0.39559594 -0.09494787 0.44837552 0.13918546 0.41318083 -0.023710769 -0.00417988 0.040603828 -0.13021415 -0.08167531 -0.41692704 0.075742826 -0.072346926 -0.06930509 0.06658658 0.41275215 0.48959267 -0.35823452 0.09223459 0.14372844 -0.20271459 -0.3456587 -0.4087343 -0.10634001 -0.31422406 -0.19990997 -0.31882185 -0.099557824 -0.07024786 -0.2865571 0.21326894 0.72434807 -0.064355254 0.20602089 0.052042905 0.41453168 0.5271293 0.48493502 0.022124019 -0.085399255 0.081876434 -0.18825442 -0.14471631 -0.3656695 -0.10686836 0.2636418 0.6516024 -0.040912323 -0.18946077 -0.5086268 -0.24001324 -0.21813652 -0.39657086 -0.60504115 0.10036262 -0.15440278 -0.08399167 -0.10020036 0.52605146 0.17229271 0.5089595 -0.61553264 0.336129 -0.07170605 0.3826576 0.29114577 -0.30892366 0.27989715 0.1810952 0.35188594 -0.32876205 0.1862529 -0.077692375 -0.49509725 -0.4223011 -0.11502575 -0.15625812 -0.27934155 0.3025028 0.42236444
CTGCA 0.13093655 -0.4122861 0.24235272 0.16927771 0.1835984 -0.1529844 -0.05502277 -0.11362838 0.35371873 -0.08341682 0.20767339 -0.5856342 -0.16836385 -0.25087008 -0.15018664 0.023249919 -0.030470341 -0.4503847 0.017207548 0.25361988 -0.095003195 0.19739756 -0.46777576 -0.44072956 -0.6455255 -0.15545745 -0.2751465 -0.29991677 -0.15757811 0.26782665 -0.143872 0.27334574 -0.13838322 -0.31402522 -0.31879848 0.4767342 0.16572128 0.16605487 0.30866703 -0.14596604 -0.31043038 0.16412425 -0.0052851215 0.16800123 0.12161687 -0.18854949 -0.17981116 -0.2541409 -0.20150678 -0.18439648 0.633236 -0.16636448 0.23334607 -0.2342528 0.14751315 -0.15425596 0.29253283 -0.061836552 -0.34574527 0.040549878 -0.21911038 -0.03407882 -0.08812244 -0.22925645 0.3908738 -0.84527063 -0.04335451 -0.11680188 -0.24974002 -0.18296383 -0.07934276 -0.013213193 -0.8509852 0.21220861 0.09618779 -0.048458006 -0.17539963 -0.20909183 -0.2103081 0.18683879 -0.27628055 -0.10674186 0.0074812663 0.58667827 0.053279575 0.24274787 0.27649 0.07948332 0.6412307 0.034130678 0.20067176 -0.09926169 -0.18567397 0.3038193 0.18515716 0.3440258 -0.38413644 -0.5179891 -0.42140815 -0.2544221 -0.13538064 0.15100895 -0.23624812 0.2651405 0.21007665 -0.03983058 -0.11856264 -0.27707493 0.081611924 -0.40291783 0.1976512 -0.022440508 0.3080714 -0.21071589 -0.25601786 0.018290803 -0.10842854 0.2821565 -0.13672726 0.14706852 0.22297268 -0.4744245 -0.5141781 0.1382577 -0.32211235 0.10626269 -0.010240746 0.0037087228
CCTGG 0.5959747 -0.02767711 -0.38964003 -0.057816956 0.32405788 0.042572487 -0.16473265 0.3481779 0.39098528 0.35970175 -0.37401858 -0.89504474 0.12966783 -0.46654972 -0.115252525 0.13745376 -0.5671881 -0.3124135 -0.5476707 0.5125385 0.13850865 0.108505964 -0.15488045 -0.4847487 -0.28645006 0.06891727 -0.3549858 -0.24744797 0.18701553 -0.33343667 -0.1292684 -0.126621 0.40830904 0.09394139 -0.346762 0.029491015 0.0033738487 -0.24455783 0.5193236 0.006922017 -0.42849573 -0.3494003 -0.2378505 -0.08309432 -0.34466368 -0.08233617 -0.13271877 0.04176094 -0.20574513 -0.09028883 0.14678012 -0.0124374 0.17633268 0.25275454 -0.1438529 0.035176937 -0.15201724 0.040681023 -0.32173407 -0.15085919 -0.16978414 -0.1088841 0.031849463 0.07922431 0.14664418 -0.250627 0.39393532 0.12247107 -0.45918855 -0.21966599 -0.4721696 0.23716569 -0.45440534 -0.25231236 -0.3130384 -0.11589902 -0.2115061 -0.05463247 -0.059995327 0.6088858 -0.31792414 -0.12670311 0.3405871 0.06912076 0.20225069 0.33519638 0.1626711 0.38805634 0.48297828 0.13463509 -0.46798706 -0.6077468 -0.17509979 0.14133242 0.09656897 -0.05848021 0.24942073 0.17870042 -0.3483264 -0.13936697 0.03759385 -0.17404509 -0.56947446 -0.2788151 -0.011001704 0.18143773 0.22953339 0.34347 0.23069459 -0.24126375 -0.32810438 0.10057193 -0.06560655 -0.12750673 -0.5238633 0.12674147 0.14950766 0.28738287 -0.116192356 -0.12625475 -0.0503184 -0.46747652 -0.7551648 -0.059126474 -0.022550035 0.21247734 -0.10560915 0.1536928
GTGCA 0.025072662 -0.21821575 -0.11635268 0.37079814 0.24488245 -0.035963163 0.19493614 -0.15349166 -0.020178152 -0.027260743 0.14383467 -0.15180403 -0.012372621 0.01438349 0.17166539 0.3080328 -0.13059448 -0.41262886 0.036885016 0.21802497 -0.49749812 0.28575128 -0.50244474 -0.63521767 -0.23024 -0.24297385 -0.15732336 -0.26462477 -0.23258786 0.18476234 -0.27933383 0.28609884 0.0932329 -0.39335665 0.057515893 0.25124758 0.3610941 0.17485185 0.022054782 -0.25940624 0.095206544 0.02371351 -0.12085095 0.17871006 0.08895182 -0.2029131 -0.56029576 -0.32147196 0.113936014 -0.40473396 0.676584 -0.19227603 0.21458954 0.0968114 0.5831621 0.04552518 0.29415905 -0.16948448 -0.31447685 0.22003701 -0.23827487 0.30196518 0.14104457 -0.14360929 0.43323958 -0.43826813 -0.057248954 0.13639459 -0.62440264 0.14922808 -0.04471769 -0.15748224 -0.3395035 0.2804773 -0.04465667 0.064117745 0.032490306 -0.37368807 -0.091618165 0.363614 -0.18451613 -0.052769292 -0.36527896 0.2694256 0.3675685 0.38745952 -0.091971494 0.19781725 0.29680428 0.11096832 0.28138793 -0.08256635 0.36370957 -0.09705986 0.2338654 0.47968158 -0.7940393 -0.6908454 -0.26981956 -0.5809668 -0.2526836 0.14841409 -0.15498929 -0.048191343 0.43551892 -0.28732786 0.08112748 -0.09673903 0.4110194 -0.66757697 0.04826081 0.1596094 0.60951227 0.026568497 -0.08511202 0.48259613 -0.46791297 0.6059443 -0.15965998 -0.18334045 0.25035384 -0.37041605 -0.38760638 0.0150782075 -0.27007172 0.029327879 -0.02603126 0.36019945
CCCAG 0.28848037 -0.282644 0.19178078 0.45214367 0.5837216 -0.14603902 -0.1614782 -0.5067084 0.3999028 0.018801987 0.11683122 -0.11923597 0.17497063 0.10920275 0.10320614 0.3574476 -0.24270771 -0.4941364 -0.15761581 0.22629444 0.012132679 0.5883835 0.048329275 -0.79221016 0.18033066 0.009012467 0.07261454 0.21576081 0.0030899828 -0.1734558 -0.19676834 0.0408902 0.26782987 0.31108364 0.32904324 -0.16498429 0.7544373 -0.34999382 -0.11218402 0.04577474 -0.15294681 0.14005862 -0.023180513 0.12898135 0.16011113 -0.14539269 -0.007178951 0.08299412 0.03179489 -0.026078548 0.67534417 0.06274646 -0.32048145 0.64459133 -0.32874623 -0.04823024 0.23570357 -0.18631184 0.022887712 0.23246202 -0.23627809 0.29351726 0.4533398 -0.3142844 -0.36108726 -0.29048836 0.414479 0.27475575 -0.067091964 -0.13776456 0.08566221 -0.18523718 -0.4828671 -0.06653102 0.14476362 0.41907594 -0.3143206 -0.15568773 -0.75138605 -0.055491086 -0.58162206 -0.6017323 0.6143304 0.38839716 0.08999508 0.15795033 -0.041216128 0.19182572 0.40182933 0.23976135 0.06799493 -0.16615319 0.05962705 0.008852183 0.14268747 0.6103137 0.06429529 -0.056042206 -0.3394479 0.23802264 -0.17673348 0.24880043 -0.4483278 -0.20925727 0.2706582 -0.14360678 0.44988266 0.54349095 0.47360104 -0.011879401 -0.029163646 0.13772687 -0.33512095 -0.008228856 -0.37645927 0.2607097 0.039801933 0.33114174 -0.10575652 -0.022026489 -0.19156119 -0.14692521 -0.44077578 0.11848089 0.22424653 0.061931785 -0.29486716 -0.07984179
TGCAC 0.14458412 0.12213962 -0.043001533 0.4411955 -0.021981835 0.06699263 0.18656927 -0.46448597 0.55221266 0.18204525 -0.12639691 -0.27143258 -0.24824299 -0.42437822 -0.3962169 0.42864755 -0.21734026 -0.10994522 -0.112640314 0.22624731 -0.24940008 0.12852137 -0.38570604 -0.31132248 -0.30293182 0.17498916 -0.46263647 -0.41370678 -0.017146923 0.29738694 -0.45957682 0.3105257 -0.3255695 -0.6766061 0.14844082 0.5097819 0.029008178 0.20216763 0.42118996 -0.0063251574 -0.10078539 0.04629007 -0.08086471 0.013541421 0.31207323 -0.122301504 -0.28124425 -0.05612144 -0.3022588 -0.4513807 0.45628935 0.039793722 0.20803706 -0.088970795 0.26108116 -0.15338135 0.53289956 0.038129926 -0.34029993 -0.011997218 -0.15593827 -0.12224064 0.3384482 -0.020113515 0.4770924 -0.6518311 -0.024376525 -0.053348437 -0.23962499 -0.48284152 -0.15122628 -0.19959858 -1.131347 0.05316491 -0.0836299 -0.21059562 -0.11344472 -0.2000358 -0.16920438 0.14348817 0.2378416 0.109286875 0.1389284 0.1626875 0.0054657087 0.30054626 0.010346028 -0.02858056 0.6834937 0.45064437 0.25038213 -0.16927946 0.070927076 0.15970846 0.20177084 0.095343724 -0.42885977 -0.3098443 -0.40264857 -0.49878046 -0.2483053 0.24592622 -0.01730917 0.20061515 0.28286955 -0.11397121 -0.20415919 -0.53048307 -0.09796028 -0.4622249 0.103502825 0.0014608204 0.5517345 -0.36131945 -0.07293779 0.37132615 0.20906258 0.36019525 0.0782677 -0.16272934 -0.01743139 -0.59222406 -0.58301944 0.29756227 -0.4775982 -0.1713177 -0.4375493 -0.21608804
CTCAG 0.31754085 -0.45972562 0.12185339 0.16371739 0.5454375 -0.4056552 -0.27632663 -0.041982163 0.10391404 -0.15057586 0.12967204 -0.076351434 0.24226464 0.35140258 0.2510603 -0.43192753 -0.2025556 -0.084263965 -0.0048065083 -0.2239047 0.25157073 0.42517695 -0.030371854 -0.3956512 -0.046365205 0.25148106 0.082480565 0.7194783 -0.2236451 0.004634413 -0.3623418 0.24066076 0.53911084 0.11662364 0.079600565 0.661895 0.25047648 0.09475269 0.23914614 0.058116484 -0.56361645 0.33636758 -0.26161015 -0.06758799 -0.068894744 -0.16802727 0.1504187 -0.0850677 -0.078580126 0.027911326 0.27579194 -0.099513195 0.2147247 0.23908243 -0.2661943 -0.042747077 -0.2906633 -0.21161649 -0.4037869 0.46851176 -0.4534145 0.10199594 0.179192 -0.16269857 -0.030839888 -0.22394425 0.061062723 0.029938182 0.2510174 -0.040643234 -0.09602908 -0.2750238 -0.3978818 -0.18435098 0.57049245 0.28569478 -0.08125855 -0.24828632 -0.55878085 -0.09956849 -0.56857127 -0.2334807 0.08662384 0.5696647 0.18772297 -0.24047461 0.22194706 -0.26027626 0.4640009 0.07365627 0.10591298 -0.059971727 -0.15241066 0.44757113 0.17944224 0.23379578 -0.053335033 -0.59499127 0.111144826 0.08473191 -0.5038056 0.0537395 -0.14969857 0.271048 0.35731176 0.0055973805 0.22844435 0.28018326 0.27847767 -0.10716259 0.05617903 -0.47436157 -0.06951053 0.14986624 -0.19467726 -0.1125729 -0.11184228 0.2537269 -0.02012135 0.73915553 -0.35669643 -0.13853095 -0.4010479 0.19605005 -0.3575309 -0.1375849 -0.035095286 -0.0022167796
CTGAG 0.10972636 -0.38871637 0.15397502 0.3140778 0.15921187 -0.29999796 -0.33593372 -0.46817833 0.20934385 0.06527385 0.061398357 -0.52435434 -0.3045051 -0.007234362 0.23507047 -0.034051266 -0.30914366 -0.2642087 0.2781646 -0.14152238 0.10590779 0.106717795 -0.41862664 -0.1751971 -0.40742072 0.055890024 -0.52557784 0.33027437 -0.31538314 -0.27925378 -0.041762654 0.23755439 0.2311521 -0.17774178 -0.5106181 -0.10842254 0.30695498 -0.12392134 0.54543525 0.357661 0.004510475 0.20190892 0.1686766 -0.27143076 0.027978623 0.13045055 0.21469407 0.12677425 -0.28882378 0.111452565 0.28282022 0.104719214 0.42658904 0.03399738 -0.15496002 -0.08450606 -0.5655017 -0.075516425 -0.10628168 0.4798272 0.0923586 -0.062441833 -0.2482261 0.5784207 0.4369123 -0.5948629 0.25316098 0.3281178 -0.15096205 -0.4949084 -0.32042468 0.09966601 0.034777723 -0.009707392 0.31313416 -0.19583365 -0.43987167 -0.22855599 -0.13329452 0.3248467 -0.6406554 0.07893894 -0.09106446 0.6782263 -0.12406515 0.15130685 0.19809434 -0.067542054 0.52179503 -0.2959665 -0.30101275 -0.20380369 -0.08305142 0.33430573 0.19631016 -0.04345652 0.11616303 -0.2994282 -0.40254635 0.46355432 -0.42415684 -0.16701706 -0.12324355 -0.1555343 -0.17421158 0.18049513 0.32939887 0.43379593 0.7592818 -0.22488342 0.09700032 -0.32336932 -0.050869815 0.12391576 -0.07599956 -0.46820268 0.08174672 -0.14472608 -0.24514018 0.24181637 -0.14405692 -0.60384667 -0.437057 -0.23884721 -0.04081737 0.009563065 0.31437826 -0.049552303
GTGCT 0.3898667 -0.31148556 -0.5691776 0.5907629 0.42471728 -0.16266428 0.02307509 0.15846817 0.011150899 0.17527923 0.03902885 -0.3081848 0.14627896 0.05260177 0.55240434 0.02148632 -0.43512183 -0.17451365 -0.18937375 0.3607087 0.12496982 0.51604325 -0.5563004 -0.27674106 -0.03647911 0.16228251 -0.38348174 0.08962634 -0.13434829 -0.13824603 -0.024352385 -0.064866014 0.11504067 -0.26397273 -0.0062284954 0.31344512 0.26545486 -0.01880723 0.38234594 -0.11041636 -0.3925425 0.00089778856 -0.21245416 -0.114538856 0.05732056 -0.08337459 -0.28340095 0.28075913 0.2136175 0.09581293 0.10935254 0.11118663 0.35548025 0.4156011 0.28031433 -0.09775743 -0.05025533 -0.23516972 -0.2008694 0.39298105 0.018705506 0.116711564 0.04534611 0.021255739 0.4475599 -0.17282839 -0.075126566 0.4690059 -0.4869509 -0.14941444 -0.18058123 -0.24575728 -0.08748931 -0.062270734 0.119671464 -0.1184603 -0.2507735 -0.4235648 0.47092065 0.35925296 -0.07596323 0.1141918 -0.35644144 0.6845813 0.1893363 0.5207772 0.0070669344 -0.046485655 0.29779348 -0.19036913 0.16206782 0.056262538 0.37202075 0.026321637 0.3296545 0.5071353 -0.5450212 -0.7313414 -0.24351814 -0.30201864 -0.5228965 -0.21202733 0.13624306 -0.16422662 0.002620919 -0.11339485 0.12814315 0.15002292 0.36736536 -0.7002694 -0.11929882 -0.19268034 0.08298417 0.12224165 -0.3078543 0.4223391 -0.3552931 0.6131381 -0.55969244 -0.11566657 -0.40050498 -0.24339701 -0.06669968 -0.15822373 -0.30533397 0.10035105 0.15896247 0.98104393
GGCAG 0.25168353 -0.6083345 0.100054964 -0.26763225 0.49643284 -0.36232644 -0.17957453 -0.19752438 -0.09600548 -0.030960746 0.38687825 -0.43728048 -0.17352232 -0.03192767 0.110779025 0.43281212 -0.1254433 -0.51077706 0.4878931 0.2666959 -0.0139811495 0.3853968 -0.115097836 -0.6420064 0.15811427 0.076360896 -0.12561946 0.23008381 -0.3740128 -0.055539716 -0.21948482 -0.017892294 0.6588929 0.23352373 -0.044997025 0.1866347 0.39256412 0.2676658 0.4253076 0.15097256 0.08771018 0.2279868 -0.32967633 0.03915194 -0.21339957 -0.28628007 -0.41322756 0.2146023 -0.0010520808 -0.019362886 0.623411 -0.046627 0.05225775 0.12178559 -0.11595731 0.3102376 0.19562969 0.032988243 -0.18508254 0.053152718 -0.40730372 0.03301039 0.47962144 -0.24727231 0.27319345 -0.52504873 0.22687875 -0.015501245 -0.22451784 -0.050781343 -0.34900042 -0.061240423 -0.11671325 0.09403263 -0.03878517 0.320415 -0.16039203 -0.18060488 -0.75555253 -0.07678997 -1.0197874 -0.49407926 -0.119039945 0.4204966 0.021176983 0.15116164 -0.0066190124 -0.15303804 0.101119675 0.57034266 -0.16550377 -0.64088935 0.03866354 0.15526745 -0.056307565 0.37635076 -0.49077386 -0.49124867 -0.019634318 0.014924072 -0.08409179 -0.24667297 -0.39355958 0.24031305 0.6451679 -0.3045885 0.044664975 0.070089914 0.7990243 -0.8114285 -0.20567219 -0.22915602 0.23622936 -0.08089762 -0.2968477 0.22423191 -0.42234433 0.07219796 -0.1265178 0.009198415 -0.04934493 -0.35637122 -0.88644755 0.047758926 -0.54696465 0.2596062 -0.03675327 0.32705307
CTGCC 0.44246352 -0.2329352 0.092100196 0.5537384 0.5642664 0.02343835 -0.18825877 -0.29884946 0.59001493 0.08875307 0.03877013 -0.836869 -0.14122546 -0.34908903 0.019298917 0.009394255 -0.38830867 -0.21872893 -0.23573229 0.5101123 0.27351686 0.5602711 -0.4789765 -0.33638993 -0.46344048 0.17893346 -0.6590051 0.004672905 -0.1766879 0.21579301 -0.020742374 -0.015208455 -0.5044104 -0.14683592 -0.10503731 0.1335068 0.24830832 -0.32778057 0.19638854 -0.117658764 -0.5495209 0.067784704 -0.266508 -0.08866201 0.1660459 -0.16247122 0.38739294 -0.12127218 -0.21224867 0.18305026 0.54812926 0.08090691 0.017942837 0.08168868 -0.28792974 -0.2293454 0.337372 -0.27489 -0.20403339 0.150065 -0.1431179 0.012487096 0.21915075 -0.25892067 0.07523084 -0.8307465 0.061667386 0.20221564 -0.08643914 -0.39891908 -0.21393196 -0.04646528 -0.8140897 -0.037940234 -0.025898498 -0.18915412 -0.53492606 -0.12720877 -0.08477676 0.21167232 -0.0844762 -0.08066954 0.4201549 0.73556155 -0.081434265 0.38019624 0.38549596 -0.021296484 0.70307535 0.07792874 -0.02598116 0.045347884 -0.1956752 0.422047 0.40624315 0.247963 -0.009471187 -0.19860062 -0.65125066 -0.028765935 -0.36723882 -0.15779532 -0.11792932 0.004234542 -0.28994784 0.11971153 0.18484539 -0.07033187 -0.0059439624 -0.28504813 0.30559587 -0.21045542 -0.27474675 -0.0950176 -0.369574 0.096505 0.18899632 0.5481525 -0.16265842 0.021162068 -0.16243611 -0.47090596 -0.4319983 0.1819053 0.055389307 -0.09918859 0.080102645 0.43822894
CCAGG 0.0056063086 -0.033908423 0.144384 0.3718139 0.5420767 -0.13938479 -0.1810065 -0.49013194 -0.07428488 0.059644934 0.10458437 -0.10857173 0.21278633 0.38572228 0.011009149 0.35787284 -0.29996514 -0.106384076 -0.2059037 0.10706638 0.26119778 0.44350675 0.017565096 -0.7380119 0.21255118 0.04923761 -0.21723707 -0.10570256 -0.11592559 -0.13174444 -0.58271015 0.15535687 0.19989446 0.45788434 0.43780193 0.10858646 0.3987322 -0.18055385 -0.27534774 0.11732564 -0.20736973 0.033062484 0.043015663 0.01665947 -0.41133326 -0.11099474 -0.086836696 -0.042526864 -0.14751586 -0.21982357 0.7585812 0.058789793 -0.45656022 0.38773918 -0.48242658 0.18569055 0.110079795 -0.048085984 -0.20669882 0.14647654 -0.22889213 0.19403647 0.43810073 -0.48749128 0.14496008 -0.13252336 0.36439118 0.12333797 -0.18006128 -0.013097223 -0.18391636 -0.17114174 -0.46884567 -0.023291491 0.054603305 0.18586028 -0.042396147 -0.0007685904 -0.8071509 0.14971416 -0.4834953 -0.5628471 0.32267123 0.2749388 0.042328928 -0.09222196 -0.17558824 0.06433212 0.02137625 0.24385466 -0.22454919 -0.24370174 0.14013515 -0.26667094 0.3480694 0.35411596 0.023989141 -0.20109965 -0.277698 0.09198188 -0.17173916 0.07570703 -0.5889211 -0.20288083 0.30270952 -0.17209874 0.48529747 0.27152878 0.23957278 -0.24982147 -0.19490243 0.11382904 -0.17305848 0.0131115755 -0.4024138 0.48458254 -0.13367237 0.46157417 0.20945276 -0.20537955 -0.050668634 0.037519313 -0.5462508 0.20749022 0.30550978 0.26930737 -0.3017497 0.3504018
CCCTG 0.56184155 -0.025122613 -0.034456085 0.15241809 0.37686327 0.1564333 -0.23307702 -0.06743265 0.6976687 -0.0019243762 -0.1549457 -0.7730163 -0.054213572 -0.33785328 -0.07661033 0.28617594 -0.28245234 -0.45487922 -0.25173488 0.38611993 -0.011867686 0.38641092 -0.2141804 -0.24132797 -0.5879405 -0.07902437 -0.37077203 -0.20325716 0.14880428 -0.09083458 0.13683143 -0.2572149 0.08923486 -0.061025597 -0.3397213 -0.20002863 0.13439858 -0.36283445 0.15428898 -0.15991487 0.04432016 -0.22678405 -0.3361967 -0.055552267 0.1324283 -0.06347659 0.11958741 -0.1580251 -0.29150924 -0.008742825 0.12155792 0.0035318234 0.4002781 0.30215985 -0.022019673 0.011575672 -0.116770856 0.014062061 -0.22250699 -0.10777909 -0.15656891 0.12044292 -0.07278548 0.10819161 -0.10608185 -0.4483923 0.36760536 0.23980226 -0.46976382 -0.4975126 -0.20503259 0.06753184 -0.51887435 -0.21011105 -0.17573534 0.16938283 -0.38115028 -0.08570176 -0.1535673 0.4466474 -0.21918859 -0.15305658 0.44194505 0.2963213 0.24137107 0.44267282 0.0609495 0.2607474 0.54616725 -0.15934843 -0.21082664 -0.4185791 -0.29567352 0.5073391 0.17863394 0.16250364 0.30565217 0.23859075 -0.6131392 -0.050674006 -0.05754709 -0.44470057 -0.36889762 -0.40386844 -0.3237005 0.06930492 0.34918746 0.34214535 0.57491755 -0.023446394 0.05835228 0.1114379 -0.1246372 0.017919108 -0.4726483 0.12499519 0.04364697 0.32296816 -0.1395478 -0.16113271 0.024871508 -0.5180663 -0.42594993 -0.08937684 0.08591884 -0.10021516 0.17201392 -0.06455191
AGCAC -0.4608572 -0.19356713 -0.20301026 0.3189338 -0.013278416 -0.26097354 0.08618021 -0.8303052 0.61214656 0.23710348 0.052242164 -0.0404416 0.064458616 -0.24548051 -0.11922926 0.37408885 -0.1494053 -0.46218252 0.27779514 -0.04860614 -0.13998222 0.24073404 -0.37914747 -0.55668575 -0.13859479 0.43091288 -0.33882427 0.19679481 0.028899994 0.026686475 -0.11097097 -0.19401704 0.06685436 -0.19056858 0.19270748 0.34900138 0.013218981 0.19393861 0.6182125 0.020675188 0.07671811 0.21577491 0.07548827 -0.008166653 0.2887807 -0.3093233 -0.13685267 0.051475856 0.14304355 -0.22616716 0.63668793 -0.12047455 0.06956641 -0.015485054 0.0196804 -0.20993927 0.32673195 0.10110276 0.011510455 0.28822514 -0.1792734 0.24553074 0.5521217 -0.0609443 0.29524657 -0.38540277 -0.08379757 -0.20978071 0.24378256 -0.48669365 -0.393189 -0.17155892 -0.3893228 0.121431254 0.12959419 -0.29530987 -0.03193359 -0.041938953 -0.50978637 0.1695485 -0.3207009 -0.22677344 0.38658893 -0.07274306 -0.21231475 -0.17775002 -0.09861808 -0.29439473 0.6095123 0.34674993 0.3891066 -0.73789024 -0.15681003 -0.032045282 0.00048691954 -0.06932077 -0.2408213 -0.031169675 -0.20376776 -0.19639215 -0.4569777 -0.048332356 -0.16839007 0.18235016 0.12610215 -0.11930966 -0.19201666 -0.05963288 0.49344954 -0.2871126 0.23253673 -0.06988951 0.32555556 -0.0068954076 -0.13637257 0.2651261 0.23583531 -0.017925182 0.30643383 -0.024633385 -0.29205772 -0.2685585 -0.8699125 0.29784736 -0.45368636 -0.5121325 -0.39575884 -0.6013191
ACTGA -0.08111324 0.032433674 0.28046247 0.06578825 -0.029348679 -0.016414378 -0.09589224 -0.7916633 0.23338453 0.2816931 -0.10074693 -0.21286216 -0.30706087 -0.2659542 -0.075895384 -0.047565114 -0.18739347 0.0039983694 0.05279227 -0.0067011067 0.008231355 -0.13441727 -0.43607095 -0.27643332 -0.4947917 0.30484837 -0.9261972 -0.15150039 -0.11342896 -0.18690184 0.0006691498 0.4487187 0.02239515 -0.4467116 -0.45984033 0.029632064 0.07308986 -0.23009594 0.53307253 0.09269643 0.15542187 0.22540632 0.09854808 -0.41503432 0.09225275 -0.040402208 0.10918905 -0.35594127 -0.2765057 -0.1285512 0.38640448 -0.008325528 0.38908407 -0.1808642 -0.35391796 -0.02446616 -0.21704662 0.09561335 -0.20095131 0.5380715 -0.078348644 -0.11809317 -0.27972594 0.34406108 0.3802141 -0.6841419 0.16234757 -0.031855904 0.017036617 -0.55767834 -0.49627244 -0.014886282 -0.0816818 0.22555526 0.19476369 -0.04037499 -0.26430377 -0.26202604 -0.16087669 0.3094787 0.023955096 0.3318313 -0.016649432 0.23463728 -0.3578858 0.25857967 0.1685754 -0.20188867 0.42000332 -0.11772852 -0.25277296 -0.17013465 -0.40269303 0.15506011 0.12312844 -0.49853536 0.16058202 -0.1491591 -0.15095031 0.032469723 -0.7059332 0.101217695 0.10166973 -0.056646265 -0.10928452 0.2732619 0.0885603 0.20476477 0.83442414 -0.35534915 0.45090696 -0.49357685 0.16188864 0.091460474 0.15196732 -0.40537754 0.19106592 0.018789101 0.38718116 0.2184714 -0.19617714 -0.45802295 -0.37531045 -0.29132566 -0.4466464 -0.21601333 -0.16892084 -0.4064382
AGAGG 0.06961188 -0.5008079 0.0011528677 -0.032685578 0.35486665 -0.21098725 -0.49107566 -0.46701923 0.07482962 0.035988297 0.21406646 -0.1097485 0.051078275 0.33652654 0.21880642 0.5841486 -0.43425417 -0.20890988 0.22675176 -0.011715219 -0.0859035 0.05520786 -0.06393696 -0.586141 0.024359753 -0.25649863 0.005438553 0.10529634 -0.3690339 -0.015428764 -0.58177775 0.13362588 0.9145236 0.27638733 -0.012949889 0.11624831 0.38178304 -0.056768678 0.27191895 0.2331802 0.27800944 0.08335707 0.14807747 -0.112470455 -0.1623608 -0.28649715 0.14896862 0.16986644 -0.24655727 -0.061893698 0.447965 -0.2510264 0.006983172 0.1609499 0.122435614 0.20622636 -0.24346775 0.05497453 0.010938459 0.59877294 -0.45295677 0.40312326 0.11536796 0.22331128 0.15016499 -0.17925021 0.6627355 0.34325817 -0.41115332 0.1425929 -0.10850333 0.08329887 0.3569206 0.26763237 0.3612152 0.14661072 -0.027410861 -0.13174635 -0.7738421 -0.04490167 -0.8005488 -0.42020187 -0.29557794 0.19836904 -0.072503045 0.13436535 -0.18460436 0.043830894 0.25635397 0.14720264 -0.29714403 -0.16148478 0.11645994 -0.05713898 0.15695816 0.15025553 -0.021629276 -0.24306196 -0.17021039 0.13521853 -0.29354852 0.03695063 -0.50588334 -0.2665207 0.3485134 -0.23565637 0.27536142 0.72619766 0.8248596 -0.43535233 -0.369088 -0.041858517 -0.19637375 0.050096933 -0.0020571994 -0.004295094 -0.46599913 -0.1248441 -0.091455564 0.032810487 -0.04158378 -0.31910962 -0.7114092 0.01227748 0.16095935 0.37756392 0.015691182 0.02769485
TTGCA 0.23446807 0.114471085 -0.0512229 0.16126649 0.33910832 -0.050378017 0.22033049 -0.024214767 0.17283168 0.06755683 0.205591 -0.21943681 -0.38945547 -0.07979066 -0.10047413 0.64301705 -0.050107434 0.03256113 0.03998501 0.27194324 -0.18508379 -0.19402081 -0.47485006 -0.18965802 0.10951914 -0.06376123 -0.29792148 -0.15687248 -0.05425313 0.2940123 -0.2615134 0.22561084 0.004675393 -0.53263164 0.32369813 0.57654375 0.31981865 0.32626897 0.15318833 -0.2241042 0.17340027 0.36257747 0.074242204 -0.013729494 0.056721628 -0.17589515 -0.065279596 0.06038587 -0.23980075 -0.352939 0.7491503 0.13832153 0.2625272 -0.1257194 0.5376152 -0.4659283 0.7466459 -0.029783942 -0.22312583 0.073011465 -0.22439176 0.057438727 0.33653876 -0.1428134 0.33978495 -0.7016308 -0.3450717 0.079575635 -0.2531494 -0.25633603 0.22254926 0.034210898 -0.8457459 -0.008190744 0.047128282 -0.22170638 0.0647678 -0.11210391 -0.37373814 0.23979749 -0.008213303 -0.14920306 -0.0007024936 0.021570839 0.1251292 0.22790742 -0.20639502 0.07275022 0.38579372 0.43965098 0.047432177 -0.11629935 0.4978985 -0.030300612 0.061188463 0.3308129 -0.43739256 -0.4487795 -0.44390395 -0.36832815 -0.07253314 0.16880277 -0.17039542 -0.03592865 0.5569239 -0.21177873 -0.4583102 0.018991813 -0.08621395 -0.5918337 -0.028046397 0.03859252 0.36330897 -0.31862268 0.14344783 0.024005914 0.010194501 0.46252513 0.052219834 -0.17513657 0.028154925 -0.57546955 -0.5197141 0.033653114 -0.1943902 -0.04027881 -0.15557966 0.03239089
ACAGT 0.035256937 -0.12947227 0.17975615 0.13053285 0.30721697 -0.31950435 -0.008228315 -0.4845746 -0.08978712 0.35221282 0.14350203 0.21264248 -0.47479883 -0.07835106 0.3086058 0.20491172 0.01723823 -0.17371565 0.050704658 0.15303046 -0.3369085 0.46537215 -0.22364381 0.04970174 -0.02000204 0.4465361 -0.098911114 0.22017457 -0.32675222 -0.16207458 -0.539916 0.48375973 0.23571692 -0.27805737 -0.048678778 0.20195396 0.39090723 -0.43065438 -0.00416352 0.16488326 -0.24905309 0.27214062 -0.37347853 -0.12668943 0.41774294 -0.17205894 -0.3711538 -0.30546027 0.008567424 0.011214908 0.08066016 0.12223968 -0.07519871 0.40053815 0.062035136 0.3141247 0.04857251 -0.07597129 -0.6303808 0.3166406 -0.37354848 0.2173187 0.28083965 -0.07482481 -0.05607888 0.001683663 0.38108397 -0.063083865 -0.038748395 -0.20551203 0.06761852 -0.71494365 -0.27058083 0.11020585 0.25966382 0.32865867 -0.2360361 -0.64776874 0.14454098 -0.27744207 -0.17699097 -0.09269776 -0.093865626 0.14772417 -0.014090516 0.21667767 0.2143947 -0.42113987 0.25167605 0.5265271 0.05543362 0.40556997 0.22893418 0.19831094 0.35507885 0.36684525 -0.39421818 -0.7421193 0.11718499 -0.42660725 -0.65005916 0.21928984 0.25942263 0.060420964 0.43651462 -0.20063846 0.2377759 -0.065078415 0.6042041 -0.4730069 0.21604314 -0.32109815 0.28931716 0.08065967 -0.13248475 0.434986 -0.19778097 -0.121191606 -0.24915826 0.20555164 -0.25069436 -0.24100846 -0.06328314 -0.25908986 -0.90410876 -0.14800008 -0.19113153 0.37143174
TCACA -0.03014433 -0.19254753 -0.09674568 0.34014723 0.37802422 -0.2940654 0.21079186 -0.38814986 0.25129485 0.1747989 -0.014334458 -0.00014628463 -0.13306889 -0.015751632 0.20655954 -0.08970857 0.06288668 -0.027433243 -0.48627505 0.11991039 -0.27442896 0.31582877 -0.15056546 -0.08425281 -0.21949004 0.7126103 -0.2680438 0.13351443 -0.13003065 -0.054782175 -0.7413366 0.22005372 0.23624092 -0.071838625 0.18541808 0.77282584 0.12992342 -0.2383707 0.07751563 0.01804253 -0.3329124 0.2027549 -0.19612966 -0.16839588 0.22012025 -0.35825974 -0.29726762 -0.36614296 0.38321668 -0.17589718 0.10606728 0.46510524 0.20770404 0.32889044 0.10516233 -0.16828415 0.27464464 -0.16735351 -0.55723196 0.38870308 -0.22286958 -0.109732755 0.19100256 0.032640122 -0.1461391 0.2382833 0.28468168 -0.21953592 -0.06269858 -0.38489628 0.20139593 -0.6881254 -0.53394884 0.009424767 0.8891677 -0.007692859 -0.092363946 -0.5702242 -0.18419315 -0.21276498 -0.15289201 -0.24049623 0.255671 0.028421368 -0.16898492 -0.03663821 0.09728229 -0.15616067 0.4256225 0.5394948 0.11999712 0.3208209 -0.07143003 0.1470572 0.10829396 0.043765273 -0.107544534 -0.3788189 0.02014251 -0.5694035 -0.42674065 0.27785918 0.060973592 0.31112194 0.2819957 0.14356291 -0.2099897 -0.007897905 0.334129 -0.42606923 0.41850305 -0.30010232 0.19950669 0.12834707 -0.12354928 0.2070592 -0.14195648 0.015112406 0.020413313 0.25962377 -0.32053035 -0.16911042 -0.16307265 0.17923059 -0.9221264 -0.1414347 -0.35281757 -0.19730262
TGTGA 0.17085844 -0.08335034 -0.13216229 0.3024405 -0.006801462 0.1015626 0.049836766 -0.4803938 0.03467967 -0.03527387 0.041332353 0.07203692 -0.14096326 -0.008925625 -0.03367196 0.2338201 -0.5611368 0.20152985 0.38949543 0.20554228 -0.11558144 0.16635749 -0.4405048 -0.084422745 -0.17364119 0.08892547 -0.70966846 -0.11450995 -0.12894675 -0.096785374 0.19022985 0.32148328 0.2722327 -0.6083169 0.273475 -0.09365671 -0.09052641 -0.11147897 0.15245993 0.15091208 0.38247603 0.19752333 -0.40974432 -0.40823185 0.22718945 0.22528191 -0.19450365 -0.44825265 -0.30094868 -0.22428492 0.33369985 0.20230469 0.5405751 0.05496311 0.07396785 0.08338721 -0.1631868 -0.007491442 -0.2082044 0.41414195 0.09607396 -0.0056446344 0.09428846 0.51950604 0.3797601 -0.2307915 -0.1370004 0.16284251 -0.047276687 -0.3433407 -0.46951592 -0.21074179 0.039607115 -0.1181932 -0.14206862 -0.025540458 -0.05562794 -0.27451572 0.07205943 0.7102462 0.14278084 0.28283784 0.0445964 0.001882991 0.4960682 0.32648766 -0.309558 -0.11445534 -0.21899773 -0.27849346 0.013182625 -0.45863944 -0.074446626 0.022466907 0.3142467 -0.37156034 -0.0553353 -0.3653146 -0.2195668 -0.24027917 -0.7007466 -0.3689481 0.081320815 -0.27402058 -0.038710408 0.023426693 0.28055587 0.4488143 0.8037739 -0.5040723 0.34267426 -0.17407084 0.63725233 0.26266164 0.096045434 0.09763998 0.19448753 0.3156878 -0.039236713 0.17030065 -0.14188367 -0.41641814 -0.30097452 -0.13423945 -0.2824901 -0.27461806 0.09268122 0.081075236
CCTCT 0.68366545 -0.0049733813 0.076434575 0.30553076 0.44303852 -0.06978345 0.03889487 0.12909362 0.643764 -0.07615383 -0.12014247 -0.32753178 0.18483733 -0.06898326 -0.060133263 -0.14328583 -0.5477308 0.049971472 -0.33269918 0.3365171 0.37463707 0.21212141 -0.2937143 -0.24006304 -0.4082618 0.050087046 -0.15642084 0.15666659 0.17599386 -0.08400834 -0.13719265 0.19718577 0.05423349 -0.23412527 -0.05152918 0.18451455 0.17839187 -0.011838856 0.3834088 0.38315654 -0.7590737 -0.029901313 -0.14137778 -0.12639739 0.0036100652 -0.022666462 0.30453265 -0.0063364604 -0.5580765 0.099879086 0.23687243 0.0153536685 0.23018996 0.23104079 -0.3699025 -0.3518593 -0.18439378 -0.30468127 -0.40419954 0.32829094 -0.43599406 0.015139395 -0.17613304 0.15810747 -0.0010451364 -0.26268727 0.03304433 0.001437907 -0.34800225 -0.21162188 -0.07410258 0.057038438 -0.9753411 -0.4318048 0.3837359 0.07715573 0.08864694 -0.3602234 -0.22454447 0.3366631 -0.12066936 0.051025037 0.44441414 0.5646966 0.02790939 0.1403448 0.12988971 0.23749274 0.45069715 -0.24119471 -0.18723114 -0.08311009 -0.3498107 0.46957135 0.22998571 0.048371505 0.4160635 -0.14464688 -0.50949264 0.22275288 -0.50720686 0.05377271 0.20579216 -0.08019513 -0.052704178 0.24045633 0.45744413 0.39253336 -0.19739953 0.15966849 0.15606675 -0.1091893 -0.037261978 -0.2682548 -0.22821492 -0.048816055 0.42656627 0.41257107 -0.42514578 0.23583543 -0.27507758 -0.554277 -0.39238152 0.035291977 0.07969821 0.0162928 -0.14928189 0.022128662
TGCCT 0.5840593 -0.008346609 -0.18344295 0.2722159 0.4826569 0.15755826 0.03700841 0.18157117 0.41201657 0.22451442 -0.021915875 -0.5959551 -0.31692347 -0.14074688 0.031290766 0.14262694 -0.43154028 0.08346502 -0.21369211 0.5941524 0.20224737 0.3711844 -0.43333483 -0.36896226 -0.22687475 0.06496077 -0.52599245 -0.11892368 -0.09250274 0.20216395 0.1540881 0.069670446 -0.38221318 -0.5749342 -0.05851739 -0.007344135 0.2585529 -0.39241946 0.18667975 -0.14538571 -0.39179915 0.08500047 -0.29812792 -0.04427889 0.14252594 -0.053831335 0.28645155 -0.07053323 -0.3565175 0.12228824 0.5011567 0.17572628 0.22540721 0.2766676 0.10878551 -0.40355 0.36741218 -0.3068876 -0.186599 0.17953238 -0.20339003 -0.050483055 0.20521717 -0.15641381 0.13062845 -0.61710143 -0.26557633 0.2649561 -0.17693788 -0.28665778 -0.09005327 0.046611022 -0.78834885 -0.2534655 -0.20523079 -0.26889455 -0.3524078 -0.27388424 0.027311554 0.38431662 0.20761204 0.026764663 0.21986525 0.5082743 0.22788428 0.40072006 0.27785745 0.23586054 0.51129717 -0.010645236 -0.025176821 -0.051344607 -0.06187896 0.19268805 0.34552383 0.21743588 0.008883654 -0.34422386 -0.6699515 -0.058562018 -0.28852752 -0.18839933 0.0037185058 0.015401399 -0.034484815 -0.016124967 0.14945221 0.014133697 -0.22930507 -0.3298833 0.09086316 -0.1544826 -0.082883425 -0.02216953 -0.23543799 0.057345875 0.26379168 0.5669446 -0.25366688 -0.061354548 -0.23831327 -0.57989955 -0.23341568 0.07517214 0.15601224 -0.20168254 0.13998921 0.5853599
ACTGT 0.019048372 0.1834705 0.005113044 0.12963478 -0.042747505 -0.072595075 -0.1493337 -0.7103702 0.1645921 0.096762836 -0.019418664 -0.061040398 -0.19010404 -0.3953922 -0.09698108 0.2740876 -0.08194171 -0.039392963 0.21672449 -0.052198872 0.031779658 0.16161707 -0.65933114 0.09309481 -0.24003576 0.3636681 -0.6734407 0.046423633 -0.10444984 -0.15162848 0.25327706 0.1566951 -0.18984093 -0.5611802 -0.03705169 0.3009734 -0.26215285 -0.11107746 0.30088183 0.20307872 0.1879203 0.27014676 -0.36377788 -0.44051093 0.10299565 -0.0734867 0.053175766 -0.49980122 -0.3971189 -0.3722864 0.6060698 -0.14142926 0.21561256 -0.17541283 -0.048308335 0.11213261 0.07909702 0.10518664 -0.4904477 0.094187595 -0.2776283 0.08156986 0.17376372 0.3751027 0.424773 -0.49497563 0.16502722 -0.13696304 0.2125194 -0.61800617 -0.32897192 -0.26978323 -0.4142562 -0.11864461 -0.14451912 -0.12613651 0.20972526 -0.25082672 0.033784576 0.42984146 0.01236905 0.041165724 0.0057360684 0.09154888 0.24232328 0.42600146 -0.17549263 -0.39122874 0.0032787034 -0.016229285 -0.28122652 -0.22334279 -0.22250433 0.35806665 0.664272 -0.31839314 0.06716858 -0.39674565 -0.38062495 -0.31121656 -0.59187925 -0.45899737 0.32395354 -0.14344306 0.15518817 -0.24589954 0.24509895 -0.016295293 0.63474977 -0.38710326 0.7293006 -0.14192137 0.48789078 0.23983487 -0.014729788 0.17927064 0.28832063 -0.023903577 -0.02833906 0.28900936 -0.043510325 -0.36567256 -0.5257259 -0.09202599 -0.45397112 -0.6775632 0.041095763 -0.27995393
TCAGT 0.37494564 -0.28650898 0.0036333073 0.30783668 0.608718 -0.16895105 0.0439833 -0.22367027 -0.31227124 -0.02385501 0.28155664 0.10112949 -0.3455084 0.2908707 0.39223474 -0.32510683 0.016893923 -0.090671524 0.05932844 -0.16768432 0.12341419 0.20183614 -0.28830433 0.068743184 0.1890464 0.33079657 0.12635517 0.4513652 -0.085024364 -0.09023585 -0.38830155 0.29462063 0.55357337 -0.023742655 0.3156224 0.5915906 0.3665199 -0.0049231234 -0.22105312 0.077393256 -0.44482234 0.36106953 -0.5699498 -0.103439756 -0.016035922 -0.31380254 -0.2573295 -0.057088483 -0.09500483 -0.047368657 0.22073811 0.30273572 0.23563035 0.35900292 0.18034962 -0.21437214 -0.08300639 -0.35777095 -0.80447745 0.31118262 -0.27876005 0.11921972 0.2837363 -0.026977539 -0.29328126 -0.032542802 0.058220405 -0.025891783 -0.13175865 -0.08612639 0.18555368 -0.30582783 -0.3124627 -0.089943334 0.61639357 0.27192226 0.019550068 -0.5029995 -0.10867498 -0.31801662 -0.41108006 -0.31063673 -0.15437487 0.50914866 0.2456064 -0.07300297 0.093944505 0.021401677 0.32357854 0.20954421 0.0839543 0.35269988 0.068900794 0.38379493 0.19731289 0.17927602 -0.2939051 -0.8542181 0.008458879 -0.13991846 -0.34241992 0.047962412 0.16990465 0.07551594 0.30516136 -0.053595223 0.12883106 0.57938445 0.47340545 -0.29027364 0.15675484 -0.43382853 0.1960014 -0.121837534 -0.23922029 0.2990279 -0.10014279 0.35803953 -0.5555165 0.4290322 -0.30637085 -0.43446085 0.15336737 -0.040509682 -0.66697973 0.012044438 0.2069125 0.11986229
AGGCA -0.1686568 -0.27009004 0.10607255 -0.1654346 0.28202322 -0.42708367 -0.0029398568 -0.42664927 -0.042928144 0.1840778 0.2937778 -0.16026431 -0.33223322 0.18125597 -0.1356319 0.46624303 -0.07219345 -0.53174174 0.24859071 0.055381738 0.09090028 0.33681917 -0.15110353 -0.9119173 -0.07485758 -0.08855066 -0.37134475 -0.09818737 -0.34307498 0.2728408 -0.38515902 0.08043705 0.52411526 0.18695153 0.170285 0.35517606 0.22555414 0.27042624 0.3021411 0.17800376 -0.0046212273 0.25478035 0.13461775 0.18834718 -0.33291885 -0.32823586 -0.28631628 0.16045192 -0.09797147 -0.077945955 0.79728895 -0.010361825 -0.068173334 0.024820974 0.07634192 0.22182508 0.27203116 -0.06502631 -0.1560651 0.085444346 -0.4262067 0.10678285 0.3802133 -0.25232008 0.23697683 -0.36957276 0.07658223 -0.1579254 -0.2849303 0.14080039 -0.24770473 -0.15869588 -0.05138258 0.29374698 0.28443262 0.20414947 -0.16031866 -0.12999041 -0.77683896 -0.12094707 -0.717352 -0.19419114 -0.14996132 0.12232259 -0.26373246 -0.17766304 -0.1549546 -0.29417244 0.2743137 0.4973597 -0.098662935 -0.490872 -0.052729428 -0.037518717 0.020004245 0.107002296 -0.42946652 -0.21827239 -0.009659476 -0.18400665 -0.2002874 -0.05195687 -0.36849564 0.2284628 0.45366478 -0.3775787 -0.0088576125 -0.1920898 0.5009411 -0.5508022 -0.027920593 -0.18669727 0.287461 -0.019200608 -0.12148897 0.3411949 -0.2740655 0.07050611 0.017247407 -0.15492907 0.14845583 -0.21089782 -0.8564469 0.24643055 -0.5702108 0.15955263 -0.2534247 -0.05184721
CTCCA 0.37617627 0.076117665 0.015875885 0.70226806 0.24960707 -0.3042706 0.02014245 -0.47591892 0.19134761 -0.0722914 -0.08645427 0.19274774 0.3712854 0.2953291 0.022757592 -0.1819535 -0.31557176 0.04378891 -0.27958497 -0.006547263 0.3968571 0.52518004 -0.1990063 -0.77573127 0.008994642 0.3044493 -0.24477294 -0.056286216 0.20693626 -0.24182305 -0.21984579 0.37411764 -0.13561785 0.06503917 0.5194889 -0.111321434 0.23488615 -0.18688214 -0.008397677 0.37561333 -0.55307055 0.17713828 0.11333356 0.048983604 -0.05469154 -0.15507868 -0.21738654 -0.06914773 -0.19303364 -0.26540628 0.6774051 0.10356351 -0.08206394 0.35853484 -0.3216777 0.15073831 0.028948648 -0.016918527 -0.41352752 0.33565986 -0.26985547 0.06704636 0.22062899 -0.08722278 -0.006352328 -0.06683136 -0.024147524 0.031359855 -0.110487066 -0.36042547 -0.21987157 -0.3054447 -0.6445533 -0.36486086 0.38005057 0.15535498 -0.00904463 -0.112896256 -0.3524604 0.034651313 0.033610016 -0.07881813 0.39263895 0.5065481 -0.07190557 0.23927157 0.11487238 0.117373765 0.033966374 0.02908778 0.34905764 -0.2972071 -0.1787071 -0.07702714 0.42004287 0.040814508 0.32233566 -0.173871 -0.027635947 -0.08785866 -0.344676 0.3887507 -0.13946897 0.088547826 0.12729134 0.15527043 0.5306808 0.0469159 0.08848349 -0.02703013 0.18415101 -0.011131794 0.17521805 -0.22309004 -0.47747335 0.10359704 0.29846916 0.683099 -0.07286257 0.026957218 -0.265943 0.03632575 -0.25978482 0.1962532 -0.15162612 0.018013615 -0.31371808 -0.07918843
ACTTT 0.07523862 0.29804334 -0.2201284 -0.27267015 0.44152018 -0.2729261 0.2326729 -0.39085647 0.36745873 0.5636557 0.0028313294 0.25744462 -0.056220148 0.08920807 -0.16085437 0.34984556 -0.26035407 0.2958934 0.0040119984 0.2577361 0.09184341 -0.4589973 -0.5027826 -0.3403386 0.24795467 0.61940444 -0.24629961 0.17609908 0.107369974 -0.08809685 0.09864332 0.27477124 0.32242328 -0.45748273 0.09703149 0.3482349 0.11204482 0.311063 0.7111824 -0.09116511 0.09256348 0.44459972 0.26340574 -0.34402525 0.25735223 -0.06740277 0.19718611 0.22961839 -0.38975817 -0.022655249 0.557251 -0.22323835 0.1730071 0.26381856 -0.1660846 -0.58065754 0.5510261 -0.111678064 -0.059125613 0.17042026 -0.47091973 -0.0049460935 0.297782 0.19901851 0.29163128 -0.38568628 -0.32416666 -0.21168785 0.1911639 -0.30745935 -0.035897024 0.16992566 -0.54748845 -0.21152307 -0.07206615 -0.29055852 0.15320694 -0.040410273 -0.49913773 0.1793822 -0.016762964 0.2551184 0.20624727 -0.21220627 -0.26250952 0.1571637 -0.17025132 -0.41029945 0.46983507 0.26709002 -0.097238146 -0.40498883 0.094501734 -0.010146969 0.085464954 -0.3959696 0.035445396 -0.16048604 0.0017210613 0.065887116 -0.556616 -0.13025835 0.4025246 -0.22352333 0.15329204 -0.06492654 -0.27777 0.22174577 0.14722183 -0.34971723 0.24639925 -0.30132288 0.3273604 -0.12682587 0.050789706 -0.3254182 0.43885633 -0.0700865 0.14588861 0.19377874 -0.442566 -0.43843803 -0.53466606 -0.1286573 -0.23920418 -0.44778836 -0.52214366 -0.31581742
ACAGG -0.30031532 -0.17782827 0.23217975 -0.36334622 0.37594628 -0.5744097 -0.106548294 -0.3538526 -0.2258062 0.30106315 0.19257429 -0.0032990112 -0.04641755 0.18631126 0.12728505 0.57426673 -0.041622024 -0.14134261 -0.28716967 0.19549009 -0.1736251 0.3318046 -0.107275166 -0.31653622 0.0016427307 0.22339444 -0.30294186 0.06610756 -0.41465473 -0.14836551 -0.88292575 0.19671872 0.40694866 0.22767931 -0.118008606 0.39156988 0.28475827 -0.22023074 0.08581428 -0.053858966 0.063407145 0.0010562814 -0.10990955 -0.11065804 -0.21171232 -0.16982745 -0.109049946 -0.35106418 -0.14291587 -0.08210438 0.4349947 -0.031151192 -0.20683241 0.26277047 -0.46108323 0.45702794 0.040856402 -0.011919211 -0.30138373 0.23968534 -0.7918269 0.24300951 0.25885364 -0.23616996 0.01225821 0.21385273 0.6649053 -0.23719588 -0.029102515 -0.033207107 -0.003315614 -0.5968333 -0.28374168 0.20254163 0.23450698 0.17291203 -0.06822981 -0.1148549 -0.5300494 -0.11718105 -0.7073905 -0.37383193 0.047846805 -0.2907291 -0.25280926 -0.064582266 0.005170611 -0.40178737 -0.00071360555 0.4869141 -0.53946644 0.12113917 0.12725145 -0.16848642 0.38352856 0.23802999 0.06966939 -0.34174597 0.033842508 -0.22455859 -0.5615241 0.058906294 -0.355046 -0.021229148 0.48569858 -0.122908965 0.3165943 -0.03136383 0.4446513 -0.51682645 0.056549657 -0.040032327 -0.022598194 0.23100966 -0.16512683 0.2730008 -0.42710537 -0.24488649 0.32719633 0.15457408 0.09793553 -0.0071414807 -0.6944469 0.02524828 -0.3565063 0.047401138 -0.46990424 0.2435216
TGCAA 0.2582288 -0.16838717 0.017303202 0.22577749 0.10058735 0.26066583 0.04760398 -0.29941243 0.36292285 0.3226491 0.09193676 -0.22125699 -0.37043712 -0.050162297 -0.25986114 0.054362137 -0.32222202 -0.3077639 -0.12871473 0.4515826 -0.20403169 0.16579443 -0.21115407 -0.7932479 -0.5177291 -0.21533267 -0.35058445 -0.7329428 -0.0962662 0.28471506 -0.23723817 0.33475238 -0.1340354 -0.45266917 -0.01833042 0.10295814 -0.027198264 -0.13023809 0.058142796 -0.1581366 -0.27477017 -0.024796594 -0.14046751 0.23829149 0.39044935 -0.1387966 -0.3940869 -0.09083662 -0.21817179 -0.042151175 0.6950828 -0.113975585 0.23210375 -0.071086764 0.28203842 0.22622828 0.20906813 -0.25104162 -0.1419033 0.2667217 -0.22770536 0.32758415 -0.22825539 -0.09591045 0.2790466 -0.50179815 -0.3736533 0.052188314 -0.6308757 0.20302187 -0.14501902 -0.10745376 -0.40647906 0.13261053 0.0723014 0.16994365 -0.16771632 -0.20107919 -0.087348215 0.15900171 0.14689878 0.2542622 -0.26385975 0.21612653 -0.034209568 0.25775716 0.09624018 0.14818121 0.50180703 0.05564918 0.22352701 -0.12737435 -0.18484724 -0.14720765 0.14741184 0.13059446 -0.389732 -0.43348265 -0.33743677 -0.5989912 -0.06802011 0.2761192 0.11822944 0.1600428 0.051485762 -0.10181758 -0.22995833 -0.32465297 0.33518234 -0.47844893 0.038467746 -0.14476436 0.53765994 -0.35220227 0.044567093 0.4878659 -0.33771726 0.59447014 -0.48749354 -0.2863854 0.21464613 -0.48906872 -0.41706046 0.28270614 -0.5023328 0.14310819 -0.19568948 0.105241284
CACAC -0.109534904 0.050422944 0.062747516 0.39510182 0.20246838 -0.28934118 0.06465202 -0.73930895 0.63263404 0.25719365 -0.16330963 -0.07039242 -0.039177164 -0.39917973 -0.1193318 0.25450867 -0.20212418 -0.097128674 -0.26279834 0.24836947 -0.33576792 0.48770434 -0.27302247 -0.46906063 -0.3115242 0.69276345 -0.57050395 -0.029644242 -0.043206375 0.022839978 -0.67853564 0.2681645 -0.08642182 -0.21187977 0.16409792 0.45768178 0.013312639 -0.24495623 0.42800468 0.19187738 -0.17760393 0.047442287 0.038781185 -0.1558278 0.344451 -0.20207316 -0.19418722 -0.44285783 0.21687908 -0.20774214 0.3783162 0.27635792 -0.016526902 0.27500552 -0.040697318 -0.06157087 0.44495556 -0.043876097 -0.47779357 0.1303017 -0.2875056 -0.04856641 0.45186287 -0.04633024 0.027122632 -0.13966589 0.40477014 -0.16244055 0.07768562 -0.5932499 -0.09703675 -0.6896084 -0.8608632 -0.051733553 0.4462306 -0.028590234 -0.30673093 -0.38977623 -0.36700585 -0.068956785 -0.05619229 -0.06581476 0.6125114 -0.12459321 -0.20864768 0.13553542 0.12671678 -0.31511799 0.5924989 0.66450304 0.060085025 -0.11755069 -0.29639217 0.23753473 0.17724723 -0.16695647 -0.0041004075 -0.019109825 0.08331213 -0.55390704 -0.5206104 0.26411274 0.06852344 0.22190447 0.18250257 0.032350376 -0.035373047 -0.39328578 0.28419188 -0.3900253 0.56101173 -0.15740067 0.40629742 0.029413566 -0.23436588 0.20214982 0.13665144 -0.01671142 0.32208782 0.2286017 -0.30474845 -0.24488 -0.49671528 0.23397146 -0.8489239 -0.32530254 -0.52676636 -0.4083795
AGCTG 0.122367784 -0.6586906 0.08803204 0.5317145 0.21833022 -0.109608755 -0.2244212 -0.37915525 0.45716852 -0.04509197 0.10385389 -0.6061883 -0.021085422 -0.43833163 0.44110397 0.04596721 -0.42682362 -0.34099072 0.49625978 0.14310199 0.21794175 0.24539341 -0.49590212 -0.060135767 0.053843036 0.14110896 -0.41426566 0.15155108 -0.18286693 -0.33714765 0.22318628 -0.20697427 -0.128769 0.04248325 -0.121294394 0.2978175 0.1190411 0.19259964 0.78061694 -0.15715617 -0.07692962 0.30547556 -0.29279923 -0.02855847 0.36587226 0.036513727 0.17620258 0.15885788 0.09851186 0.14651129 0.16257238 -0.08552315 0.19441344 -0.1142794 -0.24273995 0.096760884 -0.20320246 0.18635683 0.15955544 0.36464933 0.052926067 0.04928016 0.111275844 0.17793168 0.37873977 -0.6025216 -0.07263802 0.15322694 0.13939412 -0.30943134 -0.72998714 -0.2391268 -0.009623004 -0.04736372 0.09495096 -0.25315326 -0.18013006 -0.24036011 0.053470973 0.17664362 -0.570158 -0.15111414 0.0343812 0.62071687 -0.12400718 0.122217864 0.123612195 -0.14429797 0.2763734 -0.011297637 -0.15989149 -0.43273047 -0.080304585 0.01287823 0.08162643 0.09377333 -0.101059794 -0.26624492 -0.49176025 0.055697687 -0.25468794 -0.13670269 -0.1685323 -0.10442045 0.10540022 0.105673514 -0.26820847 0.42435548 0.7563037 -0.3665109 -0.06403151 -0.44507974 -0.18891744 -0.21315101 -0.01724364 0.07248228 -0.26063424 0.11006372 -0.17742793 0.061175514 -0.34050384 -0.16858678 -0.41025877 0.032675125 -0.25367194 0.008172561 0.08097281 0.27770504
CAGAG 0.023941565 -0.62252367 0.13572954 0.0946161 0.28560624 -0.19876334 -0.3503121 -0.6184877 0.20135596 -0.049986355 0.1901213 -0.007294657 0.019239748 0.036830332 0.10413613 0.30216175 -0.2281884 -0.22787853 0.25919288 -0.011146597 -0.3379432 0.31443912 -0.046086736 -0.54038715 0.061412204 0.028417071 0.09803261 0.20100185 -0.26088014 -0.106808394 -0.36123106 0.40388444 0.6352295 0.21559371 -0.026971852 0.08625695 0.5451285 -0.20955196 0.31474355 0.15459381 0.21722664 0.33068755 0.045924265 -0.11524759 0.097730204 -0.3176741 -0.12425666 -0.10420083 6.9078116e-05 -0.117671594 0.35227296 -0.21235324 0.11642708 0.15193704 0.1282415 -0.041046843 -0.035995614 -0.082807794 -0.020158416 0.62280893 -0.03952157 0.12346872 0.28504714 -0.13047925 -0.03797077 -0.49101654 0.5552591 0.22929877 -0.05631391 -0.1242599 -0.08176162 -0.011072214 -0.026199082 0.24670318 0.063151345 0.2187141 -0.13905503 -0.24026415 -0.7481566 -0.17759462 -0.6053809 -0.5475431 0.049857076 0.38083044 0.035917975 0.22337337 0.066562794 0.08046469 0.4414015 0.20834859 0.41081923 -0.15612972 0.020609317 0.08096151 0.027827365 0.24291223 -0.20091982 -0.42108727 -0.019845208 0.12582153 -0.2030111 0.21581842 -0.46541086 0.1132212 0.4103372 -0.20994595 0.21621098 0.6920696 0.81174225 -0.39874858 -0.19442308 -0.08087074 0.055124667 0.11696031 -0.16029646 -0.15467067 -0.27380443 0.008054192 0.14232326 0.17443652 -0.3949038 -0.17424332 -0.45568922 0.08845706 -0.10786441 0.2032501 -0.03127931 -0.16249348
AGGGC 0.20870817 -0.4085287 0.08102532 -0.26656377 0.5550563 -0.32232705 -0.30223995 -0.03453822 -0.04423484 0.09513054 0.430293 -0.26616076 0.018681178 0.33771735 0.016427718 0.47122148 -0.15988225 -0.19837311 0.08970718 0.3686775 0.20522262 0.32898083 -0.06492249 -0.49395373 -0.2754613 -0.2628851 -0.33198965 0.056514535 -0.39412898 0.109557636 -0.45802715 -0.12821147 0.4341519 0.24400009 -0.10778262 0.35220543 0.27588612 -0.07443681 0.2976983 0.2011111 -0.07290241 0.1095224 -0.12962897 -0.11673725 -0.3963997 -0.17620419 -0.101298094 0.33714092 -0.1626863 0.088707775 0.6985164 -0.17594904 -0.11723766 0.12810181 -0.4335329 0.24346317 0.0876966 -0.06209634 0.06743251 0.20506515 -0.7583475 0.14657438 0.13161016 -0.21939969 0.20750913 -0.12863252 0.15848352 -0.018219657 -0.28958458 0.113942474 -0.18919073 -0.009785141 -0.04552232 0.0066937795 0.40684515 0.10848668 -0.21901944 0.08255569 -0.8020873 -0.11653615 -0.8315916 -0.30711457 -0.09498579 0.26794118 -0.3029157 0.15418135 -0.057135794 -0.18359089 0.25164995 0.34907225 -0.37824667 -0.23295198 -0.030979857 0.050065022 0.19302721 0.33937952 -0.082261726 -0.34108946 -0.0099014025 0.07454477 -0.073189236 -0.37928557 -0.43319634 0.09398188 0.111912906 -0.08155645 0.11651169 0.032625742 0.36710554 -0.61865187 -0.30407912 -0.21942127 -0.088991255 -0.050853934 -0.12781048 0.15983717 -0.5011145 0.1305621 0.013631679 0.0014858986 0.094349094 -0.23237115 -0.82678145 0.21976885 -0.08808019 0.36655834 -0.08580401 0.5084317
AGCAG -0.303831 -0.6800998 -0.084825106 0.1601968 0.3334808 -0.33253536 -0.12016759 -0.7370891 0.1651982 -0.0016756903 0.37463117 -0.0017251694 0.0075797644 0.048370574 0.21243909 0.40940356 -0.06303242 -0.52059364 0.5226652 -0.10164422 -0.18766241 0.29252484 -0.2977003 -0.652862 0.20511591 0.2447255 -0.09094479 0.4963464 -0.25657836 0.038481977 -0.14253072 -0.14038943 0.42857835 0.05064607 0.24444593 0.26358002 0.42579615 0.2733472 0.39948153 -0.093311734 0.22189373 0.3447929 -0.1224631 -0.022826303 0.2477837 -0.37722856 -0.21099609 0.008680215 0.20633832 -0.16466668 0.81998724 -0.26625928 0.052338604 0.060012452 0.028383544 -0.028440816 0.24060862 -0.057615075 0.063107476 0.48225343 -0.25835305 0.42341506 0.5351681 -0.20333454 0.1596706 -0.51939225 0.0027674134 -0.06697654 0.17614529 -0.1446669 -0.21018685 -0.22087622 -0.08323943 0.1929095 0.09613749 0.012322504 -0.0063238535 -0.014856585 -0.71945816 0.05998393 -0.8716293 -0.49851492 0.10715074 0.24467154 -0.016363252 -0.122013904 -0.10800287 -0.283929 0.25417912 0.36328924 0.28000858 -0.5841035 0.13976228 -0.094478905 -0.0022554721 0.28079557 -0.38632986 -0.44193804 -0.26456714 -0.038810965 -0.314052 -0.10767631 -0.34034356 0.12875956 0.5291973 -0.31168982 -0.10624374 0.32551968 0.84638584 -0.5545696 0.14090876 -0.14401908 0.11260225 0.04502308 -0.05301846 0.15110739 -0.23142327 0.061280597 0.15705255 0.1215463 -0.1785694 -0.20335573 -0.85001093 0.18758021 -0.38636956 -0.22827148 -0.20720327 -0.14232945
TCCAG 0.15200314 -0.11183215 0.122159265 0.44811967 0.42905778 -0.22902195 -0.0508006 -0.52519476 -0.16229343 0.054717124 0.12775724 0.27495235 0.34028497 0.3427734 0.10581357 0.053264078 -0.06174326 -0.15070376 -0.034879852 -0.10083364 0.21760331 0.28627723 -0.05438239 -0.65516156 0.44585478 0.22820762 0.049462844 0.161388 0.18393871 -0.3464344 -0.34903592 0.19832669 0.15442023 0.17295761 0.55854553 -0.11923198 0.5486602 -0.19037397 -0.22670718 0.19895825 -0.35470712 0.2439565 -0.04493349 0.061120313 0.0342417 -0.117208615 -0.21884802 -0.04810106 -0.15447097 -0.20500174 0.64918864 0.20512491 -0.2545462 0.51672244 -0.27402037 -0.010318174 0.02128358 -0.21401352 -0.30505243 0.30655125 -0.2655596 0.07113913 0.45298606 -0.23301731 -0.21136491 -0.09105709 0.1528018 0.15706584 -0.09864465 -0.13992265 -0.031958275 -0.21897663 -0.39628512 -0.119599365 0.29789475 0.2721237 0.040228695 -0.11706335 -0.43998805 -0.2214979 -0.43775347 -0.45227146 0.3102583 0.39257538 -0.04452811 0.19449645 -0.07608331 0.34298423 0.036766186 -0.022792226 0.25405857 -0.16909021 -0.02468328 -0.18259934 0.26358852 0.35972112 0.17949474 -0.36381295 -0.15028599 0.11213877 -0.2448521 0.36187834 -0.20979032 -0.18877888 0.16696385 -0.033570826 0.5766848 0.54307526 0.40287143 -0.19776602 -0.05040511 0.056680888 -0.015894732 -0.2607797 -0.42991665 0.19129227 0.040586576 0.5217502 -0.07782674 -0.054707784 -0.25159043 -0.05644147 -0.016283775 0.041874595 -0.03694135 0.17164601 -0.13058145 -0.07308705
GCAGC -0.030141853 -0.6778626 -0.06786367 0.22079605 0.3927792 -0.22193964 0.03402865 -0.27791914 0.42586482 -0.16289364 0.2758372 -0.36351186 0.02711857 -0.26827684 0.1293924 0.4511165 -0.17551653 -0.5989761 0.39888814 0.250487 -0.061597064 0.38740954 -0.41186082 -0.57528126 0.06233891 0.11110711 -0.24628711 0.21294405 -0.28064093 0.08519681 0.009776319 -0.24161093 0.0015512119 -0.045850426 0.11946501 0.44721785 0.29609305 0.34047753 0.66720265 -0.31577247 0.04056899 0.32924306 -0.30374324 0.2110942 0.37696487 -0.26344255 -0.15585731 0.23524638 0.16465698 -0.09457017 0.6838273 -0.19836466 0.050516114 0.040763475 -0.015117277 -0.111378476 0.3281297 0.018110055 0.08731384 0.2815224 -0.34386984 0.07168813 0.576285 -0.24576816 0.22378978 -0.80055285 -0.28034973 -0.114775635 0.059450995 -0.27622807 -0.3849165 -0.19107652 -0.39030662 0.04746989 0.005717561 -0.06722269 -0.12155556 0.0031936094 -0.55463356 0.0694602 -0.8820512 -0.45963296 0.29075086 0.49544343 -0.1039118 0.007544619 -0.00835277 -0.083507665 0.51674336 0.40754068 0.2909766 -0.6670008 -0.064678535 0.012029211 -0.05803694 0.41947454 -0.38800436 -0.22264853 -0.3818911 0.0068715257 -0.06810713 -0.059241217 -0.37791157 0.23368278 0.36690846 -0.13996701 -0.27858314 0.12859915 0.40928337 -0.5675224 -0.12022032 -0.15771404 0.11978024 -0.21852566 -0.17308366 0.11973764 -0.31009838 0.2731441 0.04347663 0.010604453 -0.1342302 -0.37321955 -0.8214801 0.35417232 -0.33537337 -0.10975345 -0.101950414 0.045283254
GCTGG 0.46979752 -0.47626683 -0.27708375 0.2102189 0.43478352 -0.08112884 -0.24205638 0.21783149 0.2460591 0.2645764 -0.07168674 -0.93239003 0.10796071 -0.36376294 0.49088177 0.12066234 -0.5689765 -0.24357748 0.033056777 0.48002523 0.20882957 0.118450806 -0.4884856 -0.2190115 0.10512824 0.14532277 -0.45272407 -0.035588983 -0.19640772 -0.4527586 -0.02613292 -0.3056389 0.32457003 0.21884365 -0.32676882 0.45898402 -0.019307347 0.12513536 0.84972125 -0.23735838 -0.34273914 0.022651937 -0.32028866 -0.12363215 -0.025328023 -0.09021866 -0.06710267 0.39936942 -0.027112415 0.12595448 0.018830264 0.020498913 0.32392967 -0.1450098 -0.26791236 0.3049989 -0.18339281 0.23100917 -0.02548748 0.13117449 -0.098635085 -0.008632017 0.009081733 0.13353081 0.48596394 -0.55552936 0.20288418 0.21091397 -0.25097814 -0.12516372 -0.7752865 -0.034726262 -0.04713393 -0.0034114239 -0.055990923 -0.30957454 -0.2023321 -0.19066475 0.17535424 0.3028226 -0.6352713 -0.02010232 -0.14610781 0.37934917 -0.08923356 0.180428 0.17906941 -0.12948719 0.3532483 0.10157344 -0.38559884 -0.42033005 0.12052921 0.053514607 0.060011532 0.16794382 -0.17867121 -0.24911429 -0.3282193 -0.0145577025 -0.14653502 -0.2627975 -0.3586 -0.24659996 0.16244733 0.25821745 -0.37068105 0.37739468 0.59857017 -0.60054946 -0.36659548 -0.41292015 -0.28935713 -0.24453032 -0.18423301 0.19022831 -0.37698662 0.10726955 -0.15242301 0.02446068 -0.25277787 -0.22478357 -0.65049374 -0.027563684 -0.40605065 0.33117875 0.034362618 0.7372951
AGGGA -0.11592136 -0.04105845 -0.13081135 -0.1604232 0.3836988 -0.1655664 -0.39566004 -0.20541656 -0.2429914 0.405404 0.15115933 0.060169924 0.24671295 0.52127707 0.02200828 0.3532536 -0.3774259 0.29438475 -0.11235193 0.10788917 0.20033573 -0.011191251 0.05921496 -0.55076873 -0.04713032 -0.07216189 -0.2265607 0.052661814 -0.15201731 0.022536032 -0.6816542 -0.04487429 0.8050275 0.31770355 -0.030553123 0.24200681 0.01859201 -0.2775215 0.22028829 0.37589607 0.09687684 0.04504082 0.026505861 -0.30877948 -0.5435067 -0.12647966 -0.012573855 0.27203694 -0.272539 -0.07643406 0.7779416 -0.16312842 -0.07335197 0.009788504 -0.33147007 0.07255948 -0.1267649 -0.037355367 -0.03176819 0.3849086 -0.39990392 0.38429916 0.044101607 -0.24541155 0.27316874 0.07872886 0.2967764 0.06900332 -0.26921064 0.19329229 -0.20691343 0.087791726 0.06174557 0.15799525 0.29917452 0.117239624 0.057259783 0.13669789 -0.8408199 0.16962774 -0.61263746 -0.28431138 -0.098466866 -0.1921099 -0.15695484 -0.045157578 -0.06397106 -0.31589383 0.06970471 0.26853356 -0.31037053 -0.2642034 0.122595616 -0.14800788 0.061587717 -0.053261027 -0.08933677 -0.4204419 -0.049969945 0.044459242 -0.27363423 -0.18001074 -0.47245303 -0.22037491 0.09549122 -0.04062721 0.07805626 0.4879578 0.6462306 -0.38957193 -0.16285084 -0.25955704 -0.15837568 0.27156085 0.058847304 0.06304796 -0.13751704 0.06496419 0.32115662 -0.00053450227 -0.10105633 -0.20026705 -0.8634479 0.26462725 -0.16807455 0.2735762 -0.37487546 0.1966972
TCCCT 0.76365304 0.0735292 -0.2708545 0.25564522 0.6655137 0.045288656 -0.025159616 0.092269845 0.60839623 0.09409237 -0.1263447 -0.3124428 0.09413201 0.037796665 0.0063506644 0.14741728 -0.32762936 -0.14784916 -0.4376318 0.3307981 0.33575213 0.17807806 -0.24524617 -0.39556155 -0.28550535 0.07720198 -0.17174923 0.16839112 0.4130084 -0.11694962 0.033231825 -0.12376669 0.16903853 -0.16165711 0.16568205 -0.05768219 0.343536 -0.34699935 -0.0035981338 0.004130655 -0.32012382 -0.20819761 -0.12566948 -0.032325026 -0.016703766 -0.09181504 0.114107475 0.16508107 -0.24474142 0.035288673 0.25030038 0.18444468 0.3678014 0.7028126 0.017205345 -0.39732808 0.081423804 -0.30072483 -0.34391552 0.04272128 -0.27611116 0.05000962 0.09925973 0.19220035 -0.3176438 -0.055395443 0.09161598 0.18109891 -0.50891554 -0.3590862 0.10785467 0.1291053 -0.71199787 -0.5541715 0.22599453 0.12353403 -0.12978746 -0.00097619556 -0.16012757 0.3262615 -0.12094213 -0.10564463 0.46297365 0.314761 0.30394047 0.4959647 0.038918685 0.5252523 0.45123702 -0.08269788 -0.2663201 -0.21887478 -0.19781856 0.40775463 0.19682622 0.16496727 0.4144442 0.04413591 -0.46464732 0.20532799 -0.14700706 -0.10588059 -0.032507803 -0.5117231 -0.36822647 0.22222523 0.401918 0.63483244 0.2134004 -0.010053008 -0.014993036 -0.0145176435 -0.14246733 -0.18439747 -0.5065132 0.061388783 0.34944302 0.64884317 -0.52669746 -0.09563693 -0.2362232 -0.5675872 -0.13405274 -0.16610487 0.18154827 -0.027235214 -0.045345314 -0.030206876
TGGAG 0.16676825 -0.15654494 -0.45522568 0.060708635 0.26030436 -0.0030149682 -0.49609056 -0.12648723 0.13516249 0.29091614 -0.2917964 -0.6078806 0.058786184 -0.13286826 0.36202645 0.2951465 -0.64848584 -0.1313418 -0.22157556 -0.021165527 -0.021002844 0.08676565 -0.14168751 -0.078117475 0.2566491 0.16736326 -0.14150265 0.2619862 -0.11408545 -0.19674136 -0.34714535 -0.2231122 0.93016046 0.17329891 -0.13103476 0.13047734 0.026786277 -0.08587681 0.7383136 0.10925193 0.1309325 0.060202725 -0.0015150676 -0.40101022 -0.25120133 -0.19909973 0.06420244 -0.07272787 -0.12672307 -0.28584594 0.15422118 0.10876591 0.28094405 -0.07445208 0.37549272 0.02904624 -0.26718897 0.13800928 -0.23222187 0.13475494 0.2316141 0.09515277 0.13334714 0.22576925 0.19656175 -0.16168669 0.45151034 0.41558227 -0.33100688 -0.20381156 -0.2899483 0.03874255 0.103271 0.17845222 -0.08964978 -0.24597557 0.07555206 -0.19801733 -0.028039783 0.43710756 -0.33952716 -0.026731001 -0.11197549 -0.054919913 0.11037969 0.08830663 0.043547753 -0.0408897 0.35294193 0.1908111 -0.23807767 -0.3345775 0.3749445 -0.06570717 0.14991231 -0.07079135 -0.16869038 -0.12843277 -0.32376167 -0.2699913 0.010872489 0.025581447 -0.51783204 -0.31616887 0.13278559 -0.003444306 0.016480053 0.6463074 0.650453 -0.45079055 -0.34449893 0.106444605 -0.0407495 0.09033507 -0.19759794 -0.04056384 0.18177304 0.0978307 0.030838147 -0.24456602 -0.50766873 -0.3937216 -0.574414 -0.08105784 -0.35100612 0.12420514 -0.06969355 0.24787591
CTGCT 0.5845315 -0.42467007 -0.27160767 0.5388482 0.42139736 -0.17452464 -0.11787522 0.097703956 0.49074203 0.1388248 -0.005043234 -0.6745505 -0.03493409 -0.1940583 0.22644557 -0.14459519 -0.46565518 -0.094303034 -0.14169395 0.5727243 0.3329126 0.33075583 -0.612309 -0.2259178 -0.33920902 0.24267249 -0.54433435 -0.0959587 -0.043723717 -0.08593561 0.033486 0.07979624 -0.17836449 -0.33853015 -0.26610154 0.46547967 0.039083876 -0.048931867 0.6610427 -0.13389005 -0.6689429 0.13475609 -0.12695281 -0.066285916 0.28129274 -0.013382519 0.088776045 0.28414923 -0.15561152 0.17912921 0.19591731 0.039168183 0.4651484 0.119924605 -0.10677772 -0.24798323 0.016140513 -0.11712733 -0.17084946 0.24504595 -0.0370756 -0.15583032 -0.053174995 0.029933931 0.50485545 -0.6077819 -0.13081758 0.30738914 -0.21693443 -0.44309047 -0.3065253 -0.14119048 -0.6080466 -0.17288336 0.17790845 -0.3225864 -0.36634576 -0.2970137 0.30732673 0.26049176 -0.1047191 0.16634053 0.011066084 0.7820564 0.024709018 0.4123837 0.26052716 -0.067499936 0.7400633 -0.23429872 0.12580079 -0.10110324 -0.076465055 0.29010564 0.34059414 0.28022966 -0.16991542 -0.5597007 -0.41521746 -0.12030728 -0.53938925 -0.11990117 0.06526854 0.05748738 -0.18356386 0.14071783 -0.13708353 0.028002279 0.11162637 -0.457607 -0.028050944 -0.35075155 -0.054908663 -0.17778248 -0.3343849 0.11109933 -0.035584923 0.38932264 -0.48196 0.16703813 -0.42478174 -0.46330142 -0.31548136 -0.010215462 -0.33625796 0.13870083 0.0037642624 0.6432859
AGGAG -0.19249924 -0.47884035 -0.06478426 0.1706882 0.26119384 -0.29560596 -0.48765987 -0.5644638 0.070107915 0.15749736 0.07786505 -0.19045922 0.100181855 0.36861002 0.23079188 0.3216286 -0.49313813 -0.19170561 0.18032563 -0.25057128 0.1795138 0.43296885 0.118031956 -0.50509775 0.14992593 0.0008366213 -0.14816155 0.18601242 -0.20837343 -0.104957856 -0.8449095 -0.10033498 0.9769547 0.3927357 0.11828082 0.23253524 0.16494055 -0.15423457 0.35755467 0.36301965 0.2637744 0.25150022 0.21290985 -0.10293719 -0.15823132 -0.20562299 0.2670776 0.10631651 -0.16428284 -0.06607009 0.5839426 -0.013993921 0.12138993 0.10868089 0.12707491 0.107199594 -0.39248517 0.0031039645 -0.00064062007 0.42064452 -0.09600391 0.41012967 0.2189084 0.06361728 0.15479617 -0.017007645 0.35738668 0.35610682 -0.19453055 -0.005003871 -0.22115153 -0.15191278 0.30767155 0.3923961 0.46740988 0.1016732 0.015965752 -0.06522033 -0.7391206 0.03454232 -0.8589585 -0.3544425 -0.008548077 -0.02703986 -0.06755282 -0.17558995 -0.1293674 -0.098071314 0.27830356 0.10903096 -0.13372363 -0.39916253 0.08021866 -0.1170958 0.20536073 0.14158942 -0.061184946 -0.161788 -0.26840112 -0.008557646 -0.14670493 -0.011504398 -0.5997069 -0.33556136 0.15030885 -0.22492734 0.16029207 0.61552453 0.8316414 -0.45251164 -0.20335732 -0.1513975 -0.1441398 0.1797107 -0.064264804 -0.059124585 -0.11887263 0.023660896 -0.053602125 -0.14192055 -0.39195412 -0.17739919 -0.8753521 0.20510355 -0.17536426 0.35932544 -0.026624028 0.13233459
AAAGT 0.0075794854 0.009375651 -0.541343 0.3308906 0.29549366 -0.054270584 -0.17050964 -0.48294425 0.012374963 0.52717686 0.33073354 0.0912171 -0.32090995 0.2991823 0.19241156 0.08603257 -0.25844115 -0.27937365 -0.34354696 0.14593461 0.34612307 0.07819354 -0.14093836 -0.47642076 -0.28893554 -0.0001557543 -0.38673148 -0.024777679 -0.082387395 0.15368073 0.030637555 -0.10689309 0.32982877 -0.1745507 0.14481606 -0.048340265 0.2773897 -0.4484951 -0.40558025 0.25180033 -0.4089826 0.03977672 0.07721689 -0.16146107 0.08651996 -0.33456898 -0.30111292 0.20499752 0.21385995 0.24477829 0.49944213 0.042949907 -0.062376365 0.23274761 0.46161047 -0.042933807 0.02208417 -0.2853729 -0.39152247 0.5160988 -0.13664533 0.6566285 -0.27909085 0.13538289 -0.16184938 0.058671337 -0.07206515 0.2874541 -0.5610898 0.2674729 0.093112774 -0.09620519 0.28540346 0.13060378 0.6225953 0.20767261 -0.2585783 -0.37976673 0.200627 0.24217007 0.22395363 0.13547312 -0.39404285 0.32539272 -0.16729937 0.12682879 -0.061189894 -0.24199417 0.3118936 0.05973684 -0.01492992 0.46320894 0.1866708 -0.044110507 0.15021265 0.12539393 -0.35386598 -0.45709088 -0.4869839 -0.30621836 -0.29956648 0.1613442 0.29718593 -0.13325958 -0.045132775 -0.12114728 -0.14956439 0.4279323 0.85845023 -0.37712875 0.29715237 -0.40523785 0.013981917 0.03925283 -0.05305026 0.49738482 -0.3117769 0.3316769 -0.6684368 -0.3538456 0.030774888 -0.19359422 -0.091011584 -0.26100788 -0.42607626 0.058668777 0.092125446 0.31072775
CTCTG 0.55086434 -0.07809624 -0.03423403 0.47186962 0.28536773 -0.022477733 -0.26440087 0.08656021 0.36273998 -0.15656736 -0.06515182 -0.646686 0.115347035 -0.1530659 0.094468586 -0.32467404 -0.5321854 -0.065125525 -0.030701704 0.14224696 0.3306015 0.27126366 -0.5036226 -0.15891883 -0.47559384 0.08910448 -0.45771062 0.05612075 -0.021665161 -0.05147605 0.09642182 0.036974695 -0.036465757 -0.083948724 -0.17094259 0.2757875 -0.012332967 0.23294221 0.4824969 0.32837304 -0.5893992 -0.043251503 -0.15980557 -0.19738819 -0.20306067 -0.07329279 0.15307257 -0.026713712 -0.5592112 -0.094228484 0.36506662 0.18113525 0.48432872 -0.2944845 -0.1939062 -0.15130754 -0.19966799 -0.12584205 -0.43263328 0.32447556 -0.17099535 -0.051253088 -0.24507944 0.3668685 0.37127352 -0.5839813 0.084608234 0.0018549113 -0.34529755 -0.2782116 -0.27552205 0.08272939 -0.7820466 -0.23905261 0.30994627 -0.16044112 -0.06280554 -0.31338817 0.052510988 0.34749404 -0.12398447 0.25339538 0.045335565 0.71188414 -0.020672627 0.10605372 0.26625484 0.02763732 0.24499756 -0.28345862 -0.03742707 -0.060285583 -0.24984203 0.49304068 0.30235064 -0.13222767 0.15642126 -0.43007034 -0.39499313 0.11833818 -0.40416718 -0.0020852925 0.049919542 0.07505883 -0.04449205 0.36180213 0.16854541 0.15380172 0.10479494 -0.17186758 0.29457015 -0.25333276 0.083207026 -0.19998436 -0.21301027 -0.067191646 0.29288706 0.46315473 -0.28265294 0.26800942 0.01120774 -0.58188397 -0.36483034 0.081771635 -0.21735166 -0.031023521 0.08680332 0.2013509
GGAGG 0.046374343 -0.35740823 -0.30777273 -0.027451387 0.4328446 -0.3654161 -0.565414 -0.19239931 -0.06175142 0.3297198 -0.030955995 -0.49783576 0.17708929 0.28947186 0.1775893 0.5325547 -0.7076801 -0.085126735 -0.18847713 0.15523447 0.08012082 0.17420448 -0.05741747 -0.52768856 0.15032527 0.052977145 -0.19358096 0.08411102 -0.26322448 -0.23551722 -0.6886571 -0.1915608 1.1062942 0.49596867 -0.08312133 0.21994865 0.07950051 -0.012745968 0.54677296 0.2009727 0.13188136 -0.0394715 0.03192405 -0.26089144 -0.43899983 -0.07093618 0.102809265 0.2810165 -0.29193673 -0.12718222 0.55676574 -0.02898938 0.15090412 0.12897469 -0.033060063 0.26729694 -0.30921364 0.057950452 -0.091443904 0.29548547 -0.30766824 0.2885231 0.22386721 0.15868816 0.30473348 0.01066663 0.5859924 0.25943178 -0.46502528 0.10402406 -0.2493213 0.12568083 0.24140851 0.2526048 0.20757325 -0.028918123 0.0160528 -0.08229834 -0.5454962 0.34117022 -0.914897 -0.32630214 -0.1051577 -0.029896049 0.038250994 -0.02904921 -0.121502556 -0.084130935 0.22345927 0.22092633 -0.51353323 -0.38593325 0.35915953 -0.13910365 0.23705472 0.0963713 -0.011062117 -0.1294657 -0.20859435 0.012555161 -0.21253896 -0.20469312 -0.6191264 -0.35390317 0.24731523 -0.102749564 0.1903203 0.61444324 0.6571194 -0.541545 -0.4089495 -0.035069354 -0.18221378 0.18926537 -0.14369372 0.042143602 -0.1444255 -0.017893406 -0.016276922 -0.12062421 -0.17723882 -0.35526574 -0.9916993 0.12198139 -0.09529111 0.36561656 -0.13746195 0.30382338
CTCCT 0.8130206 -0.13130054 -0.18095975 0.27469766 0.39673862 -0.26457733 0.00016205655 0.23614454 0.44671673 0.079042085 -0.12893791 -0.24594435 0.32637617 0.06807222 0.07029199 -0.06936466 -0.50570387 -0.0044565606 -0.38355124 0.14885356 0.3885909 0.33723843 -0.38291296 -0.5185625 -0.10829956 0.29958287 -0.27408972 0.25516 0.2488918 -0.3488813 -0.105574064 0.26840645 0.10972146 -0.31385553 0.12773961 0.0696758 0.17902346 -0.16396895 0.5580755 0.28770557 -0.729156 0.15795445 -0.060024027 -0.18149072 0.06555317 -0.15335916 0.17904565 0.07465648 -0.30692193 0.045782935 0.29356602 0.14895095 0.38085726 0.49491277 -0.26277435 -0.31276765 -0.19314931 -0.1341617 -0.30445117 0.24701394 -0.3254093 -0.17349118 0.010902077 0.26258427 0.07876555 -0.14800127 -0.100088626 0.2320961 -0.07312916 -0.48030648 -0.15038428 -0.19313717 -0.8362219 -0.62662536 0.31402788 -0.06185495 -0.05382928 -0.2602315 -0.026788631 0.32709044 -0.15076458 0.086916395 0.46803123 0.52854466 0.11842965 0.46795923 0.2754915 0.29006615 0.34695905 -0.09155595 0.014659194 -0.34116557 -0.24035203 0.22632349 0.33186457 0.09497415 0.53737843 -0.2550657 -0.17061809 0.092644654 -0.41894305 0.08284969 -0.21322073 -0.19216724 0.013554323 0.33768058 0.6137201 0.32541767 -8.1340964e-05 -0.051572062 -0.06011677 -0.22483745 -0.106870495 -0.20059106 -0.38398615 -0.30004832 0.52019906 0.63508725 -0.26407224 0.2916702 -0.49106702 -0.3392151 -0.46989122 -0.026293194 -0.09924723 0.039134905 -0.09389879 -0.016430875
GGGAG 0.16384605 -0.2958843 -0.47849482 -0.021299904 0.39220768 -0.19307779 -0.57647973 -0.196206 0.018053107 0.20031969 -0.023132259 -0.40789863 0.27751833 0.29788846 0.26110354 0.3738383 -0.6924147 0.014008097 0.017016413 0.27257684 0.09269557 0.15324225 -0.05139324 -0.38578117 -0.04242761 0.034301333 -0.27297592 0.23072128 -0.29216295 -0.17287967 -0.44666508 -0.2975669 0.8828577 0.3726135 -0.13956441 0.013841841 0.06965992 -0.25978875 0.5085363 0.40062568 0.15570554 0.02134153 -0.027250526 -0.40049896 -0.31141245 -0.044330385 0.030091248 0.3498077 -0.2686997 -0.069292344 0.5522799 -0.13125174 0.20276907 0.042167675 -0.1512124 0.008455102 -0.2045749 -0.0022777992 0.011501786 0.3629986 -0.24562265 0.2576126 0.067897595 0.26653224 0.42412195 -0.008037537 0.51865757 0.26748693 -0.29720643 -0.061237037 -0.3812389 0.10971359 0.20153359 0.1715552 0.048475206 -0.14206493 -0.017963821 -0.0061536636 -0.5357462 0.40886652 -0.8348783 -0.22413899 -0.06324007 0.03853954 0.008174849 0.114265256 -0.012364305 -0.3748117 0.18135223 0.112266734 -0.3454854 -0.39842096 0.3099678 -0.04085052 0.28960764 -0.07218226 -0.14046273 -0.34118375 -0.08629462 0.11969985 -0.20595899 -0.3661482 -0.5461828 -0.22575672 0.020743892 -0.14647382 0.15389055 0.6436329 0.7869531 -0.5509364 -0.2639324 -0.17341574 -0.22655383 0.45080414 -0.10718787 -0.054875325 -0.05810941 -0.010703664 -0.0020282122 -0.022308923 -0.2898062 -0.34836447 -0.92809975 0.10585076 -0.14913993 0.27703816 -0.022545282 0.38011855
GTGTG 0.2979784 -0.24076955 -0.29518265 0.41252038 0.24806342 -0.004934577 0.07404057 -0.31608358 -0.1650785 -0.17651768 0.072440565 -0.03239168 -0.21323113 0.10413374 0.3172084 0.511198 -0.42628276 -0.09755958 0.2938484 0.33017418 -0.27459395 0.48116618 -0.5099432 -0.14638737 0.047646217 -0.010786892 -0.46926826 0.106848404 -0.3322521 -0.10128057 0.011171786 0.028744638 0.41982493 -0.50421697 0.34693047 0.043842625 0.17810489 -0.14525777 -0.0382623 0.22434993 0.25753784 0.16535951 -0.5259657 -0.32433492 0.29954678 0.02293633 -0.45073757 -0.41283682 -0.25357667 -0.22044393 0.17883237 0.19683768 0.4950777 0.11530988 0.2949727 0.15212965 -0.046878275 0.061503537 -0.41396847 0.3105266 -0.12504952 0.081047386 0.10405808 0.35193086 0.53424895 -0.023884766 -0.010449396 0.1415666 -0.3252038 -0.12039363 -0.22518957 -0.5199186 -0.040654484 -0.17942785 -0.2510711 -0.006093989 0.017651964 -0.28825945 0.16502096 0.7503246 -0.14257114 0.10352791 -0.22413723 0.100137524 0.59901226 0.42257005 -0.31482866 -0.07933492 -0.28864053 -0.017050292 0.06972556 -0.33104354 0.2862843 0.0007264613 0.52042854 0.071074516 -0.404917 -0.6689136 -0.34562635 -0.4619069 -0.47550103 -0.3733984 -0.017952476 -0.3565567 0.27817127 -0.20502833 0.4580616 0.34117934 0.87507635 -0.8056928 0.1515059 -0.053646803 0.5421301 0.24303614 -0.07309678 0.4856551 -0.122826196 0.4594402 -0.3056099 0.02580172 -0.14508992 -0.49321675 -0.5673836 -0.1931523 -0.32425377 -0.034929756 0.15573435 0.53976554
TTTTG 0.6268406 0.17311797 -0.36642662 -0.00695022 0.54620457 0.07534182 0.15108879 0.05864353 0.21575357 0.26022586 0.0307482 -0.088856734 -0.2814656 0.23590079 0.0043307524 0.6365242 -0.44726005 0.59198827 0.13265003 0.43163788 0.23969918 -0.32515228 -0.44183087 -0.124843195 0.589613 0.27305928 -0.3829977 0.06673717 0.028726963 -0.03432913 0.025875509 0.17602706 0.6867851 -0.4756328 0.41362944 0.2787448 0.16049646 0.2175492 0.45210618 -0.14898475 0.098426245 0.33837354 0.08443415 -0.3139676 0.17493585 -0.019891402 0.03951437 0.53035104 -0.4148352 -0.0011802684 0.47322395 0.26585886 0.35862222 0.15684247 0.15471254 -0.573163 0.57137173 -0.08084018 0.0006649278 0.17830788 -0.2239764 -0.07788318 0.34453472 0.29606557 0.27432775 -0.27865332 -0.26586488 0.10409118 -0.21593639 -0.15902886 0.043910023 0.37315297 -0.58383155 -0.24231142 0.0037234987 -0.41059402 -0.01850093 -0.056750458 -0.30922544 0.19906197 0.037362665 -0.0793867 0.11208396 -0.012046038 0.13599466 0.08651135 -0.2503234 -0.030850742 0.44401118 0.3382183 -0.23230214 -0.4040249 0.50743794 -0.1424598 0.25743642 0.02278025 -0.10461938 -0.39174327 -0.4374238 -0.05072748 -0.108194694 -0.06438758 0.15172544 -0.28594783 0.37186646 -0.17009692 -0.37113553 0.5828793 0.07557359 -0.48456043 -0.18353309 -0.2243827 0.23746748 -0.23495433 0.08705822 -0.09788304 0.072100006 0.25613046 -0.10759593 -0.124611534 -0.32602024 -0.68723595 -0.31347734 -0.17165941 -0.13878082 -0.056928303 -0.3360486 0.18754278
GCCCT 0.47253656 -0.20091482 -0.0035768617 0.14258644 0.62283355 0.07374668 -0.2247036 0.07871796 0.78382427 0.0038132544 0.07951155 -0.71457684 0.0036294784 -0.17785513 -0.088209555 0.3543931 -0.40160432 -0.17126028 0.06298421 0.33806986 0.2333988 0.4527207 -0.31036794 -0.16824089 -0.3047939 -0.1506761 -0.30776784 0.28169078 -0.022716751 0.10993724 0.026882438 -0.282237 0.03800493 -0.15246852 -0.10849075 0.059609294 0.4051502 -0.20301282 0.34061214 -0.1586384 0.044792525 -0.050704386 -0.24426232 -0.16722515 0.09064668 -0.14308314 0.38624573 0.066606544 -0.31620127 0.24001093 0.44339702 -0.07347082 0.15689334 0.23175488 -0.1389395 -0.32180312 0.20627458 -0.20610155 -0.01586181 0.09661364 -0.37898877 0.15117092 0.29528996 -0.052076854 -0.21742515 -0.48730835 0.03218398 0.15753035 -0.2500042 -0.36985812 -0.06981646 0.24310899 -0.70273614 -0.2505065 -0.05828923 -0.045138292 -0.22727656 0.029882703 -0.44871944 0.2324293 -0.3274632 -0.20966642 0.5070133 0.28196645 0.16585432 0.31004718 0.15965411 0.15039131 0.5941909 0.16524065 -0.247868 -0.38178706 -0.15758148 0.5085534 0.07210751 0.30900612 0.30284795 0.10808552 -0.6513938 0.29585603 -0.09987544 -0.45619613 -0.23164329 -0.1621712 -0.20979522 -0.010541036 0.19196013 0.2568388 0.041073833 -0.09663563 -0.0555721 -0.03536575 -0.30738103 -0.10860548 -0.24468553 -0.11534649 0.18490173 0.4845695 -0.10220946 -0.12568273 -0.2809427 -0.6504456 -0.601286 0.11362301 0.39480898 -0.18463108 0.020895425 0.2523612
CAGCT 0.19766614 -0.68327457 0.10467135 0.4596273 0.36961955 -0.27577558 0.0641124 -0.15022112 0.41819745 -0.15224625 0.18569557 -0.26595545 0.084453754 -0.16284306 0.4297189 0.048146218 -0.24773987 -0.27721557 0.22028524 0.30625778 0.18054096 0.48687065 -0.34400064 -0.23365325 0.2469293 0.32027897 -0.04583059 0.2280429 -0.106343105 -0.41524133 0.053614147 0.019866982 -0.10963787 0.09371594 0.06539945 0.5253007 0.22739612 0.2331731 0.6672348 -0.31418535 -0.35793793 0.42010397 -0.42882776 0.13163699 0.4094105 -0.07239086 -0.10395369 0.097722866 0.26059332 0.114631936 0.18888268 0.018262045 0.07524189 0.34260723 -0.5323601 0.02086136 -0.049233794 0.063703276 0.066674866 0.37995207 -0.115221106 -0.046329826 0.36838123 -0.17680326 0.04145982 -0.4855329 -0.16495083 -0.0765271 0.33469176 -0.30444947 -0.46876055 -0.3302808 -0.3397057 -0.15578577 0.15277754 0.018787963 -0.093025245 -0.20239198 -0.23900884 -0.12207765 -0.64491117 -0.4030791 0.29295897 0.6953553 -0.082542166 0.0016636107 0.16082793 -0.15611033 0.35509902 0.1875889 0.049601905 -0.35634938 -0.20194536 -0.016334312 0.07889471 0.29586852 -0.21089856 -0.21007086 -0.15271316 0.1352803 -0.32689247 0.11040489 -0.12459449 0.06625852 0.30832067 0.12670112 -0.1896537 0.35130873 0.4741051 -0.30484286 0.00412069 -0.3118007 -0.12150483 -0.3026503 -0.20729794 0.22911505 -0.3048498 0.2268856 -0.21424493 0.43322387 -0.5028666 0.011732753 -0.19994462 -0.01643076 -0.309226 -0.071942724 -0.1562196 0.2686086
CTGGA 0.28486174 -0.07828496 -0.42250666 -0.062121015 0.13542558 0.10701775 -0.5562849 -0.043010917 0.23205242 0.58495194 -0.36887333 -0.7300187 0.1357916 -0.2613504 0.07712614 -0.012179613 -0.55119187 0.07856828 -0.373693 0.08686901 0.12615024 -0.0035617745 -0.25346905 -0.20373851 -0.1418245 0.23853227 -0.34882522 -0.03542573 0.049552564 -0.28874665 -0.09680794 -0.15662952 0.5439034 0.11147427 -0.5035781 0.27808896 -0.09855924 -0.12291638 0.8626981 0.101635076 -0.2648559 -0.0758905 -0.053646315 -0.40311787 -0.31263536 -0.12168181 0.112209894 0.051171433 -0.22074252 -0.07051697 0.12933066 0.025842404 0.33625796 -0.23114534 -0.030749971 0.066217616 -0.25832596 0.1940954 -0.16044357 0.11564556 0.029049972 -0.0367414 -0.17749462 0.25487307 0.3869423 -0.33367732 0.32558826 0.28267547 -0.35539046 -0.2634653 -0.38392237 0.07110834 -0.11368123 0.11244438 -0.028313952 -0.22767903 0.04583372 -0.21249795 0.15314674 0.46096724 -0.05829666 0.084303826 -0.039469536 0.1004112 -0.17646213 0.3127982 0.22300406 0.03772735 0.44533142 -0.08277477 -0.27676073 -0.24967729 -0.096938394 0.18192631 0.10882749 -0.24839851 0.08977131 -0.1609717 -0.29189542 -0.27719563 -0.16225934 0.01983118 -0.45573914 -0.25038603 -0.10208721 0.26221025 0.045797803 0.48746604 0.44906083 -0.22836111 -0.07376539 -0.16947533 -0.23618205 0.031111494 -0.17477794 -0.12901966 0.16524474 0.034594726 0.22264291 -0.07774829 -0.3321889 -0.32532215 -0.53320605 -0.09547943 -0.3605245 0.29040387 -0.12764816 0.10399899
CACTT -0.07341747 0.0467335 -0.16350424 0.17388612 0.37202114 -0.42744017 0.31069514 -0.4756888 0.40164688 0.42468965 0.056091968 0.14475496 0.03465663 -0.16703267 -0.06954402 0.3355061 -0.16737251 -0.04197447 -0.07574881 0.21236823 0.069742456 0.0025197521 -0.6820147 -0.51317424 0.18008012 0.7746556 -0.38950098 0.3305196 0.20967089 0.04257412 -0.046300013 0.12671265 -0.18613411 -0.38097432 0.28019723 0.41389197 0.12649867 0.29074165 0.68350637 -0.015970934 -0.087658584 0.2885214 0.25470263 -0.17886718 0.13207135 -0.244969 -0.09269401 0.22871129 -0.03962594 -0.15509333 0.65065205 -0.031935766 0.1261266 0.3025538 0.062122393 -0.61040026 0.6594916 -0.24251342 -0.18936886 0.073096015 -0.2674537 -0.0766213 0.50920653 0.043058604 0.28082308 -0.4677818 -0.23523208 -0.099222235 0.19269998 -0.4777129 -0.07830237 -0.046678193 -0.75091356 -0.15680552 0.008276799 -0.35140243 -0.02806072 -0.032289315 -0.3224017 0.09464711 -0.2689399 0.07168808 0.4108273 0.0580345 -0.19746138 0.10634033 -0.09181377 -0.2824406 0.5309051 0.4254796 0.22998236 -0.33490425 -0.05686652 0.070795424 0.095847264 -0.19445422 -0.17832069 -0.13277365 0.05159411 -0.15588167 -0.42802814 -0.15584262 0.2290008 0.041434433 0.04089292 -0.013285396 -0.23255162 -0.25106344 -0.031101253 -0.44985172 0.39263824 -0.14182898 0.39655262 -0.03529322 -0.16447508 -0.025541466 0.47719038 0.103589915 0.17146961 0.05434084 -0.4279273 -0.41352594 -0.49281934 0.03151983 -0.38876373 -0.45325673 -0.408459 -0.34531835
CAAAA -0.03308833 -0.10789868 -0.19323143 0.18082415 0.15896276 0.13294236 0.069087625 -0.66566545 0.4205662 0.3700397 0.14208955 -0.14203128 -0.111365974 0.23936845 -0.0070081437 -0.12365789 -0.38394976 -0.36174732 -0.5970512 0.42284757 0.038437955 0.03291109 -0.16210279 -1.0302268 -0.6486783 0.11086019 -0.43191856 -0.46077293 0.15241335 0.42718622 -0.13283144 -0.0040332605 0.28367603 -0.19810377 0.28982487 0.012632878 -0.03667759 -0.40381864 -0.22926843 -0.074077845 -0.48306325 -0.062307138 0.09707101 0.113244526 0.32660446 -0.31030273 -0.3997758 -0.101850085 0.26040286 0.19803172 0.7632519 0.028141106 0.07329821 0.0508619 0.013019654 -0.038066328 0.19536097 -0.20402499 -0.25137538 0.6091151 -0.45471984 0.4815904 -0.29721487 -0.048530422 -0.15009114 -0.059866212 -0.2911352 -0.21300061 -0.5651571 0.29228976 -0.17389803 -0.08929341 0.03197648 0.09413159 0.74155515 0.32788822 -0.29106715 -0.22721393 -0.47231734 0.2863696 -0.010985791 0.2227249 0.008892249 0.10084246 -0.42355567 0.005279652 0.11579124 -0.04521289 0.52196497 0.010369582 0.14964145 0.04107304 -0.35962057 -0.1833775 -0.06376869 -0.06955885 -0.075870484 -0.027866144 -0.24542251 -0.60599077 -0.18599148 0.32896328 0.02327071 0.3100122 -0.1773941 0.105038315 -0.37558562 0.23312597 0.7934975 -0.29063 0.3518821 -0.35014522 0.025661394 -0.024707394 -0.0599081 0.5123503 -0.29819107 0.6206081 -0.20068604 -0.25574422 0.08527746 -0.063975364 -0.40379766 0.2595646 -0.4519408 -0.031533115 -0.28502777 -0.19758281
CCTCC 0.73596495 0.14039303 -0.03406761 0.4565582 0.48200992 -0.10569693 -0.028805805 -0.09518901 0.6528303 0.038757227 -0.16261657 -0.24513173 0.3299806 0.051812693 -0.10234519 -0.0013263432 -0.530367 -0.11195185 -0.54117465 0.4009227 0.36580792 0.48493195 -0.12079682 -0.6740134 -0.27962786 0.16316658 -0.2395216 0.01203048 0.38854027 -0.26260468 -0.24046212 0.17457211 0.077134565 -0.18742022 0.3360102 -0.1588274 0.35335383 -0.4280658 0.0695878 0.41503957 -0.7243506 -0.03520711 -0.14020325 0.04698011 0.11709552 -0.014678216 0.0786913 -0.06338853 -0.29283488 0.012369552 0.41614944 0.17136455 0.09515669 0.5825493 -0.40097708 -0.15736553 -0.027324518 -0.16468935 -0.26249903 0.29660112 -0.34012905 -0.030947056 0.10233189 -0.051854156 -0.19568709 -0.088413335 0.05909459 0.23639342 -0.26296902 -0.35296196 -0.090702735 -0.11261183 -0.8539747 -0.54286534 0.27643478 0.16737448 -0.16250409 -0.17486854 -0.38056755 0.41822287 -0.12225553 -0.29823363 0.6844135 0.42047432 0.23090574 0.34946784 0.10343103 0.42807946 0.45756322 -0.10957672 0.060138512 -0.43427658 -0.33541325 0.14216864 0.42084417 0.24098226 0.53895986 0.070061386 -0.44580898 0.08806619 -0.30033883 0.17020056 -0.27288285 -0.16870451 -0.08415996 0.20599563 0.73376036 0.37234452 0.0042684176 0.12754188 -0.04218085 -0.013438619 -0.06289382 -0.21145506 -0.43458682 0.054973852 0.36340797 0.72315985 -0.22435565 0.051225442 -0.36762935 -0.2670915 -0.465552 0.091575384 0.1529985 0.06348657 -0.18689255 -0.033049975
CCTGT 0.6773557 0.18060596 -0.12995915 0.23580506 0.28347564 0.07849271 -0.23405205 -0.09152171 0.47497788 -0.040040836 -0.10047046 -0.3210654 -0.27284634 -0.4095396 -0.20554231 0.34415165 -0.39738396 -0.03475822 -0.058132086 0.302611 0.22188815 0.4445791 -0.24187309 0.17637037 -0.42713332 -0.021075735 -0.36470065 -0.0859292 0.12845631 -0.19422409 0.14947677 -0.009485597 0.010789756 -0.46614784 -0.039152697 -0.08054747 0.01680514 -0.5163696 -0.07892979 0.30612686 -0.027018238 -0.008862181 -0.5666519 -0.29490274 0.16485038 0.15930624 0.20676756 -0.29493472 -0.47003818 -0.04597687 0.3149403 0.064762704 0.25838026 0.35370183 0.073883615 -0.06284923 -0.06848654 -0.047289796 -0.47939438 -0.15498798 -0.21732709 0.052922085 0.15717728 0.21234342 0.0051931594 -0.200661 0.30478165 0.15331943 -0.15152796 -0.6534978 -0.016455222 -0.06141809 -0.6656038 -0.5437268 -0.24424279 0.058066614 -0.014459457 -0.0918257 -0.00053921086 0.6055295 0.020817261 -0.21234936 0.46634793 0.22095902 0.5695064 0.5583568 -0.073947564 0.15180933 0.20295687 -0.15269859 -0.2962596 -0.36857167 -0.17881699 0.46708614 0.57934016 0.0627937 0.41276187 -0.16934742 -0.81521523 -0.12154906 -0.2380712 -0.68573445 0.042114794 -0.32723966 -0.12187868 -0.16141282 0.51606596 0.41597554 0.3588844 -0.047799442 0.23360188 0.08012523 0.12083591 0.08623015 -0.37695596 0.17350924 0.35204318 0.19754733 -0.45430407 0.1205758 -0.12837206 -0.5878615 -0.40602127 -0.15552601 0.21464445 -0.25668982 0.20909579 0.14467111
TGTGT 0.464788 -0.022921532 -0.24695395 0.4850668 0.25734335 0.09240182 0.08705173 -0.35638675 -0.01895386 -0.21894436 0.069133125 0.1266314 -0.24088556 -0.006765822 0.15777275 0.44522035 -0.48758134 0.14478454 0.20812367 0.27230716 -0.12702326 0.35997152 -0.55603284 0.06991064 0.008955349 0.06539786 -0.4809585 0.06408776 -0.14598784 -0.061780673 0.12081097 0.082549274 0.1860922 -0.63111293 0.42409962 0.07077993 0.08299652 -0.15619649 -0.20384538 0.2078848 0.1737856 0.17550884 -0.6541083 -0.327341 0.3088943 0.022364223 -0.27206883 -0.4969882 -0.36867675 -0.26303953 0.20600742 0.25512958 0.46879405 0.23897925 0.3272324 0.12374564 0.085251056 0.0032036523 -0.5536909 0.21634819 -0.19591586 0.11924566 0.26063183 0.45689166 0.3756364 -0.012900992 0.01051352 0.06934295 -0.27180144 -0.4127029 -0.1106611 -0.5079281 -0.26395434 -0.37922063 -0.18008634 -0.039918233 0.1528902 -0.23430176 0.19726756 0.70877415 0.011168642 -0.026543124 0.014141138 0.10836213 0.61144274 0.553565 -0.33427814 0.0013124037 -0.32476252 -0.17742307 -0.012323114 -0.25430623 0.18284689 0.11376974 0.5545493 -0.0963219 -0.10077086 -0.58290285 -0.5550289 -0.41708916 -0.51127523 -0.4232339 0.102452934 -0.37944478 0.16149089 -0.110065326 0.46775547 0.43685952 0.6573882 -0.49527165 0.35881007 -0.056271456 0.5669815 0.15594424 -0.17264585 0.46108535 0.16438459 0.53833175 -0.36656785 0.14689301 -0.08669518 -0.51147467 -0.4311858 -0.18173736 -0.22983146 -0.19621053 0.18077406 0.281179
